// AUTO-GENERATED by export_audio_weights.py -- do not edit by hand.
#ifndef AUDIO_CLASSIFIER_WEIGHTS_H
#define AUDIO_CLASSIFIER_WEIGHTS_H

#include <cstdint>

// layer: normalization (Normalization)
#define NORMALIZATION_MEAN_NDIMS 1
#define NORMALIZATION_MEAN_SHAPE_0 1
#define NORMALIZATION_MEAN_SIZE 1
static const float NORMALIZATION_MEAN[] = {
    -7.76994991e+00f
};


// layer: normalization (Normalization)
#define NORMALIZATION_VARIANCE_NDIMS 1
#define NORMALIZATION_VARIANCE_SHAPE_0 1
#define NORMALIZATION_VARIANCE_SIZE 1
static const float NORMALIZATION_VARIANCE[] = {
    2.73754883e+01f
};


// layer: normalization (Normalization)
#define NORMALIZATION_COUNT_NDIMS 1
#define NORMALIZATION_COUNT_SHAPE_0 1
#define NORMALIZATION_COUNT_SIZE 1
static const float NORMALIZATION_COUNT[] = {
    0.00000000e+00f
};


// layer: conv2d (Conv2D)
#define CONV2D_KERNEL_NDIMS 4
#define CONV2D_KERNEL_SHAPE_0 3
#define CONV2D_KERNEL_SHAPE_1 3
#define CONV2D_KERNEL_SHAPE_2 1
#define CONV2D_KERNEL_SHAPE_3 12
#define CONV2D_KERNEL_SIZE 108
static const float CONV2D_KERNEL[] = {
    1.92712650e-01f, 8.24286416e-02f, -8.46192017e-02f, 1.71925455e-01f, -1.85259536e-01f, 
    3.96874361e-02f, 2.28050768e-01f, -1.66426897e-01f, 2.22024717e-03f, 1.34000257e-01f, 
    -1.92750245e-01f, -1.05797481e-02f, 2.17042446e-01f, 6.77706534e-03f, 3.18099037e-02f, 
    1.89133584e-01f, -2.08422080e-01f, -1.40869692e-01f, -1.34375636e-02f, -2.29720742e-01f, 
    -1.83384657e-01f, 1.50801986e-01f, 1.64661095e-01f, -9.24743563e-02f, 2.58925378e-01f, 
    -1.47415325e-01f, -1.03796478e-02f, 1.01538658e-01f, 1.46842180e-02f, -1.63445354e-01f, 
    -1.16681047e-01f, 1.85682714e-01f, -1.48653939e-01f, 1.38809392e-03f, -1.32677868e-01f, 
    -1.59462720e-01f, 5.75707629e-02f, -1.71467260e-01f, 2.41311751e-02f, 5.89638483e-03f, 
    -1.84613585e-01f, 2.31394805e-02f, -4.95323762e-02f, -4.49829809e-02f, 2.22778857e-01f, 
    7.34514669e-02f, 3.04606054e-02f, -5.17099127e-02f, -7.01022223e-02f, 6.16360456e-02f, 
    8.29756558e-02f, -8.89972784e-03f, -1.67902797e-01f, -1.36192158e-01f, 1.08841173e-01f, 
    1.31918520e-01f, 1.37907942e-03f, -3.93236503e-02f, -2.03260779e-01f, -1.36471584e-01f, 
    1.53536752e-01f, 1.34420678e-01f, -1.87095739e-02f, 5.92748001e-02f, -6.41445667e-02f, 
    1.19564928e-01f, -1.13677934e-01f, -4.14923579e-02f, 1.99404538e-01f, 8.65298584e-02f, 
    7.51902238e-02f, 2.14187086e-01f, 1.35844827e-01f, -1.80300176e-01f, -5.04848659e-02f, 
    -2.11850911e-01f, 2.30750784e-01f, 1.24219283e-01f, 5.97995706e-02f, -1.47113517e-01f, 
    -1.43091127e-01f, 2.21493438e-01f, -1.83866188e-01f, -1.24585971e-01f, -1.08574547e-01f, 
    -1.84221029e-01f, 2.17761904e-01f, 1.36194840e-01f, 7.94389173e-02f, 5.74772917e-02f, 
    3.71495970e-02f, 5.68196811e-02f, -5.50375087e-03f, -1.92931712e-01f, 1.76800147e-01f, 
    -1.03085026e-01f, 1.48004457e-01f, 1.32127613e-01f, -5.08245304e-02f, -1.93449154e-01f, 
    2.30049834e-01f, 1.67395398e-01f, 1.53687336e-02f, -1.93309933e-01f, -1.10327080e-01f, 
    3.24164815e-02f, -2.00444981e-01f, -1.29271284e-01f
};


// layer: conv2d (Conv2D)
#define CONV2D_BIAS_NDIMS 1
#define CONV2D_BIAS_SHAPE_0 12
#define CONV2D_BIAS_SIZE 12
static const float CONV2D_BIAS[] = {
    -2.58898828e-02f, 3.83952335e-02f, -1.97571255e-02f, 6.98953541e-03f, -4.19254154e-02f, 
    -2.98947487e-02f, -5.91971390e-02f, 3.69559973e-02f, -1.77329462e-02f, -6.63812980e-02f, 
    -1.05706237e-01f, -3.47339846e-02f
};


// layer: batch_normalization (BatchNormalization)
#define BATCH_NORMALIZATION_GAMMA_NDIMS 1
#define BATCH_NORMALIZATION_GAMMA_SHAPE_0 12
#define BATCH_NORMALIZATION_GAMMA_SIZE 12
static const float BATCH_NORMALIZATION_GAMMA[] = {
    9.80184376e-01f, 9.79383290e-01f, 1.02102375e+00f, 9.82344389e-01f, 9.83745575e-01f, 
    1.03227639e+00f, 1.00408936e+00f, 9.80740607e-01f, 9.91987765e-01f, 1.05114102e+00f, 
    9.79155183e-01f, 9.79015529e-01f
};


// layer: batch_normalization (BatchNormalization)
#define BATCH_NORMALIZATION_BETA_NDIMS 1
#define BATCH_NORMALIZATION_BETA_SHAPE_0 12
#define BATCH_NORMALIZATION_BETA_SIZE 12
static const float BATCH_NORMALIZATION_BETA[] = {
    4.08205800e-02f, 2.42224373e-02f, 6.27530925e-03f, 3.06249261e-02f, 5.24061359e-02f, 
    4.45389487e-02f, 3.81626096e-03f, -5.70430905e-02f, -7.72228688e-02f, -6.82909833e-03f, 
    -1.41452504e-02f, 7.44240126e-03f
};


// layer: batch_normalization (BatchNormalization)
#define BATCH_NORMALIZATION_MOVING_MEAN_NDIMS 1
#define BATCH_NORMALIZATION_MOVING_MEAN_SHAPE_0 12
#define BATCH_NORMALIZATION_MOVING_MEAN_SIZE 12
static const float BATCH_NORMALIZATION_MOVING_MEAN[] = {
    4.15299475e-01f, 1.37016550e-01f, 5.59246838e-02f, 1.30135283e-01f, 1.10810556e-01f, 
    3.89058143e-02f, 4.49400879e-02f, 2.07554042e-01f, 7.09954277e-02f, 1.68588400e-01f, 
    1.59705967e-01f, 2.42985919e-01f
};


// layer: batch_normalization (BatchNormalization)
#define BATCH_NORMALIZATION_MOVING_VARIANCE_NDIMS 1
#define BATCH_NORMALIZATION_MOVING_VARIANCE_SHAPE_0 12
#define BATCH_NORMALIZATION_MOVING_VARIANCE_SIZE 12
static const float BATCH_NORMALIZATION_MOVING_VARIANCE[] = {
    2.26931527e-01f, 2.68594231e-02f, 5.36576705e-03f, 2.41263397e-02f, 2.42249072e-02f, 
    4.69468581e-03f, 4.68643801e-03f, 6.56221434e-02f, 8.08160659e-03f, 4.38794121e-02f, 
    4.19061594e-02f, 9.19282809e-02f
};


// layer: conv2d_1 (Conv2D)
#define CONV2D_1_KERNEL_NDIMS 4
#define CONV2D_1_KERNEL_SHAPE_0 3
#define CONV2D_1_KERNEL_SHAPE_1 3
#define CONV2D_1_KERNEL_SHAPE_2 12
#define CONV2D_1_KERNEL_SHAPE_3 24
#define CONV2D_1_KERNEL_SIZE 2592
static const float CONV2D_1_KERNEL[] = {
    1.10207640e-01f, -2.20361054e-02f, 5.33128083e-02f, 7.55267963e-02f, 6.86209053e-02f, 
    -8.01780671e-02f, 7.34191090e-02f, 3.94988246e-02f, -1.27890542e-01f, -6.93857968e-02f, 
    -9.26529467e-02f, -3.39772478e-02f, 5.89537323e-02f, 7.53729492e-02f, -6.12661801e-02f, 
    -1.48896709e-01f, 6.25158921e-02f, 1.02055021e-01f, -9.86423269e-02f, 4.07302268e-02f, 
    8.03175271e-02f, 9.05596986e-02f, -1.31173450e-02f, 8.25835168e-02f, 3.09214965e-02f, 
    1.32583037e-01f, -3.06604654e-02f, -8.36841241e-02f, 4.71903831e-02f, 7.98959937e-03f, 
    -7.97580928e-02f, 2.21525002e-02f, 1.06459156e-01f, 7.94346035e-02f, -8.48458186e-02f, 
    -9.95409042e-02f, -1.06742755e-01f, -1.12384416e-01f, -7.52920359e-02f, -1.47790387e-02f, 
    -7.54327327e-02f, 1.07503660e-01f, 1.98643189e-03f, 8.04341957e-02f, 5.08300774e-02f, 
    1.46992952e-01f, -7.50335753e-02f, -6.20493628e-02f, -8.03706124e-02f, -7.87480697e-02f, 
    3.61466222e-02f, 8.73106718e-02f, 1.02257945e-01f, 6.36384357e-04f, 8.53249207e-02f, 
    1.05560265e-01f, 1.04337349e-03f, 1.22483805e-01f, -5.61249396e-03f, -6.71589449e-02f, 
    1.02279671e-01f, -9.19773877e-02f, -7.72164688e-02f, -2.81521007e-02f, 1.46368667e-02f, 
    2.35527419e-02f, 4.09700274e-02f, -7.65163824e-02f, 9.41338763e-02f, -1.02042332e-01f, 
    1.02887079e-01f, 2.44345162e-02f, -1.32051528e-01f, -3.23637500e-02f, 3.10912039e-02f, 
    9.11928713e-02f, 1.20319910e-01f, 5.01560373e-03f, -2.26578135e-02f, -1.31172225e-01f, 
    -3.30256559e-02f, -5.64967208e-02f, 4.10491489e-02f, 5.92792742e-02f, 1.31995231e-01f, 
    -2.01107934e-02f, -1.64520755e-01f, 6.80691302e-02f, -6.64298758e-02f, -7.48508573e-02f, 
    -1.47426233e-01f, 1.16697438e-01f, -1.39498010e-01f, 8.87277573e-02f, -3.41209695e-02f, 
    -1.83081344e-01f, 4.41695936e-02f, -2.69796420e-02f, 3.14541385e-02f, 6.59867227e-02f, 
    4.50020023e-02f, -3.87164019e-02f, 5.48795285e-03f, -2.32649446e-02f, 1.45939693e-01f, 
    -5.82973808e-02f, -1.42673001e-01f, -5.76872528e-02f, -7.91487191e-03f, -1.21097453e-01f, 
    -1.05912104e-01f, -7.55299442e-03f, -2.61017717e-02f, 1.06215514e-01f, -9.68542397e-02f, 
    7.37526938e-02f, -3.80289033e-02f, 3.12307421e-02f, -2.46386528e-02f, -9.72224697e-02f, 
    8.25026929e-02f, -1.76617563e-01f, 2.64387252e-03f, -6.39929101e-02f, 1.16587080e-01f, 
    -2.01504916e-01f, -3.30153406e-02f, 1.07690126e-01f, -3.52945887e-02f, -7.43140886e-03f, 
    2.51890216e-02f, -6.89209774e-02f, -3.11485529e-02f, 4.57914658e-02f, 1.08230710e-01f, 
    4.84873094e-02f, -1.72231764e-01f, -9.20460597e-02f, -3.06675248e-02f, -5.55867217e-02f, 
    -5.01527600e-02f, -3.93833853e-02f, 5.83228981e-03f, -3.41391042e-02f, -6.69006333e-02f, 
    -1.12825483e-01f, -5.72289377e-02f, -1.39032856e-01f, 1.81491277e-03f, 3.14615928e-02f, 
    9.63138044e-02f, -5.46379387e-02f, -1.00497447e-01f, 1.02907628e-01f, 1.10501364e-01f, 
    -1.57557875e-01f, 1.22749455e-01f, 2.87178028e-02f, -5.66124404e-03f, 5.24294227e-02f, 
    -1.28382400e-01f, -4.44559455e-02f, -5.45290858e-03f, 7.98128024e-02f, 1.08397990e-01f, 
    4.34965603e-02f, -1.25193432e-01f, 6.44743294e-02f, 7.73730204e-02f, 9.90381390e-02f, 
    2.04419135e-03f, 3.10564879e-02f, 1.11763433e-01f, -1.28513485e-01f, 3.78147550e-02f, 
    2.40749121e-02f, -1.95058957e-02f, 1.18778244e-01f, 8.52990597e-02f, -7.87123293e-02f, 
    1.42361447e-02f, -6.94784001e-02f, 8.91587734e-02f, 6.12962134e-02f, 1.66034512e-02f, 
    -5.11630997e-02f, -4.37951535e-02f, 1.06896468e-01f, -8.25645924e-02f, 8.97417888e-02f, 
    -2.62422748e-02f, 7.02861175e-02f, -5.66090941e-02f, 1.10517882e-01f, -1.41717345e-01f, 
    7.87942037e-02f, 4.17397730e-02f, 3.11969668e-02f, -1.20321415e-01f, 9.53283980e-02f, 
    5.03639467e-02f, 3.00627351e-02f, -3.42442328e-03f, 5.39261196e-03f, -7.98204541e-03f, 
    -1.03294499e-01f, -4.33522761e-02f, -8.87038261e-02f, -4.89878468e-03f, -2.33733971e-02f, 
    -1.03119008e-01f, -7.50377029e-02f, 6.73151910e-02f, 1.20577931e-01f, -4.43912260e-02f, 
    -1.32331952e-01f, -1.26673952e-01f, -1.06574416e-01f, -2.31080165e-04f, -1.27707973e-01f, 
    2.77896058e-02f, -1.80452820e-02f, 2.80839689e-02f, 5.20470478e-02f, -1.29823998e-01f, 
    -1.02758631e-01f, -9.36606675e-02f, -4.12744284e-02f, -5.90459779e-02f, 8.48829076e-02f, 
    -9.45759341e-02f, 2.24948823e-02f, 5.70284165e-02f, 9.12276357e-02f, -3.74608375e-02f, 
    8.93657580e-02f, -2.37262738e-03f, -1.28774494e-02f, -5.32475524e-02f, -1.35530859e-01f, 
    1.19275123e-01f, 3.54427397e-02f, -1.62117053e-02f, 1.26749039e-01f, -1.16763562e-01f, 
    -2.45859437e-02f, 1.07352689e-01f, -8.63185525e-02f, -8.30898508e-02f, -1.13227032e-01f, 
    -6.07289150e-02f, -1.92306412e-04f, 1.50141984e-01f, -9.92845148e-02f, 1.36793882e-01f, 
    6.66987151e-02f, 1.22242726e-01f, -1.12690389e-01f, 1.54623752e-02f, -1.92766450e-02f, 
    -1.38033941e-01f, 3.73786166e-02f, -3.58973481e-02f, 7.66085163e-02f, -3.97237651e-02f, 
    1.23304322e-01f, -1.10434711e-01f, -6.85138628e-02f, 1.30553976e-01f, -3.57519835e-02f, 
    -3.78983468e-02f, 1.16613761e-01f, -1.17366068e-01f, 3.11156851e-03f, 1.40348539e-01f, 
    1.24710113e-01f, -4.01574150e-02f, 4.95195761e-02f, -1.26706883e-02f, 3.00170183e-02f, 
    5.41573754e-05f, -1.16042860e-01f, -1.16989743e-02f, 1.71942841e-02f, 8.10124576e-02f, 
    1.09190330e-01f, -6.89240685e-03f, -5.81986569e-02f, 1.70778539e-02f, -4.03105840e-02f, 
    -1.20139584e-01f, 6.78125620e-02f, 7.17502385e-02f, -1.04888961e-01f, -1.23078106e-02f, 
    -1.09676257e-01f, -5.00892773e-02f, -1.29328594e-01f, 3.58701125e-02f, -4.25359011e-02f, 
    1.41756386e-01f, -1.75125506e-02f, 1.03034608e-01f, 1.77267250e-02f, -5.84314391e-02f, 
    -9.40145925e-03f, 3.46557051e-03f, -1.07546840e-02f, -1.19596431e-02f, -1.45186456e-02f, 
    -1.33695021e-01f, 8.02636147e-02f, -3.92877907e-02f, 4.23381701e-02f, -2.66815163e-02f, 
    1.32698089e-01f, -6.40508905e-02f, -2.12660450e-02f, 6.87168986e-02f, -1.68258660e-02f, 
    -4.89750840e-02f, -7.58610889e-02f, 2.24220715e-02f, -1.78920805e-01f, 5.11530600e-02f, 
    8.89158025e-02f, -1.09658867e-01f, -4.49160263e-02f, -9.50827729e-03f, 4.25734781e-02f, 
    1.21468723e-01f, 9.00724381e-02f, 3.79166044e-02f, -3.02202366e-02f, 6.46485388e-02f, 
    -3.00726085e-03f, 2.90501546e-02f, 1.59974094e-03f, -4.71100435e-02f, -1.16843684e-02f, 
    -2.58363672e-02f, -6.93763867e-02f, -1.05970144e-01f, -5.47095649e-02f, 1.11244418e-01f, 
    4.31987830e-02f, -1.31864967e-02f, -4.81695123e-02f, -6.57891557e-02f, -1.37391314e-01f, 
    3.52469645e-02f, -6.29057689e-03f, -1.03093326e-01f, -2.80598272e-02f, -4.96460125e-02f, 
    -4.49629910e-02f, 8.08805823e-02f, 8.59758109e-02f, -6.86984137e-02f, 1.59728732e-02f, 
    -4.49540578e-02f, 5.29182479e-02f, 4.09408174e-02f, 1.99979637e-02f, 1.31677032e-01f, 
    5.73890209e-02f, -2.88940761e-02f, -1.99463721e-02f, 7.34816343e-02f, 4.96127605e-02f, 
    -5.24030142e-02f, 1.04554951e-01f, -3.54367644e-02f, 1.01269502e-02f, -1.75095163e-02f, 
    -1.05556414e-01f, -1.77449375e-01f, 5.71721643e-02f, 2.95618325e-02f, -2.51851557e-03f, 
    -8.38779286e-02f, 1.22411564e-01f, 7.88767561e-02f, -5.96464351e-02f, 4.96001653e-02f, 
    7.71856904e-02f, -5.94802350e-02f, 7.41614550e-02f, 1.18850075e-01f, -2.85565965e-02f, 
    -1.27515376e-01f, 3.74938995e-02f, 4.23072465e-02f, 9.62030515e-02f, 6.25809431e-02f, 
    -2.15367414e-02f, -9.33842659e-02f, 2.36573964e-02f, 2.87820417e-02f, -4.88953805e-03f, 
    -2.59232558e-02f, -1.42519265e-01f, 1.38929278e-01f, -1.26974761e-01f, 1.85365826e-01f, 
    -1.18930079e-01f, 7.05552772e-02f, 9.65897217e-02f, 4.37523844e-03f, 6.11866303e-02f, 
    -6.91077635e-02f, -2.05518275e-01f, -1.54336572e-01f, -1.23529039e-01f, -3.52476574e-02f, 
    1.67597458e-01f, -4.44105752e-02f, -1.24311984e-01f, -7.94542655e-02f, 8.31590593e-02f, 
    7.59300441e-02f, -1.11566186e-02f, 1.23972222e-01f, -2.71641426e-02f, 6.63738325e-02f, 
    9.23686996e-02f, -7.84191713e-02f, 6.72500581e-02f, 3.93691175e-02f, -7.02765509e-02f, 
    1.32882684e-01f, -8.46872758e-03f, 1.27085531e-02f, -3.32143940e-02f, -2.99099088e-02f, 
    -8.67418200e-02f, -7.10336119e-02f, 6.79347441e-02f, 7.12721795e-02f, -5.53913377e-02f, 
    -4.42828760e-02f, -1.35239840e-01f, -1.27236292e-01f, -3.00816484e-02f, -8.52682889e-02f, 
    6.35790229e-02f, 4.82403114e-02f, -1.34408131e-01f, -2.43039299e-02f, -2.45805234e-02f, 
    -1.62989795e-01f, 5.54169565e-02f, -4.59111668e-02f, -1.10454299e-02f, -4.95083295e-02f, 
    -3.82601991e-02f, -4.50785719e-02f, -1.07786685e-01f, -1.91754978e-02f, -3.98002304e-02f, 
    2.36261189e-02f, -5.98722473e-02f, -1.24731719e-01f, -2.89489012e-02f, 8.15359876e-02f, 
    1.08905926e-01f, -4.62528840e-02f, 3.89373712e-02f, -9.84562933e-02f, 1.18323408e-01f, 
    1.36344135e-01f, 1.71294101e-02f, 6.95560724e-02f, 9.18004662e-02f, -5.83888218e-02f, 
    -1.04029723e-01f, 1.03373654e-01f, -7.05894157e-02f, 1.30686864e-01f, 1.07471095e-02f, 
    1.61816981e-02f, 1.90405715e-02f, -1.65256456e-01f, 3.60273719e-02f, 4.31729816e-02f, 
    -5.05652726e-02f, 6.10854179e-02f, 5.17797098e-02f, 6.08598590e-02f, -3.24289799e-02f, 
    -8.53801072e-02f, -1.07632041e-01f, -9.35623869e-02f, 2.03898102e-02f, 1.01006776e-01f, 
    -1.21490523e-01f, 9.77771208e-02f, -8.65910724e-02f, 6.99646324e-02f, -7.80591741e-02f, 
    -1.68646369e-02f, -8.72352049e-02f, -4.80358675e-03f, -1.82578154e-02f, 9.62356105e-02f, 
    7.78070465e-02f, 1.96178630e-03f, 1.04344394e-02f, 4.10814956e-03f, 8.72624665e-02f, 
    -5.74275739e-02f, -2.62485296e-02f, -9.20951515e-02f, -3.94428335e-02f, -1.67366832e-01f, 
    4.60249633e-02f, 1.47624075e-01f, 1.15605369e-01f, -6.40919507e-02f, -1.40844390e-01f, 
    9.15684700e-02f, -4.36788872e-02f, -1.18331693e-01f, -4.84435335e-02f, -1.39083974e-02f, 
    -1.25476018e-01f, -2.52398737e-02f, -1.60856634e-01f, 9.36628412e-03f, 6.37522116e-02f, 
    -1.48459956e-01f, -1.18447635e-02f, 7.80239701e-02f, -4.77159880e-02f, 3.30392912e-04f, 
    8.50662068e-02f, -8.67812932e-02f, -8.70295465e-02f, 6.22587986e-02f, -1.11534625e-01f, 
    6.62383437e-02f, -1.03970304e-01f, -5.00464737e-02f, -6.54480234e-02f, 1.11967593e-01f, 
    -1.28399983e-01f, -6.52212277e-02f, -9.31408107e-02f, 7.09354281e-02f, -6.27348945e-02f, 
    1.07504554e-01f, 4.29839715e-02f, 9.42928419e-02f, -1.18984789e-01f, -5.08570448e-02f, 
    -1.27930880e-01f, 1.30394532e-03f, -1.20461121e-01f, -1.09841354e-01f, 3.96920815e-02f, 
    1.51693821e-01f, 8.95351544e-03f, 1.28223076e-01f, -9.54898447e-02f, -1.70859955e-02f, 
    1.08598948e-01f, -1.17221966e-01f, 1.19765056e-02f, -1.21508978e-01f, 5.06589524e-02f, 
    1.80416722e-02f, -3.02007049e-02f, 6.95892200e-02f, -1.15771860e-01f, -7.16979429e-02f, 
    -1.10643670e-01f, 6.59884438e-02f, 5.47667295e-02f, -2.63852011e-02f, -5.22631640e-03f, 
    -8.79295319e-02f, -7.09069744e-02f, 1.15877450e-01f, -9.14872512e-02f, -7.26272017e-02f, 
    5.23416139e-02f, -5.90043850e-02f, 1.21853776e-01f, 7.08917156e-02f, 1.20403916e-01f, 
    4.73602396e-03f, -1.84184872e-02f, 4.20533009e-02f, -3.83914225e-02f, 2.89344862e-02f, 
    -4.33964729e-02f, 3.07149943e-02f, -1.10808626e-01f, -2.73844842e-02f, 5.20812571e-02f, 
    -3.75274569e-04f, 1.58785403e-01f, -1.61562506e-02f, -1.24651469e-01f, 8.25906321e-02f, 
    4.84843217e-02f, 6.02711141e-02f, 8.42040330e-02f, -9.28943511e-03f, 1.22216176e-02f, 
    -3.81618254e-02f, 2.93739438e-02f, -1.42280878e-02f, 7.94569328e-02f, 5.37538296e-03f, 
    1.38518244e-01f, -8.58280361e-02f, -2.70382725e-02f, 2.94813346e-02f, 8.85380730e-02f, 
    8.51987451e-02f, -7.54531398e-02f, -8.33416432e-02f, 9.75102931e-02f, -1.65951595e-01f, 
    -8.54323804e-02f, 1.11914620e-01f, 1.72952428e-01f, -1.47515154e-02f, 1.15984697e-02f, 
    -1.07642323e-01f, 5.18685803e-02f, 9.04098824e-02f, 4.65729646e-02f, -1.00363754e-01f, 
    -7.15577751e-02f, 2.28294879e-02f, -1.19189103e-03f, -1.33650243e-01f, 8.94574374e-02f, 
    -1.13571815e-01f, -1.77384198e-01f, -4.67740931e-02f, -1.48492381e-01f, 1.20345443e-01f, 
    -1.11727566e-01f, -1.27919629e-01f, -8.62175152e-02f, -1.79538149e-02f, 5.28012589e-02f, 
    -9.73898694e-02f, 1.74555913e-01f, 8.37385654e-03f, -1.97236724e-02f, -1.15193129e-01f, 
    -8.22620746e-03f, 5.92205040e-02f, 3.86485346e-02f, 3.09895054e-02f, -6.96036667e-02f, 
    1.44973412e-01f, -1.12556349e-02f, -1.71702191e-01f, 1.31384581e-01f, -1.95463717e-01f, 
    4.60775793e-02f, -4.79697101e-02f, -1.54034108e-01f, 1.57156065e-02f, 3.11601125e-02f, 
    -5.65993525e-02f, -2.04065852e-02f, 3.00861709e-02f, -1.00169510e-01f, 1.78261716e-02f, 
    1.01789065e-01f, 1.02691896e-01f, 3.93889844e-02f, 3.96025227e-03f, -1.24910615e-01f, 
    1.67203937e-02f, -1.30726948e-01f, -9.66347530e-02f, -5.60394265e-02f, -1.13668414e-02f, 
    1.04332976e-01f, 6.30445406e-02f, 1.67495817e-01f, 4.91550379e-02f, -5.90323545e-02f, 
    -2.73684096e-02f, -3.85785736e-02f, -7.44461864e-02f, 1.20489486e-02f, -6.01537107e-03f, 
    -1.58084661e-01f, -4.30663005e-02f, -3.64790708e-02f, -1.06381737e-01f, -5.08337207e-02f, 
    -5.60173355e-02f, -5.25867157e-02f, 3.05290204e-02f, 5.71323708e-02f, -1.14876151e-01f, 
    -8.62901881e-02f, -3.82780321e-02f, 1.17485672e-01f, -6.64068907e-02f, -5.86523898e-02f, 
    3.91726717e-02f, 4.82509844e-02f, -1.24945082e-01f, -4.62686904e-02f, 5.69165684e-02f, 
    6.61101043e-02f, -1.34917289e-01f, -3.05775791e-01f, 1.41487554e-01f, -1.44433543e-01f, 
    -8.94337595e-02f, 5.43128140e-02f, 1.01136617e-01f, -2.10208935e-03f, -1.19744949e-01f, 
    -1.22741200e-01f, 3.43875438e-02f, -1.22182807e-02f, -1.68352742e-02f, 7.61403982e-03f, 
    -4.88750748e-02f, -1.00083791e-01f, -7.59314820e-02f, -3.33324671e-02f, -3.43142264e-02f, 
    -2.27035172e-02f, -2.26845052e-02f, -1.29190898e-02f, 1.42762408e-01f, -1.33537883e-02f, 
    -6.90498063e-03f, -2.23919880e-02f, -4.96187285e-02f, -7.06807822e-02f, -7.20928460e-02f, 
    9.35928151e-02f, -1.23223297e-01f, -8.54630396e-02f, 1.43785849e-01f, 1.16496183e-01f, 
    5.72748780e-02f, -4.91991043e-02f, 1.25504106e-01f, 1.19562723e-01f, -3.50847393e-02f, 
    -1.45241581e-02f, 8.33011568e-02f, 1.37505904e-01f, -3.41560915e-02f, 5.24869077e-02f, 
    1.10715069e-01f, 1.09902002e-01f, -9.24643427e-02f, -1.37665451e-01f, -1.76194221e-01f, 
    6.26117811e-02f, 2.13517249e-02f, -1.03285447e-01f, 4.18232381e-02f, -3.54616232e-02f, 
    1.31371878e-02f, -8.53950903e-02f, 5.55739850e-02f, -8.12177211e-02f, 9.38405246e-02f, 
    8.19902867e-02f, 7.68618509e-02f, 1.03695855e-01f, 8.99227485e-02f, 1.88883506e-02f, 
    -1.25668019e-01f, -1.48110837e-01f, 2.00644787e-02f, -5.06583266e-02f, -1.20011456e-01f, 
    -7.96793550e-02f, 5.13392538e-02f, 1.01324648e-01f, -1.61272272e-01f, -9.96150449e-02f, 
    1.14768073e-01f, 8.07782263e-02f, 2.96740253e-02f, -8.41525048e-02f, -6.21656030e-02f, 
    -3.28537002e-02f, -9.39900987e-03f, 1.00699820e-01f, -1.32643953e-01f, -5.40717915e-02f, 
    1.24922760e-01f, -7.05982894e-02f, -9.32239816e-02f, 4.79774475e-02f, 9.23861265e-02f, 
    1.63447022e-01f, -8.09565112e-02f, -4.38242145e-02f, -9.17503759e-02f, -1.40455738e-01f, 
    1.82245865e-01f, -1.03546575e-01f, 1.08840242e-01f, 2.08543353e-02f, 8.05788562e-02f, 
    6.18913211e-02f, -1.19436719e-01f, 7.47476518e-02f, 2.66861469e-02f, 2.25607269e-02f, 
    -1.19053438e-01f, 1.44695649e-02f, -1.09039947e-01f, 1.24161422e-01f, 1.41516784e-02f, 
    -7.25430176e-02f, -6.77720383e-02f, 4.16667275e-02f, -8.38046074e-02f, -8.23857784e-02f, 
    9.99832377e-02f, -5.86007908e-02f, -1.08248316e-01f, -3.58136855e-02f, -1.19034767e-01f, 
    1.13732211e-01f, 7.37821087e-02f, -1.14360854e-01f, -1.09303586e-01f, 7.58351684e-02f, 
    -7.56679922e-02f, -8.43016058e-02f, -1.39883220e-01f, -1.11207224e-01f, -9.89299789e-02f, 
    5.38445823e-03f, 7.41399229e-02f, -3.22560519e-02f, 1.47319749e-01f, 2.53473893e-02f, 
    2.22502109e-02f, -4.18256000e-02f, 7.66380802e-02f, -7.92695209e-02f, 1.20734498e-01f, 
    1.27697289e-01f, 6.95092231e-02f, 7.72777349e-02f, 3.75154391e-02f, -3.04351673e-02f, 
    7.90563449e-02f, 3.64397168e-02f, -6.91564679e-02f, -9.03487653e-02f, -1.15650721e-01f, 
    -1.46436259e-01f, -1.44772559e-01f, -8.73803645e-02f, 5.66298552e-02f, -1.33567542e-01f, 
    6.95096981e-03f, -6.95532700e-03f, 6.65493459e-02f, 1.27488270e-01f, 7.85254873e-03f, 
    2.08752602e-02f, 1.16596418e-02f, 5.95491901e-02f, -4.75150486e-03f, -4.89968061e-02f, 
    4.40194309e-02f, -4.65896837e-02f, -3.14958245e-02f, 7.24461377e-02f, -5.15906923e-02f, 
    3.57697159e-02f, 1.01001605e-01f, 8.38886723e-02f, -1.33791223e-01f, -1.14986368e-01f, 
    5.71621619e-02f, -1.17130622e-01f, -9.26490501e-02f, -3.56818512e-02f, 1.32645899e-02f, 
    -3.43085676e-02f, -8.29248577e-02f, -1.05675355e-01f, -2.16366313e-02f, -5.95321432e-02f, 
    -2.72531193e-02f, -6.43912777e-02f, -8.26693512e-03f, -9.32829455e-02f, -6.99516907e-02f, 
    -9.54889730e-02f, -1.99289210e-02f, 8.92575309e-02f, -2.77787652e-02f, -1.06568158e-01f, 
    1.06195375e-01f, 3.86621021e-02f, 9.55940932e-02f, -9.39814895e-02f, -6.09291866e-02f, 
    2.27621309e-02f, 7.71846026e-02f, 1.49547711e-01f, 3.86158824e-02f, 5.77950943e-03f, 
    -2.87773591e-02f, 2.07551233e-02f, -7.91216269e-02f, 1.09993264e-01f, 2.81782895e-02f, 
    6.16271868e-02f, 5.36212921e-02f, -9.59929898e-02f, -9.14179981e-02f, 3.62401269e-03f, 
    1.35489672e-01f, 8.26918334e-02f, 1.40823266e-02f, 9.32774991e-02f, 2.24496741e-02f, 
    -1.31627619e-01f, -1.65112257e-01f, 1.45392537e-01f, -4.00757371e-03f, -2.13623419e-02f, 
    4.87272665e-02f, 7.00606406e-02f, 8.73058438e-02f, 1.19292021e-01f, -1.31480858e-01f, 
    -5.34159802e-02f, -5.54490536e-02f, -2.69957557e-02f, 9.85055119e-02f, -7.16757914e-03f, 
    3.94611470e-02f, 7.91570395e-02f, -3.80743295e-02f, 1.00957222e-01f, 1.69838276e-02f, 
    -1.47822229e-02f, 5.43088876e-02f, -2.97565572e-03f, 9.44315717e-02f, -1.10049173e-01f, 
    -3.60090216e-03f, -1.51117861e-01f, 3.28520052e-02f, 2.73915473e-02f, 1.26992524e-01f, 
    7.98263401e-02f, 7.28184357e-02f, -7.73576722e-02f, -8.69788826e-02f, -9.16837454e-02f, 
    -1.19914655e-02f, -6.25218675e-02f, 8.97355378e-02f, 4.20418009e-02f, 1.34463072e-01f, 
    -3.32009681e-02f, 5.36911599e-02f, 5.46615086e-02f, 1.19558983e-01f, -5.93912862e-02f, 
    -2.99716685e-02f, 3.21533382e-02f, 9.11808684e-02f, 1.39891235e-02f, -8.94299243e-03f, 
    1.02266915e-01f, 2.20572017e-02f, 2.46148799e-02f, -1.75182641e-01f, 8.41054097e-02f, 
    -6.78334087e-02f, 7.32354969e-02f, 9.30301324e-02f, -1.12500198e-01f, -4.22795378e-02f, 
    4.92205620e-02f, -1.25290096e-01f, -8.93283710e-02f, 3.38866264e-02f, 5.36723025e-02f, 
    8.82771164e-02f, 1.34034693e-01f, -8.58215913e-02f, -1.15289800e-01f, 9.02066007e-02f, 
    6.41162768e-02f, -8.72445926e-02f, -1.25724403e-02f, 1.18971027e-01f, -6.75009415e-02f, 
    4.18328941e-02f, -8.42277035e-02f, -1.35622099e-01f, 3.63970064e-02f, 8.89334604e-02f, 
    -3.64978462e-02f, 3.48464376e-03f, 6.24857806e-02f, 7.34352022e-02f, -6.43329993e-02f, 
    -6.55548647e-03f, -7.84045532e-02f, -8.63191336e-02f, 9.18316171e-02f, -3.98728512e-02f, 
    6.97824806e-02f, -6.85697198e-02f, 1.14110611e-01f, -6.47877692e-04f, -2.02392656e-02f, 
    6.06631748e-02f, -3.20845284e-02f, 1.06516048e-01f, -4.11877856e-02f, -5.58370240e-02f, 
    1.06492609e-01f, 5.80776557e-02f, 1.12275511e-01f, -4.44354378e-02f, -1.16870016e-01f, 
    -6.87767938e-02f, -3.91911855e-03f, 4.66167703e-02f, -2.68241502e-02f, -3.06494278e-03f, 
    -2.04557199e-02f, 3.31426524e-02f, -5.12330979e-02f, 6.41414523e-02f, 2.24743076e-02f, 
    2.15570666e-02f, 3.95614579e-02f, -1.02843136e-01f, -1.01898208e-01f, 1.17471509e-01f, 
    3.79629172e-02f, 1.04671553e-01f, -3.50602455e-02f, -1.68144196e-01f, 5.31401038e-02f, 
    -8.52041394e-02f, -1.54449772e-02f, -1.42973453e-01f, 9.18558426e-03f, -6.22582920e-02f, 
    1.44251570e-01f, -5.58376051e-02f, -1.87538221e-01f, 1.14107750e-01f, -3.22602466e-02f, 
    5.47960289e-02f, -6.28972054e-02f, 4.76559363e-02f, -1.18215516e-01f, -7.87858739e-02f, 
    3.36096734e-02f, 8.55867714e-02f, -1.19621865e-01f, 7.42656216e-02f, 2.51880195e-02f, 
    -1.11373484e-01f, -5.47373258e-02f, -1.04904823e-01f, -7.52959102e-02f, 9.68318135e-02f, 
    7.39092976e-02f, -2.72689573e-02f, 4.76243906e-02f, 1.75441299e-02f, 2.96735913e-02f, 
    1.46853784e-02f, 6.89468905e-02f, 1.28048465e-01f, -5.67010976e-02f, 1.24566644e-01f, 
    7.51243457e-02f, -1.17256649e-01f, 1.48501724e-01f, -1.08137786e-01f, -9.35851336e-02f, 
    -1.07857145e-01f, -1.67270958e-01f, -1.25425741e-01f, -2.68982742e-02f, -6.94225058e-02f, 
    5.30806519e-02f, -1.16948538e-01f, 9.71823186e-02f, 1.08793080e-01f, 6.57391781e-03f, 
    4.32734862e-02f, -1.06208436e-02f, 1.11734524e-01f, 1.12252742e-01f, 7.20448345e-02f, 
    1.11877225e-01f, -1.08304277e-01f, -1.15891770e-01f, -2.35359296e-02f, 1.09760277e-02f, 
    -1.35192215e-01f, 7.92705491e-02f, -6.81659430e-02f, 6.46953881e-02f, -7.08106011e-02f, 
    -1.10624069e-02f, 5.74009456e-02f, -4.88827303e-02f, 1.20730639e-01f, -1.35512995e-02f, 
    -2.08882131e-02f, 9.11632031e-02f, -2.15604361e-02f, 7.47396424e-02f, 9.65434592e-03f, 
    9.21289921e-02f, -1.93535108e-02f, -7.73228556e-02f, -1.28626421e-01f, -1.10288233e-01f, 
    -4.44594063e-02f, 1.35127798e-01f, 9.49107930e-02f, -1.01416044e-01f, -1.27682313e-01f, 
    -1.11062706e-01f, 1.07239507e-01f, 7.83037692e-02f, 3.48789059e-02f, 1.25955954e-01f, 
    4.20905426e-02f, -1.14248775e-01f, -9.98607278e-02f, 1.65026132e-02f, 2.10995898e-02f, 
    -9.71590951e-02f, 1.32796049e-01f, 7.74455518e-02f, -7.76460953e-03f, -9.90864038e-02f, 
    -1.01295300e-01f, 3.09581566e-03f, -7.95731917e-02f, 1.04430718e-02f, 4.44184951e-02f, 
    -1.10267684e-01f, 1.02572158e-01f, 3.29954103e-02f, 5.57408221e-02f, 9.03741196e-02f, 
    1.25901038e-02f, 1.41203282e-02f, -1.14750251e-01f, -3.13921534e-02f, -1.09353811e-02f, 
    2.95061041e-02f, -1.17855579e-01f, 3.55180874e-02f, -1.39008105e-01f, -2.57842988e-02f, 
    1.39567360e-01f, 7.78655410e-02f, -9.44755152e-02f, -1.38367875e-03f, -7.51147494e-02f, 
    -6.71529770e-02f, 5.37648946e-02f, -1.10891037e-01f, -1.09241776e-01f, 1.14267364e-01f, 
    1.11803353e-01f, 1.32275790e-01f, 1.29174935e-02f, 1.68288779e-02f, -6.18167035e-02f, 
    6.61378801e-02f, -3.45964357e-03f, -5.39805144e-02f, 2.37649903e-02f, 4.64807414e-02f, 
    -6.81940001e-03f, -3.30530480e-02f, 6.17423691e-02f, 4.85734195e-02f, 7.45064616e-02f, 
    9.75269228e-02f, -4.62984443e-02f, -1.18954666e-01f, -5.52487047e-03f, 5.31328805e-02f, 
    -5.37637733e-02f, 8.78729150e-02f, -8.03719386e-02f, -1.38598025e-01f, -9.52332281e-03f, 
    1.28122419e-02f, -1.24564290e-01f, -6.40783980e-02f, 5.33957705e-02f, -8.85625035e-02f, 
    -6.87372088e-02f, 1.11233406e-01f, -2.17396393e-02f, -1.44583628e-01f, 5.46312630e-02f, 
    -6.70602769e-02f, -1.16525861e-02f, 1.18767902e-01f, -7.76715353e-02f, -1.22776814e-01f, 
    1.31975204e-01f, 1.02883913e-01f, 3.60214971e-02f, -1.95019059e-02f, -7.34345987e-02f, 
    -1.29287001e-02f, 2.11806074e-02f, 4.71267775e-02f, -7.66593367e-02f, -1.51986942e-01f, 
    9.68812332e-02f, 1.48879243e-02f, -4.63192947e-02f, -1.37893865e-02f, 1.08135436e-02f, 
    -8.69546384e-02f, -1.26560420e-01f, -7.80893490e-02f, -4.71822582e-02f, -1.41804099e-01f, 
    -8.40765759e-02f, -1.21368105e-02f, 6.37915432e-02f, 5.49936295e-02f, -6.02527373e-02f, 
    1.07508257e-01f, -7.25506321e-02f, 1.11026438e-02f, -8.65504891e-02f, -7.66428262e-02f, 
    3.94594111e-02f, -7.22647756e-02f, -1.24514392e-02f, -1.01706870e-01f, -1.31492317e-01f, 
    1.16569757e-01f, 1.28303513e-01f, -1.11110620e-01f, -7.02801123e-02f, 4.16881815e-02f, 
    -1.37478024e-01f, -5.81906550e-02f, 5.78219164e-03f, 7.69523978e-02f, -1.23596147e-01f, 
    -1.63319722e-01f, 8.40491131e-02f, 1.22774243e-01f, 4.08976451e-02f, -5.81133403e-02f, 
    -1.48176819e-01f, -1.60244107e-01f, -1.58391237e-01f, 5.44220917e-02f, -1.05138216e-02f, 
    -9.54794213e-02f, 6.33164272e-02f, 7.23145753e-02f, -9.30885524e-02f, -9.65827852e-02f, 
    3.17721963e-02f, 9.80570316e-02f, -7.89659172e-02f, -2.90683396e-02f, 1.65424943e-02f, 
    1.90300867e-02f, 7.11552575e-02f, -4.05974612e-02f, -1.86198745e-02f, 2.87539046e-02f, 
    8.69196579e-02f, -5.71571365e-02f, 5.71820512e-02f, -1.34843722e-01f, 9.38032940e-02f, 
    -9.86642838e-02f, 5.11411987e-02f, -7.09353611e-02f, -9.43460315e-02f, -3.11747137e-02f, 
    1.17080333e-02f, 5.35896942e-02f, -1.11562788e-01f, 1.52118251e-01f, -1.65602013e-01f, 
    9.10467729e-02f, -1.52785555e-01f, -1.12408444e-01f, 1.05536625e-01f, -1.09068245e-01f, 
    1.49578452e-02f, 3.50404195e-02f, -5.14298826e-02f, 1.58354472e-02f, 4.49118502e-02f, 
    1.53887063e-01f, 8.10303986e-02f, -5.66795617e-02f, -7.34000131e-02f, -1.08576804e-01f, 
    -5.28165139e-02f, 6.23298213e-02f, 2.30289884e-02f, 1.13214277e-01f, -1.13818668e-01f, 
    9.90177467e-02f, 6.68522865e-02f, 1.37354787e-02f, 3.92889716e-02f, 3.30454744e-02f, 
    -1.10830173e-01f, -1.15760937e-01f, -4.77739275e-02f, 1.35811120e-01f, 3.68780047e-02f, 
    -1.22473523e-01f, -8.38235840e-02f, -1.23870663e-01f, 1.97669584e-02f, 2.97618173e-02f, 
    -1.63965806e-01f, -1.14408158e-01f, -3.62510681e-02f, 1.51675120e-01f, -1.26613542e-01f, 
    -4.22597267e-02f, 2.16473825e-02f, 1.17756147e-02f, 1.96771696e-02f, 8.53004679e-02f, 
    -2.14777067e-02f, -7.69650564e-02f, -5.97458817e-02f, -1.64941214e-02f, -5.76481670e-02f, 
    -8.44606310e-02f, 3.21183279e-02f, 1.12273484e-01f, 9.68013145e-03f, -2.92682797e-02f, 
    7.68336328e-03f, -7.06654647e-03f, -1.02779955e-01f, -7.81608894e-02f, -8.38998705e-02f, 
    1.15603127e-01f, 1.09467752e-01f, -9.82350484e-02f, -6.58634631e-03f, -4.06123586e-02f, 
    -1.59401854e-03f, -1.17569370e-02f, 4.60421713e-03f, -8.69356096e-02f, -2.78933090e-03f, 
    -1.05923101e-01f, 7.86909312e-02f, -3.86162638e-03f, 9.04050767e-02f, -1.08923048e-01f, 
    -1.01297451e-02f, -7.42081031e-02f, -8.11585411e-03f, 1.10438794e-01f, 2.28852630e-02f, 
    9.67708305e-02f, -3.44216824e-02f, 1.13858953e-01f, 1.08089097e-01f, -6.24288172e-02f, 
    1.45722866e-01f, 9.85596552e-02f, 9.74092458e-04f, -5.78490645e-02f, 5.66527322e-02f, 
    -4.80647124e-02f, -5.65053187e-02f, 3.67420167e-02f, 1.14803985e-01f, -3.64994593e-02f, 
    1.01826176e-01f, -8.98261890e-02f, -1.11658573e-01f, -5.72725013e-02f, -1.20478552e-02f, 
    -1.24894559e-01f, -5.06130159e-02f, 9.51443389e-02f, -9.90385115e-02f, -2.03442834e-02f, 
    1.42938048e-01f, 7.96962902e-02f, 9.30099841e-03f, -5.98606430e-02f, -4.46828008e-02f, 
    -4.13849801e-02f, 1.39253139e-01f, 9.62553620e-02f, -3.36703025e-02f, -8.29013512e-02f, 
    7.83155933e-02f, -5.38055263e-02f, 4.09478024e-02f, 6.08260296e-02f, 3.98512837e-03f, 
    1.61446035e-02f, -6.26741499e-02f, 3.39398123e-02f, -9.83962789e-02f, 3.18777226e-02f, 
    -1.71055928e-01f, -3.49438712e-02f, -3.10633630e-02f, 2.62003150e-02f, -2.75367144e-02f, 
    9.26029962e-03f, 4.52027693e-02f, 3.39968763e-02f, -2.66757123e-02f, -4.37758267e-02f, 
    1.38647571e-01f, 3.02172601e-02f, -9.08159930e-03f, -2.01288164e-02f, 1.03193991e-01f, 
    -1.07473899e-02f, 1.09204665e-01f, -8.61786865e-03f, 1.74936995e-01f, 1.16816521e-01f, 
    -1.54874772e-02f, -9.87027287e-02f, -6.25481904e-02f, 9.90587473e-02f, -5.52103296e-02f, 
    5.54176457e-02f, -2.97222938e-02f, 1.29617378e-01f, 1.26149118e-01f, 7.04859123e-02f, 
    6.40253723e-02f, -2.40076706e-02f, -2.08943877e-02f, 6.74901670e-03f, -6.38481826e-02f, 
    2.56836731e-02f, -5.17073721e-02f, -8.12312663e-02f, 1.19091049e-01f, -7.31323808e-02f, 
    5.45040481e-02f, 2.61184643e-03f, -7.63659403e-02f, 1.25010803e-01f, 8.36258903e-02f, 
    5.95263913e-02f, -1.06063582e-01f, 4.19924743e-02f, 2.76017580e-02f, 1.98343545e-02f, 
    -1.00609772e-01f, 7.26419911e-02f, -1.34097621e-01f, -4.00575250e-02f, -1.81535224e-03f, 
    -9.37426388e-02f, -4.00169678e-02f, -7.75959715e-02f, -9.14711952e-02f, 7.52956718e-02f, 
    -8.95816982e-02f, -7.98123423e-03f, -5.17884595e-03f, 2.17542313e-02f, -7.86767229e-02f, 
    -8.08448344e-02f, -1.46834608e-02f, -6.02082051e-02f, 1.65391698e-01f, -1.81556605e-02f, 
    9.73735843e-03f, 2.73990892e-02f, -3.82516012e-02f, -2.61644050e-02f, 3.71288434e-02f, 
    9.18039382e-02f, -1.54170498e-01f, 7.65731931e-02f, 4.66420054e-02f, 5.38242012e-02f, 
    9.87308249e-02f, 1.09468438e-01f, -7.04751536e-02f, -1.19563736e-01f, -9.38056558e-02f, 
    -6.55679777e-02f, 1.14351884e-01f, 9.76447836e-02f, -3.72395329e-02f, 1.93430930e-02f, 
    -6.55933097e-02f, 4.56753634e-02f, -6.64704964e-02f, -6.57450110e-02f, -1.22864209e-01f, 
    1.14127025e-01f, -1.06185444e-01f, -1.25854090e-01f, -1.73568428e-02f, -9.06387717e-02f, 
    1.50705665e-01f, -2.88426317e-02f, 1.06424160e-01f, 6.31305873e-02f, 1.00519210e-01f, 
    5.46612181e-02f, 4.78039943e-02f, 1.78824179e-02f, -1.39278054e-01f, 1.18162416e-01f, 
    -5.18742166e-02f, 7.26423785e-02f, -2.28630193e-03f, -6.33754069e-03f, 1.67659465e-02f, 
    8.64038765e-02f, 1.49738535e-01f, 9.22611058e-02f, -6.83741421e-02f, -4.34401408e-02f, 
    7.42421835e-04f, -2.98083201e-03f, 8.63782763e-02f, -9.39441621e-02f, 4.61704768e-02f, 
    9.00577158e-02f, 1.08267441e-01f, -3.67295668e-02f, -2.77103391e-02f, -2.54901126e-02f, 
    6.56220093e-02f, 1.83486342e-01f, -1.96092695e-01f, -4.24804054e-02f, -6.33435231e-03f, 
    -7.56109059e-02f, -4.79246117e-02f, -8.92910659e-02f, 1.06331952e-01f, -2.15616487e-02f, 
    1.19894914e-01f, 8.67596939e-02f, -6.03534319e-02f, -4.04019691e-02f, 8.96643251e-02f, 
    1.75647940e-02f, -1.25983372e-01f, 3.36849131e-03f, -8.72308109e-03f, 8.52584466e-02f, 
    -5.06118909e-02f, -5.49870878e-02f, 4.83350977e-02f, -8.03818703e-02f, 4.67439853e-02f, 
    -7.17344210e-02f, -2.40772367e-02f, 7.53068179e-02f, -7.90484846e-02f, 7.78509770e-03f, 
    -1.54679781e-02f, -4.48921844e-02f, 1.57631963e-01f, 1.21503107e-01f, 7.44002610e-02f, 
    -3.66052687e-02f, 3.51883061e-02f, 5.89048378e-02f, -3.77245024e-02f, -6.96078762e-02f, 
    -4.84014861e-02f, -1.17991522e-01f, 4.78068888e-02f, 1.14451153e-02f, 2.50674188e-02f, 
    -4.28712815e-02f, -9.31834504e-02f, -1.54706801e-03f, 4.22517508e-02f, 1.27413616e-01f, 
    3.42373773e-02f, 4.11696034e-03f, -1.13038480e-01f, -1.10832490e-01f, -7.20391124e-02f, 
    -8.48147869e-02f, -1.07086688e-01f, 9.57612470e-02f, 2.01713038e-03f, 1.49603948e-01f, 
    1.04039311e-01f, 7.60571212e-02f, 4.51682843e-02f, -7.07163364e-02f, -4.79071438e-02f, 
    -7.59114474e-02f, -1.95788331e-02f, 5.54690808e-02f, 3.05777397e-02f, -1.64285645e-01f, 
    -3.26963700e-02f, -1.00923941e-01f, -5.55005670e-02f, -9.01546925e-02f, -5.58635928e-02f, 
    -1.83666162e-02f, -1.33784354e-01f, -9.34859812e-02f, 1.15399450e-01f, 5.00889905e-02f, 
    7.59410486e-02f, -1.23060331e-01f, -2.19846684e-02f, -6.49850583e-03f, -4.02011275e-02f, 
    1.36539834e-02f, -2.80232634e-02f, -9.47784707e-02f, 3.01043447e-02f, 8.30340683e-02f, 
    -9.17175636e-02f, -4.50627506e-02f, -4.19402085e-02f, 1.38280869e-01f, 1.38557442e-02f, 
    -6.46487623e-02f, -3.81084532e-02f, 1.45027101e-01f, 1.03913568e-01f, 1.69269100e-01f, 
    8.72250423e-02f, 1.05206490e-01f, -4.17070501e-02f, -2.88526285e-02f, 7.95520097e-02f, 
    2.20072046e-02f, 5.11225946e-02f, -1.04237407e-01f, 1.16390780e-01f, 8.89081415e-03f, 
    -2.89533660e-02f, -1.37088984e-01f, -1.29582226e-01f, 5.37821464e-02f, 1.16348870e-01f, 
    -4.50257473e-02f, 1.02820687e-01f, 5.56625761e-02f, 1.16401143e-01f, 4.49294746e-02f, 
    -1.04243636e-01f, -6.11508563e-02f, -6.36283234e-02f, -3.69378626e-02f, 2.97857374e-02f, 
    6.76233321e-02f, 8.43953490e-02f, -8.02745298e-02f, 1.70977227e-02f, -9.48785171e-02f, 
    -2.02614501e-01f, 1.30023926e-01f, -1.13362633e-01f, 9.77904201e-02f, -3.00731920e-02f, 
    -9.27926041e-03f, 1.09441854e-01f, 6.05866052e-02f, -7.36185610e-02f, 1.52730957e-01f, 
    -4.97680157e-02f, 1.20236573e-03f, -6.25792816e-02f, 1.77116189e-02f, 9.79607701e-02f, 
    -6.30025344e-04f, 8.35251659e-02f, 5.93484603e-02f, -6.81689233e-02f, -9.61379856e-02f, 
    -8.33964273e-02f, 3.59964371e-02f, -3.78665552e-02f, 6.54762760e-02f, -7.13448524e-02f, 
    8.98974836e-02f, 8.57070182e-03f, 9.59218517e-02f, -2.52754968e-02f, 2.40146350e-02f, 
    -1.20446920e-01f, -6.46759570e-02f, 9.12285745e-02f, -1.13541521e-01f, -5.53649850e-02f, 
    -2.35545970e-02f, 1.02559142e-01f, 1.05431922e-01f, -5.92333376e-02f, -1.74722970e-01f, 
    1.00421257e-01f, 5.92868961e-02f, -1.35081470e-01f, -6.60513118e-02f, 3.05122379e-02f, 
    4.45444100e-02f, 1.84009485e-02f, -1.07638789e-02f, 1.24964878e-01f, -9.12061632e-02f, 
    5.84896095e-02f, 3.39412428e-02f, 4.77385661e-03f, -4.48510572e-02f, -6.56809136e-02f, 
    5.51794618e-02f, 6.16782904e-03f, 6.98677301e-02f, 9.18430686e-02f, 1.19995803e-01f, 
    1.22756474e-02f, 1.35613292e-01f, -1.78660497e-01f, 2.91936821e-03f, -1.82036925e-02f, 
    3.02173346e-02f, 1.12296104e-01f, -6.95293322e-02f, -1.10124245e-01f, 1.04583122e-01f, 
    1.23529010e-01f, 5.21008521e-02f, 1.49154648e-01f, -5.87442629e-02f, 4.93436828e-02f, 
    1.11311805e-02f, 1.07013941e-01f, -6.43899962e-02f, -1.44517422e-01f, 5.14307618e-02f, 
    -6.13752417e-02f, -4.02561948e-02f, -1.53217062e-01f, -3.70216090e-04f, 1.23453937e-01f, 
    -4.71844301e-02f, -8.21771547e-02f, 7.22228736e-02f, -1.03676230e-01f, 9.38709360e-03f, 
    6.16486482e-02f, -5.14975004e-02f, -1.25065506e-01f, -7.99023509e-02f, -2.36499663e-02f, 
    -8.66273791e-02f, -7.33454823e-02f, 1.50755331e-01f, 1.30940646e-01f, -9.67663601e-02f, 
    8.64413157e-02f, -1.59073755e-01f, -1.42153623e-02f, -1.94192789e-02f, 6.93665445e-02f, 
    4.63764817e-02f, 8.51712078e-02f, -5.89891858e-02f, 1.05821371e-01f, 1.41298428e-01f, 
    -3.41358930e-02f, -2.18653050e-03f, -1.52040776e-02f, 1.24902599e-01f, 1.12227194e-01f, 
    1.55584123e-02f, 7.25370720e-02f, 6.63138973e-03f, -5.69913238e-02f, 6.60287887e-02f, 
    6.36143386e-02f, -3.59065533e-02f, 3.14773284e-02f, -1.08910881e-01f, 5.75730242e-02f, 
    -5.68325892e-02f, -3.39284912e-02f, 2.92584039e-02f, -4.67278324e-02f, 2.21197009e-02f, 
    4.59172316e-02f, 4.26566191e-02f, 6.21372648e-02f, -1.12378173e-01f, -1.86516941e-02f, 
    -5.90153132e-03f, 1.27679646e-01f, -2.17468105e-02f, -5.15028499e-02f, -4.83038649e-02f, 
    -6.56186566e-02f, 1.15228975e-02f, 9.62257758e-02f, -1.07858941e-01f, -5.25815859e-02f, 
    -2.04828177e-02f, -1.26784846e-01f, 2.88104154e-02f, -1.91154703e-01f, 3.70224826e-02f, 
    -2.36043450e-03f, -6.87021539e-02f, -1.16585255e-01f, -3.61969545e-02f, 3.81127670e-02f, 
    -8.16782564e-02f, -5.22584058e-02f, -6.86717108e-02f, 1.32708266e-01f, 4.98703718e-02f, 
    -5.21853603e-02f, -1.21498825e-02f, -1.35335580e-01f, 7.27185160e-02f, 3.92217785e-02f, 
    -1.02819055e-01f, 1.23488843e-01f, 1.09329537e-01f, 9.19673741e-02f, 1.48338854e-01f, 
    1.50452321e-02f, -7.43785277e-02f, -6.40966743e-02f, -2.06286423e-02f, 6.81112260e-02f, 
    -9.40450951e-02f, 1.68980528e-02f, -1.89192011e-03f, -1.73317149e-01f, -2.46442202e-02f, 
    1.13640085e-01f, 4.05130014e-02f, 8.48929808e-02f, -2.31271405e-02f, 1.11285485e-01f, 
    4.19300124e-02f, -2.05907859e-02f, 3.35421339e-02f, -1.28356889e-01f, 8.50824937e-02f, 
    1.79995894e-02f, 8.82950798e-02f, 2.89348103e-02f, -6.84884563e-02f, -1.13373317e-01f, 
    1.39253229e-01f, -1.26909852e-01f, 1.02974936e-01f, 4.13336419e-02f, 5.66680953e-02f, 
    -5.34326248e-02f, 1.40837237e-01f, -5.80540821e-02f, 1.43235728e-01f, -6.67646453e-02f, 
    -5.95606714e-02f, 4.72703613e-02f, -8.92619714e-02f, -1.41172092e-02f, -3.43337692e-02f, 
    -3.19365822e-02f, 3.82245257e-02f, 5.88362813e-02f, 1.33095458e-01f, 8.32723826e-03f, 
    4.08296175e-02f, 1.14545889e-01f, 6.54605627e-02f, 1.20411273e-02f, -8.83263722e-02f, 
    1.48682684e-01f, -1.39967473e-02f, -4.37889062e-02f, 1.16366282e-01f, 1.25877485e-02f, 
    9.87228006e-02f, 4.97898879e-03f, 1.23925313e-01f, -5.69201075e-02f, -6.40129447e-02f, 
    -1.84016660e-01f, -3.87899242e-02f, -8.22483972e-02f, 1.39696732e-01f, -2.53276248e-02f, 
    1.08372584e-01f, -9.98906419e-02f, 9.93993133e-02f, -5.24806678e-02f, 1.11095086e-01f, 
    -1.04613170e-01f, -1.25097454e-01f, 1.34067282e-01f, 2.04146747e-02f, 6.70659989e-02f, 
    1.05580024e-01f, -5.03102206e-02f, -8.97922441e-02f, 3.72374989e-02f, -5.34133650e-02f, 
    5.82340956e-02f, 1.35532007e-01f, 7.96141177e-02f, 1.11773610e-01f, -5.02933450e-02f, 
    -1.81865215e-01f, -1.22532055e-01f, -6.21069372e-02f, 4.32545431e-02f, -2.11534221e-02f, 
    -1.03809811e-01f, -1.76872686e-02f, -1.02044582e-01f, 9.84328687e-02f, -1.94774419e-02f, 
    6.20036609e-02f, -5.44902980e-02f, 1.24563910e-02f, 1.08806016e-02f, -3.13842818e-02f, 
    -1.16301097e-01f, -4.91073206e-02f, 9.87335220e-02f, -7.94031937e-03f, 1.46051288e-01f, 
    -3.38304527e-02f, 9.78819188e-03f, -7.55411619e-03f, -1.64193034e-01f, -5.12313023e-02f, 
    -2.81888563e-02f, 2.34383196e-02f, -1.21129289e-01f, 2.47334018e-02f, 7.98884183e-02f, 
    1.22548513e-01f, -1.01915665e-01f, 8.32925513e-02f, -7.00584203e-02f, -1.08899996e-01f, 
    6.84811845e-02f, -1.54916257e-01f, -1.81627870e-02f, 6.89232126e-02f, -8.06817859e-02f, 
    -1.03286751e-01f, -1.03561297e-01f, -1.04991701e-02f, 5.76418601e-02f, -9.86333415e-02f, 
    -1.15830123e-01f, 1.30913660e-01f, 6.86879084e-02f, -3.76787521e-02f, 1.36403635e-01f, 
    8.40371028e-02f, -6.16425090e-02f, -4.63364981e-02f, -1.18526489e-01f, -5.69233932e-02f, 
    1.03067711e-01f, -9.54627469e-02f, -1.01539873e-01f, -5.43321930e-02f, -9.94644836e-02f, 
    1.39599424e-02f, -1.09565236e-01f, 7.79916793e-02f, 1.08022414e-01f, 5.96425906e-02f, 
    -9.13424492e-02f, -7.65512884e-02f, -2.40649004e-02f, 4.07942124e-02f, 3.11889406e-02f, 
    -1.36109725e-01f, 6.97867051e-02f, -1.19505651e-01f, 6.89083710e-02f, 5.84108680e-02f, 
    9.08813179e-02f, -3.16839330e-02f, 1.07338624e-02f, -5.05629517e-02f, 6.20837696e-02f, 
    -9.28808674e-02f, -1.26855090e-01f, 1.39478788e-01f, 7.72994161e-02f, 6.51974902e-02f, 
    -3.48849595e-02f, 4.77195084e-02f, 5.08887544e-02f, 3.15838717e-02f, 9.72798169e-02f, 
    5.85895181e-02f, 9.69059169e-02f, -8.69788826e-02f, 1.11977354e-01f, 7.43611231e-02f, 
    -7.93592110e-02f, -8.29299539e-02f, -3.56526151e-02f, 1.55490823e-03f, -1.50709510e-01f, 
    -2.65794415e-02f, 6.85161129e-02f, 8.34829956e-02f, -1.47798443e-02f, -6.99612871e-02f, 
    1.36029154e-01f, 8.62580761e-02f, 1.14102490e-01f, 2.21338193e-03f, 8.29663351e-02f, 
    -6.28136322e-02f, -8.92372131e-02f, 1.29000127e-01f, -9.06925499e-02f, -9.40366834e-02f, 
    1.00140564e-01f, 7.94133171e-02f, 4.94821258e-02f, 1.02026224e-01f, 5.44573627e-02f, 
    6.46950528e-02f, -1.56629160e-01f, -4.46696533e-03f, -7.85445496e-02f, -1.24819964e-01f, 
    1.90138854e-02f, 7.79132843e-02f, -6.56637456e-03f, -1.16434872e-01f, -4.85807769e-02f, 
    -7.44593469e-03f, 8.11148435e-02f, -1.55335262e-01f, 1.82397924e-02f, 5.68312965e-03f, 
    2.05630977e-02f, 3.51644158e-02f, -4.64192480e-02f, 1.22791203e-02f, 7.97998980e-02f, 
    9.80801042e-03f, -5.17558493e-02f, -1.45491622e-02f, 6.33147880e-02f, -1.28529704e-04f, 
    -8.83046389e-02f, 3.52673121e-02f, -7.25303441e-02f, 7.29569718e-02f, 1.11001387e-01f, 
    3.72340046e-02f, -8.09771046e-02f, 2.59510074e-02f, -3.97560634e-02f, 6.04838841e-02f, 
    -1.59425095e-01f, 3.22429761e-02f, -6.61145896e-02f, -1.20190896e-01f, -8.82201344e-02f, 
    3.70436534e-02f, 1.26418009e-01f, 4.04616967e-02f, -1.36888877e-01f, 3.91990654e-02f, 
    1.94957890e-02f, -9.99246314e-02f, -1.31169453e-01f, 5.45070060e-02f, -2.78007742e-02f, 
    -4.89623249e-02f, 5.46117947e-02f, -6.39601424e-02f, -1.43557280e-01f, -1.08161479e-01f, 
    -1.12387560e-01f, 2.12070066e-03f, 2.82042604e-02f, -1.46599272e-02f, -4.69434895e-02f, 
    -9.77777541e-02f, -9.18773189e-02f, 1.73040897e-01f, -3.23424488e-02f, 4.71420623e-02f, 
    3.24448422e-02f, -8.70484710e-02f, -2.41916459e-02f, -1.63390547e-01f, -7.40931928e-02f, 
    1.12482840e-02f, -5.94521835e-02f, 1.04646951e-01f, -6.45595789e-02f, -3.11088748e-02f, 
    2.18662210e-02f, 1.79791134e-02f, 1.01649920e-02f, 7.88678527e-02f, -4.09261463e-03f, 
    3.10150869e-02f, 1.62306577e-01f, 2.81063793e-03f, -1.08738942e-02f, -7.64537230e-02f, 
    -7.94948488e-02f, 1.67610943e-02f, 6.78796768e-02f, -1.97813466e-01f, 7.39994943e-02f, 
    -6.30144626e-02f, -2.63983812e-02f, 1.67224947e-02f, -4.25378123e-04f, 5.25527485e-02f, 
    9.22799855e-02f, 7.40503967e-02f, -7.83120543e-02f, 5.45497052e-02f, -8.75151455e-02f, 
    -1.65008605e-01f, 3.27357240e-02f, 1.23573579e-01f, -1.12023883e-01f, 1.10457398e-01f, 
    -4.61380333e-02f, 7.55372122e-02f, 6.06622100e-02f, -6.39210343e-02f, -9.79984030e-02f, 
    9.03737843e-02f, 4.40164618e-02f, -4.89725880e-02f, 2.46246736e-02f, 1.33691728e-01f, 
    -7.27041960e-02f, 9.97513831e-02f, -8.73651803e-02f, 6.31259605e-02f, 9.54106376e-02f, 
    1.19906761e-01f, 1.30333722e-01f, -1.69398226e-02f, 7.27605298e-02f, 8.85168537e-02f, 
    6.18223436e-02f, 9.28671509e-02f, -3.44322249e-02f, 1.03397876e-01f, 9.32702199e-02f, 
    1.02359727e-01f, -4.80841496e-04f, 3.65102838e-04f, -1.00940153e-01f, -2.80849002e-02f, 
    4.95288186e-02f, 5.03465347e-02f, -8.32619742e-02f, 1.20433822e-01f, -8.47381875e-02f, 
    1.64907694e-01f, 1.06172502e-01f, -8.12835470e-02f, -5.50696440e-02f, -8.98838267e-02f, 
    1.01325028e-01f, -7.56647214e-02f, 3.05322949e-02f, 4.84669283e-02f, -8.19023475e-02f, 
    -7.12473840e-02f, 5.85356653e-02f, -1.03520967e-01f, 4.68136035e-02f, 9.13100019e-02f, 
    -2.19482556e-02f, -1.37739018e-01f, 1.00220069e-01f, 1.52522087e-01f, -1.58715937e-02f, 
    -1.50207430e-01f, -9.17390436e-02f, 1.39983609e-01f, -1.95986014e-02f, 4.26432006e-02f, 
    1.07641295e-01f, 7.64792860e-02f, -3.37882973e-02f, -1.00451320e-01f, -5.19354828e-02f, 
    5.27109578e-02f, 1.07582159e-01f, 4.17462317e-03f, 5.90759777e-02f, -3.04792002e-02f, 
    -1.08481102e-01f, 9.84858908e-03f, -6.69872314e-02f, 4.26898375e-02f, 7.31964186e-02f, 
    -8.67587551e-02f, 8.35741684e-02f, -1.11702293e-01f, 2.53010932e-02f, -6.07248694e-02f, 
    6.34651482e-02f, 5.60153835e-02f, 1.61493674e-01f, 9.32195410e-02f, -5.24343848e-02f, 
    -6.64898455e-02f, -6.52866736e-02f, -4.83741844e-03f, -1.21541359e-01f, 1.11299500e-01f, 
    6.63049193e-03f, -6.29392415e-02f, -1.09137557e-01f, 2.71132495e-02f, 1.30729437e-01f, 
    1.35234326e-01f, -8.74605700e-02f, -2.57888203e-03f, -8.51286352e-02f, 2.30292268e-02f, 
    3.65492073e-03f, 7.03297406e-02f, -7.66817108e-02f, 6.38651326e-02f, -1.06888846e-01f, 
    -4.58116904e-02f, 6.48431256e-02f, 1.00373887e-01f, 6.13644198e-02f, 1.64266750e-02f, 
    -6.39399216e-02f, 1.31382421e-01f, -1.28582027e-02f, 1.38655141e-01f, -8.55717584e-02f, 
    4.22112159e-02f, -1.00217558e-01f, 3.70331816e-02f, 5.68516143e-02f, 1.91642176e-02f, 
    3.38880159e-02f, -9.32273641e-02f, -1.32811174e-01f, -4.56613153e-02f, 1.29846996e-02f, 
    -1.35504184e-02f, 9.68986526e-02f, 1.13629992e-03f, -1.70151405e-02f, -4.56969179e-02f, 
    -3.28032933e-02f, 8.60883966e-02f, 4.93611321e-02f, -7.70958290e-02f, 1.25818446e-01f, 
    -9.79673490e-02f, -5.20703197e-02f, 4.13355678e-02f, 8.05562809e-02f, -5.72669804e-02f, 
    -6.30309656e-02f, 7.85851255e-02f, -9.79504138e-02f, 1.03519512e-02f, 8.37157592e-02f, 
    -8.13804790e-02f, -3.37328650e-02f, 6.57789186e-02f, -2.09852513e-02f, 2.60280874e-02f, 
    -1.31386936e-01f, 2.35138908e-02f, -8.52670446e-02f, -5.95464334e-02f, -2.75012478e-02f, 
    -1.05093755e-01f, -1.14687704e-01f, 1.00846075e-01f, -7.82094002e-02f, 1.34700343e-01f, 
    -6.24940917e-02f, -8.98201093e-02f, -3.66142429e-02f, 8.29064101e-03f, -4.04366851e-02f, 
    1.11727633e-01f, 1.02098644e-01f, 4.50286977e-02f, -1.45967240e-02f, -4.48299292e-03f, 
    -6.97643161e-02f, -2.76401564e-02f, 6.60705939e-02f, 1.69117868e-01f, 9.50653702e-02f, 
    1.35809854e-02f, 1.04077756e-01f, -1.43587291e-01f, 1.65055990e-01f, 4.44360413e-02f, 
    -8.53828155e-03f, -7.63160884e-02f, 1.46434382e-01f, 9.74533632e-02f, 5.64432219e-02f, 
    -2.04466395e-02f, -1.60907015e-01f, -8.43916088e-02f, 8.13772976e-02f, -7.73955509e-02f, 
    -9.74598378e-02f, -1.05316445e-01f, -8.11521802e-03f, -5.45897074e-02f, -8.37603360e-02f, 
    4.35260013e-02f, -7.19306171e-02f, -1.55929476e-01f, -1.02950923e-01f, 5.57084708e-03f, 
    -1.20364890e-01f, -9.17056501e-02f, -4.51758839e-02f, 1.35102272e-02f, -3.17241848e-02f, 
    -1.04899205e-01f, 2.18371004e-02f, 9.46151912e-02f, 4.70371768e-02f, 1.47544637e-01f, 
    3.69644240e-02f, 6.42224401e-02f, -6.54536411e-02f, -2.36396100e-02f, -8.50360394e-02f, 
    -3.25920321e-02f, -5.03342301e-02f, -5.69755733e-02f, -1.17129311e-02f, -1.18794031e-02f, 
    -1.98866464e-02f, 2.66900491e-02f, 1.34378038e-02f, 9.40691233e-02f, 1.08039089e-01f, 
    -8.19428116e-02f, 1.82849672e-02f, 4.60081100e-02f, 4.00555618e-02f, -3.34371589e-02f, 
    -3.71785238e-02f, 4.61318828e-02f, -1.51806315e-02f, 3.72287147e-02f, -8.72878656e-02f, 
    -1.03886515e-01f, -4.52413596e-03f, 1.22299112e-01f, 7.97897428e-02f, 7.23288432e-02f, 
    -1.32185621e-02f, 1.70926005e-01f, -3.44751924e-02f, -6.62648007e-02f, 1.18035816e-01f, 
    1.93525590e-02f, 1.02932222e-01f, -5.89947961e-02f, -3.51228155e-02f, 8.89424831e-02f, 
    7.48193935e-02f, -1.13386706e-01f, -1.96324494e-02f, 5.30687124e-02f, -2.82640215e-02f, 
    1.01496369e-01f, -8.33685100e-02f, -1.01929344e-01f, -1.32831052e-01f, -5.04083224e-02f, 
    -1.33931413e-01f, 7.84912109e-02f, 1.45743132e-01f, -2.48119682e-02f, -7.25828260e-02f, 
    6.90396577e-02f, 1.03187919e-01f, -4.29791622e-02f, 1.31878825e-02f, -1.81259867e-02f, 
    -8.09728578e-02f, 1.25828788e-01f, -6.11344092e-02f, -1.21456087e-02f, 5.39566055e-02f, 
    -1.19015373e-01f, 1.55227676e-01f, -1.20574415e-01f, 1.26397714e-01f, 7.82613084e-02f, 
    1.88214530e-03f, 8.12031031e-02f, 7.61320218e-02f, -3.56362313e-02f, 6.26250962e-03f, 
    -1.65107120e-02f, -1.06817700e-01f, 9.28729624e-02f, 7.51345244e-04f, 3.79179083e-02f, 
    -9.25423652e-02f, 6.66496083e-02f, -9.99688506e-02f, 7.09617808e-02f, -3.49281989e-02f, 
    -2.41767429e-02f, 9.81482640e-02f, -3.64102907e-02f, -3.81921157e-02f, 4.23722528e-02f, 
    7.09485114e-02f, 1.05708260e-02f, -1.10444658e-01f, -6.36788458e-02f, 8.33755434e-02f, 
    1.38831973e-01f, -1.28292426e-01f, -1.26743495e-01f, -6.55725077e-02f, 1.15690678e-01f, 
    -4.99337874e-02f, -6.14900030e-02f, 5.14685921e-02f, 5.08530699e-02f, 1.74519233e-03f, 
    5.30761778e-02f, 5.79313142e-03f, -5.38950004e-02f, -1.14664033e-01f, -8.26740935e-02f, 
    -6.87986314e-02f, 1.93020161e-02f, -9.64724347e-02f, 6.56402037e-02f, 4.36028838e-02f, 
    -5.12209684e-02f, -1.02200150e-01f, 1.35954395e-01f, 7.20219985e-02f, 1.53044732e-02f, 
    -1.15316592e-01f, -8.42494592e-02f, 1.06745981e-01f, 9.38244611e-02f, -3.70597281e-03f, 
    -2.57238820e-02f, -1.62635613e-02f, 7.10334256e-02f, 8.19841623e-02f, -1.08279541e-01f, 
    -1.23115376e-01f, 1.05696119e-01f, -3.74380425e-02f, 9.13583636e-02f, -1.98754109e-02f, 
    -9.62405577e-02f, 1.28413484e-01f, 2.59588547e-02f, -6.75731972e-02f, -1.01614125e-01f, 
    2.05720682e-03f, 4.17979173e-02f, -1.26828372e-01f, -6.18634112e-02f, 8.71444307e-03f, 
    -7.79026449e-02f, -1.10902876e-01f, -4.85384911e-02f, 1.03032127e-01f, 9.21567306e-02f, 
    -1.46133602e-02f, 1.47865817e-01f, 4.34385277e-02f, -1.07823826e-01f, -8.71459581e-03f, 
    -1.25877663e-01f, -8.35985765e-02f, -9.93088558e-02f, 6.55732974e-02f, 1.86920598e-01f, 
    2.28169970e-02f, -8.01018551e-02f, 5.03325136e-04f, -2.04900168e-02f, -9.29092765e-02f, 
    1.26498908e-01f, 3.41207646e-02f, 5.10384925e-02f, 5.48376627e-02f, -1.59638226e-02f, 
    -1.15042225e-01f, -7.27325231e-02f, -1.16545158e-02f, -8.78597274e-02f, -9.58277211e-02f, 
    1.13339923e-01f, 5.75140538e-03f, 7.85678774e-02f, 2.54584607e-02f, 7.67939240e-02f, 
    2.56297309e-02f, 9.48856622e-02f, 1.43620133e-01f, 5.89627810e-02f, -9.25768465e-02f, 
    9.06596780e-02f, 1.09289624e-02f, 1.02909774e-01f, -5.85819073e-02f, 1.47553042e-01f, 
    8.72764662e-02f, -1.24372736e-01f, 3.83963436e-02f, -8.38957950e-02f, -3.54913697e-02f, 
    2.88283266e-02f, 5.09347841e-02f, 6.50952477e-03f, 1.97648443e-02f, 1.21130250e-01f, 
    6.97767213e-02f, 7.73834884e-02f
};


// layer: conv2d_1 (Conv2D)
#define CONV2D_1_BIAS_NDIMS 1
#define CONV2D_1_BIAS_SHAPE_0 24
#define CONV2D_1_BIAS_SIZE 24
static const float CONV2D_1_BIAS[] = {
    -4.83560264e-02f, -9.65308994e-02f, 3.37039605e-02f, -5.04537523e-02f, -6.69115037e-02f, 
    1.00249005e-02f, -2.95928586e-02f, -1.75998807e-01f, -2.17311129e-01f, -6.60957694e-02f, 
    -4.84095188e-03f, -6.32883683e-02f, -1.46158813e-02f, -7.44584650e-02f, -2.85707768e-02f, 
    -3.42584401e-02f, -6.58287853e-02f, 8.60553905e-02f, -9.59140062e-02f, -1.37031808e-01f, 
    -4.00182344e-02f, -9.19389501e-02f, -1.66302189e-01f, -6.74141422e-02f
};


// layer: batch_normalization_1 (BatchNormalization)
#define BATCH_NORMALIZATION_1_GAMMA_NDIMS 1
#define BATCH_NORMALIZATION_1_GAMMA_SHAPE_0 24
#define BATCH_NORMALIZATION_1_GAMMA_SIZE 24
static const float BATCH_NORMALIZATION_1_GAMMA[] = {
    1.02774870e+00f, 1.00546265e+00f, 9.94489908e-01f, 1.03575671e+00f, 9.23707008e-01f, 
    9.45362568e-01f, 9.77822185e-01f, 9.64322150e-01f, 1.05342579e+00f, 9.67954516e-01f, 
    9.74070907e-01f, 9.60387647e-01f, 1.02996588e+00f, 1.04595768e+00f, 9.99762774e-01f, 
    9.83950496e-01f, 1.02012599e+00f, 9.95604634e-01f, 9.66770709e-01f, 1.04450941e+00f, 
    1.00116837e+00f, 9.80701983e-01f, 1.02556610e+00f, 9.93673742e-01f
};


// layer: batch_normalization_1 (BatchNormalization)
#define BATCH_NORMALIZATION_1_BETA_NDIMS 1
#define BATCH_NORMALIZATION_1_BETA_SHAPE_0 24
#define BATCH_NORMALIZATION_1_BETA_SIZE 24
static const float BATCH_NORMALIZATION_1_BETA[] = {
    1.24255650e-01f, 1.52867615e-01f, -5.39270462e-04f, 9.75029394e-02f, -1.67128667e-02f, 
    -9.83053520e-02f, -9.44705158e-02f, 1.19094022e-01f, -3.99026088e-03f, 6.18774742e-02f, 
    -1.01006411e-01f, -1.48317128e-01f, 4.59275879e-02f, -2.44450080e-03f, 5.76837622e-02f, 
    1.41512364e-01f, 7.42566865e-03f, 5.94255840e-03f, -9.89215448e-04f, 1.85005497e-02f, 
    2.52478600e-01f, 1.17845424e-01f, -1.16418786e-02f, 1.54145613e-01f
};


// layer: batch_normalization_1 (BatchNormalization)
#define BATCH_NORMALIZATION_1_MOVING_MEAN_NDIMS 1
#define BATCH_NORMALIZATION_1_MOVING_MEAN_SHAPE_0 24
#define BATCH_NORMALIZATION_1_MOVING_MEAN_SIZE 24
static const float BATCH_NORMALIZATION_1_MOVING_MEAN[] = {
    6.35750964e-02f, 1.73070326e-01f, 6.33622050e-01f, 2.40808040e-01f, 8.39144826e-01f, 
    9.26471770e-01f, 2.02543005e-01f, 2.69260406e-01f, 8.06500763e-02f, 2.84009874e-01f, 
    3.18238795e-01f, 3.98982286e-01f, 2.07343653e-01f, 1.97566405e-01f, 1.66712642e-01f, 
    1.33986399e-01f, 1.26639858e-01f, 3.53462905e-01f, 3.56015861e-01f, 2.02729598e-01f, 
    2.62865484e-01f, 4.11387384e-01f, 4.83945683e-02f, 1.57709748e-01f
};


// layer: batch_normalization_1 (BatchNormalization)
#define BATCH_NORMALIZATION_1_MOVING_VARIANCE_NDIMS 1
#define BATCH_NORMALIZATION_1_MOVING_VARIANCE_SHAPE_0 24
#define BATCH_NORMALIZATION_1_MOVING_VARIANCE_SIZE 24
static const float BATCH_NORMALIZATION_1_MOVING_VARIANCE[] = {
    2.41316855e-02f, 5.29193319e-02f, 4.88256156e-01f, 1.91813678e-01f, 1.16848516e+00f, 
    1.20856595e+00f, 8.61625150e-02f, 1.33002788e-01f, 4.20799144e-02f, 1.45304531e-01f, 
    1.71513796e-01f, 2.53193676e-01f, 1.71184853e-01f, 1.31880641e-01f, 1.26940846e-01f, 
    6.92637861e-02f, 4.02421951e-02f, 1.46594509e-01f, 2.33839661e-01f, 8.09595361e-02f, 
    9.74889174e-02f, 2.99212009e-01f, 2.68712230e-02f, 4.56578694e-02f
};


// layer: conv2d_2 (Conv2D)
#define CONV2D_2_KERNEL_NDIMS 4
#define CONV2D_2_KERNEL_SHAPE_0 3
#define CONV2D_2_KERNEL_SHAPE_1 3
#define CONV2D_2_KERNEL_SHAPE_2 24
#define CONV2D_2_KERNEL_SHAPE_3 48
#define CONV2D_2_KERNEL_SIZE 10368
static const float CONV2D_2_KERNEL[] = {
    6.40891120e-02f, -2.64936145e-02f, -7.08155930e-02f, -7.21776411e-02f, -2.81350762e-02f, 
    7.65551776e-02f, -9.43214893e-02f, -7.01228976e-02f, -4.12455648e-02f, -3.47301327e-02f, 
    -5.78106754e-02f, 2.80515496e-02f, -3.89529057e-02f, 6.27092719e-02f, 2.12320942e-03f, 
    -1.98792927e-02f, -2.43283343e-02f, -6.24021515e-02f, -3.18996459e-02f, -6.65795850e-03f, 
    -2.75749085e-03f, 3.82983759e-02f, -7.45743513e-02f, -3.82413305e-02f, -4.41978239e-02f, 
    3.51675488e-02f, 1.04691744e-01f, 8.68057832e-03f, -1.27611577e-03f, -7.54080117e-02f, 
    -3.38542499e-02f, 5.55025935e-02f, 1.02007738e-03f, -1.84263906e-03f, 1.07118502e-01f, 
    1.75888347e-03f, -4.09175083e-02f, 3.01823914e-02f, -4.72006388e-02f, -2.23693047e-02f, 
    -7.87243173e-02f, 8.01423639e-02f, -1.00627661e-01f, -5.17631955e-02f, -8.90872031e-02f, 
    -4.46470752e-02f, 2.59386990e-02f, 3.08682173e-02f, 2.78499369e-02f, 6.14009127e-02f, 
    -9.68321413e-02f, -8.51089880e-02f, -1.37444595e-02f, 6.82574809e-02f, 1.71949342e-02f, 
    -8.53603184e-02f, 3.61294560e-02f, -2.52681300e-02f, 1.48583809e-02f, -4.29361872e-02f, 
    4.00812849e-02f, -3.92478257e-02f, 3.39212678e-02f, -5.31288460e-02f, -7.26288557e-02f, 
    -4.05712314e-02f, -1.25027552e-01f, -3.84759158e-02f, 3.64634506e-02f, 3.40304412e-02f, 
    -4.23592366e-02f, -8.68406966e-02f, -1.06052095e-02f, -1.46380559e-01f, 1.12456651e-02f, 
    4.27798294e-02f, -4.13071513e-02f, 2.58269757e-02f, -3.99227776e-02f, 1.27101332e-01f, 
    2.35228408e-02f, -8.43109339e-02f, -2.24991702e-02f, -5.63678332e-02f, -1.62805747e-02f, 
    2.13358030e-02f, 5.52690327e-02f, -2.09925584e-02f, -6.12063520e-02f, 4.41359431e-02f, 
    -3.39272246e-02f, -7.18669668e-02f, -3.89226303e-02f, -3.04837860e-02f, 1.09584611e-02f, 
    -6.08392917e-02f, -8.41492638e-02f, -1.42622758e-02f, 8.09232146e-02f, -4.03994732e-02f, 
    4.38073650e-02f, -1.29411191e-01f, 2.66519804e-02f, -2.94934046e-02f, 6.55054823e-02f, 
    -9.55845043e-02f, -7.69111142e-02f, 6.01953547e-03f, 2.54644640e-02f, 3.14982012e-02f, 
    -3.06184255e-02f, 8.43716785e-02f, -2.63819415e-02f, -6.97440654e-02f, -1.22654606e-02f, 
    1.21520706e-01f, 9.81732085e-02f, -4.95149754e-03f, -6.14174493e-02f, -2.09399257e-02f, 
    -1.01124868e-01f, 9.65863280e-03f, 4.08374816e-02f, 6.81062341e-02f, 4.62860428e-02f, 
    -1.64454512e-03f, 1.09771274e-01f, 4.11641486e-02f, -3.90476659e-02f, -6.50931969e-02f, 
    7.17653483e-02f, 1.16831817e-01f, 5.87614067e-02f, 8.29127133e-02f, 1.12289861e-01f, 
    1.13093890e-01f, -3.89068425e-02f, -6.02881275e-02f, -5.41821402e-03f, 1.66357923e-02f, 
    -9.32955891e-02f, 4.62028049e-02f, 4.42911871e-02f, -3.52501310e-02f, -3.13217193e-02f, 
    2.73460615e-02f, 9.73079726e-02f, 1.36995047e-01f, -2.13319473e-02f, 2.61521842e-02f, 
    3.31359133e-02f, 1.78551357e-02f, 3.01727261e-02f, -3.22783701e-02f, -6.45986944e-02f, 
    8.11238680e-03f, 4.30063829e-02f, 2.11153254e-02f, -3.45542170e-02f, -2.39419378e-02f, 
    -7.51997754e-02f, 6.68198615e-02f, -2.70634107e-02f, -6.56280434e-03f, 2.86958832e-02f, 
    1.81106851e-02f, 6.23454638e-02f, -5.33693917e-02f, 4.25161868e-02f, -2.29604598e-02f, 
    -3.64872115e-03f, 1.46770611e-01f, 5.47605567e-03f, 5.49790189e-02f, -9.15490985e-02f, 
    -6.68165460e-03f, 7.78388828e-02f, -5.52922003e-02f, 3.80810611e-02f, 1.17633753e-01f, 
    4.47154902e-02f, -8.01847503e-03f, 2.31702384e-02f, -1.44716017e-02f, 8.13541263e-02f, 
    6.74783885e-02f, -8.29746947e-02f, -2.60137822e-02f, 7.55593330e-02f, 2.00927228e-01f, 
    -1.90466680e-02f, -1.65759027e-02f, -5.81477061e-02f, -4.65367511e-02f, 6.19386323e-02f, 
    -9.18257982e-02f, 2.42274981e-02f, -1.97085757e-02f, -5.32184541e-02f, 7.62802884e-02f, 
    4.32771072e-02f, 2.07326398e-03f, -3.75652537e-02f, 7.96879008e-02f, -7.79577196e-02f, 
    4.67431433e-02f, -1.55239496e-02f, 7.55011067e-02f, -3.70992646e-02f, -4.29149680e-02f, 
    2.96698580e-03f, -4.03219201e-02f, -1.21645732e-02f, -7.20063522e-02f, 6.69951215e-02f, 
    -1.08281970e-01f, -3.66095006e-02f, -2.79133134e-02f, -4.60458621e-02f, 5.68171171e-03f, 
    1.77722145e-02f, 5.09564765e-02f, 1.67072937e-02f, 6.13931753e-02f, -4.43097949e-02f, 
    5.29782586e-02f, -4.97855954e-02f, 8.85868073e-02f, -4.20461670e-02f, 7.55989030e-02f, 
    -2.81158015e-02f, 4.39104550e-02f, 2.67856754e-02f, -7.73047581e-02f, -4.99350801e-02f, 
    7.56325349e-02f, 3.43345068e-02f, -1.16799371e-02f, 8.74327719e-02f, 8.04560184e-02f, 
    -3.31258355e-03f, 6.03015944e-02f, 7.70435017e-03f, -2.99537368e-02f, 9.98224393e-02f, 
    -3.77278551e-02f, 4.77731265e-02f, 3.18235457e-02f, 4.29169461e-03f, 6.30287454e-02f, 
    5.85705154e-02f, 4.85221781e-02f, -6.12999089e-02f, -9.62118804e-02f, -9.64388251e-02f, 
    -4.08839099e-02f, -3.92716303e-02f, -3.98558006e-02f, 7.73994718e-03f, -1.08709574e-01f, 
    -1.50372065e-03f, 7.76017318e-03f, 1.60196144e-02f, -7.38563612e-02f, -1.65542196e-02f, 
    4.71365079e-02f, -1.86931603e-02f, 6.72981814e-02f, -6.86480030e-02f, -1.03496306e-01f, 
    -7.61208963e-03f, -4.83684354e-02f, 5.49657177e-03f, 8.68952274e-02f, -7.58241564e-02f, 
    -2.08730958e-02f, 5.65908439e-02f, -3.47007178e-02f, 4.12460417e-02f, -4.03510556e-02f, 
    2.26949397e-02f, -1.36920866e-02f, 5.92850558e-02f, -1.43896388e-02f, 9.35629755e-03f, 
    -5.00576459e-02f, 7.92676061e-02f, 6.91616386e-02f, 7.95259923e-02f, -2.89138537e-02f, 
    -6.15100637e-02f, 5.60285188e-02f, -5.53921238e-02f, -9.32057127e-02f, -1.71441790e-02f, 
    7.75658116e-02f, 8.98259133e-02f, -2.21446883e-02f, -1.06911525e-01f, 3.87432948e-02f, 
    9.54786912e-02f, -1.73342251e-03f, 2.57811937e-02f, 9.87486094e-02f, 1.63174979e-02f, 
    -5.98383434e-02f, 1.02914006e-01f, -7.15086386e-02f, -2.11090073e-02f, -6.37143627e-02f, 
    7.86915496e-02f, 6.16046553e-03f, 1.67909190e-02f, 2.85307355e-02f, -4.33656760e-02f, 
    -9.52409394e-03f, 6.43790886e-02f, 4.78527024e-02f, 3.48527655e-02f, 5.98903466e-03f, 
    5.41102141e-02f, 2.96411235e-02f, 3.82419229e-02f, -6.19169176e-02f, 5.76704629e-02f, 
    4.83324677e-02f, -1.57305524e-01f, 6.65702522e-02f, -7.12831989e-02f, -8.00527036e-02f, 
    -3.66363791e-03f, -6.66217878e-02f, 8.33543539e-02f, 7.02977851e-02f, -1.08380161e-01f, 
    -4.89702867e-03f, -4.10256870e-02f, -7.84629956e-02f, -7.44982958e-02f, -9.03305411e-02f, 
    -1.17375264e-02f, -7.07861260e-02f, 2.90928148e-02f, -3.55406851e-02f, -3.85929085e-02f, 
    -7.62629882e-02f, 9.09826346e-03f, -1.25144705e-01f, -3.22541110e-02f, 4.43783551e-02f, 
    -2.59849783e-02f, -8.25728774e-02f, -2.07629334e-02f, -2.38760412e-02f, 5.03582880e-03f, 
    1.61652490e-02f, -1.02734178e-01f, -1.67916045e-02f, -3.95715460e-02f, -3.77253145e-02f, 
    1.05791636e-01f, 5.16511984e-02f, -3.63560580e-02f, -9.17061120e-02f, 8.51824693e-03f, 
    -2.86551798e-03f, -7.01661110e-02f, -1.54773388e-02f, 4.98908982e-02f, -2.65563354e-02f, 
    -8.64156783e-02f, -5.29239373e-03f, 3.37438076e-03f, -2.13910379e-02f, -5.99994957e-02f, 
    5.13719879e-02f, 4.02315855e-02f, -4.46776673e-02f, -1.78436022e-02f, 3.98158580e-02f, 
    -1.08914666e-01f, -7.20259249e-02f, -1.14321828e-01f, -9.66265798e-02f, -2.43669059e-02f, 
    6.39199167e-02f, 2.25277599e-02f, 2.14580097e-03f, 4.47434410e-02f, -7.60433301e-02f, 
    -2.26229634e-02f, 6.69546658e-03f, 5.15502319e-02f, 5.08753583e-02f, -8.70651752e-02f, 
    -8.48943070e-02f, -9.19390395e-02f, -2.28023175e-02f, 4.86382395e-02f, 1.13083161e-01f, 
    -1.09899402e-01f, 6.67085126e-02f, 8.06094632e-02f, -3.94827276e-02f, -7.08310399e-03f, 
    5.87910078e-02f, -7.67325908e-02f, 4.52993326e-02f, 1.99138783e-02f, -4.34370935e-02f, 
    -7.83637315e-02f, -1.20570853e-01f, 2.66302079e-02f, -2.76136640e-02f, 4.26742993e-02f, 
    -5.37353009e-02f, -7.52986781e-03f, -2.54744552e-02f, 9.84541029e-02f, -6.17139824e-02f, 
    -1.24152474e-01f, -5.28186113e-02f, -1.50003612e-01f, -7.60448584e-03f, -8.15271810e-02f, 
    -4.68659736e-02f, -4.36865166e-02f, 1.15853818e-02f, 3.22720446e-02f, -5.93032166e-02f, 
    -8.40064138e-02f, -1.88630167e-03f, 4.48004380e-02f, -9.08661447e-03f, 2.24257377e-03f, 
    5.94526269e-02f, 6.46859333e-02f, 6.31687231e-03f, -6.24013729e-02f, -4.05225679e-02f, 
    -5.99476807e-02f, -8.50868598e-02f, 8.74101073e-02f, 6.01474904e-02f, 5.89778908e-02f, 
    -3.81820425e-02f, 1.26112695e-03f, 7.38542899e-02f, 3.79690491e-02f, -1.54367387e-02f, 
    5.52229360e-02f, -8.25172365e-02f, 3.96424765e-03f, -5.56943603e-02f, 9.22094192e-03f, 
    -1.05987526e-01f, -9.09588709e-02f, -9.45123285e-02f, -9.29650441e-02f, -6.01044595e-02f, 
    -4.57336148e-03f, 1.16507383e-02f, -9.54747051e-02f, 2.82562207e-02f, 7.44299963e-02f, 
    -1.14725493e-01f, 2.70251161e-03f, 6.89855367e-02f, 8.63334571e-04f, 1.94553807e-02f, 
    -1.04206568e-02f, 6.54263422e-02f, 8.44856352e-02f, 3.19717191e-02f, 2.09837928e-02f, 
    -1.58127118e-02f, -2.28528045e-02f, -7.04958364e-02f, -2.90090982e-02f, -3.82457972e-02f, 
    2.63087247e-02f, -5.43316454e-02f, 6.30299002e-02f, 2.39582080e-02f, -8.19392055e-02f, 
    2.74384748e-02f, 7.02523738e-02f, 1.25101522e-01f, 6.11160770e-02f, 2.85089569e-04f, 
    -6.06681444e-02f, -2.22173557e-02f, 1.33168042e-01f, -2.98815556e-02f, -5.13795018e-02f, 
    8.62004012e-02f, -6.36125207e-02f, 7.94787928e-02f, -3.64712849e-02f, -8.12837388e-03f, 
    3.11501957e-02f, 7.26629375e-03f, 5.38615435e-02f, 5.78874769e-03f, -3.59326974e-02f, 
    -3.57767269e-02f, -7.55953714e-02f, 3.55352461e-02f, 4.30142954e-02f, 1.08405896e-01f, 
    3.09999683e-03f, -7.31527433e-02f, -2.13244930e-02f, -5.28884754e-02f, 1.19274147e-02f, 
    7.17878193e-02f, -4.34803441e-02f, -8.19413587e-02f, -6.20254464e-02f, 1.04896627e-01f, 
    -5.47495373e-02f, -2.88759936e-02f, 1.73800830e-02f, -4.40120581e-04f, -4.10321131e-02f, 
    -3.98054719e-02f, 4.15282995e-02f, -9.99334082e-02f, 7.80921243e-03f, -1.29468456e-01f, 
    1.74738392e-02f, 1.01076499e-01f, -4.05593775e-02f, 1.08904645e-01f, 1.12485789e-01f, 
    -2.86154505e-02f, 2.29411330e-02f, 9.01959091e-02f, 2.99005676e-02f, -1.02967672e-01f, 
    9.07765776e-02f, 1.10372409e-01f, 8.23159441e-02f, 2.57350504e-02f, -2.14555729e-02f, 
    -4.40966971e-02f, 7.45269060e-02f, -5.75349070e-02f, 8.91609490e-02f, 4.47316319e-02f, 
    4.20906693e-02f, 3.53398286e-02f, 4.02801000e-02f, 1.11841455e-01f, 8.56928974e-02f, 
    5.98099902e-02f, 1.14548011e-02f, 4.06143144e-02f, -1.44835692e-02f, -1.11834826e-02f, 
    5.02670817e-02f, -7.16220140e-02f, 2.82437745e-02f, -1.18148103e-02f, -4.12794836e-02f, 
    -6.93341019e-03f, -1.59195869e-03f, 1.61297694e-02f, -5.39678661e-03f, -6.78486750e-02f, 
    7.63287172e-02f, -1.14787325e-01f, 9.42727923e-02f, 4.04065698e-02f, -8.94565880e-02f, 
    -2.68061664e-02f, -2.44679302e-02f, -8.27050284e-02f, -8.19912031e-02f, -6.40648752e-02f, 
    -1.39127849e-02f, -7.56872445e-02f, 5.10149039e-02f, -1.18808737e-02f, 6.54194281e-02f, 
    6.46712631e-02f, -5.14398441e-02f, -2.52744220e-02f, 8.50924626e-02f, -7.05013499e-02f, 
    -4.45700772e-02f, -2.02661268e-02f, -4.30490188e-02f, -1.67113215e-01f, -2.74911709e-02f, 
    1.29971296e-01f, 4.68812175e-02f, -3.55328470e-02f, -8.63770843e-02f, -1.40786946e-01f, 
    4.15760092e-02f, -5.34703657e-02f, -3.42998728e-02f, 7.82145262e-02f, 3.15798186e-02f, 
    5.93432598e-02f, 5.53377010e-02f, -3.05350721e-02f, -9.92197394e-02f, -1.25636935e-01f, 
    1.13359220e-01f, -2.29457356e-02f, -7.82934353e-02f, -4.54851128e-02f, 3.40704480e-03f, 
    8.23742375e-02f, -6.62529767e-02f, -6.82955682e-02f, -5.48775159e-02f, -7.17111230e-02f, 
    1.43452222e-02f, -3.48773561e-02f, 2.41809078e-02f, -8.89310520e-03f, -4.39036973e-02f, 
    -7.07897767e-02f, -5.36701754e-02f, -1.52048236e-02f, 5.69182821e-02f, -9.99078229e-02f, 
    3.27758677e-02f, -6.82482868e-02f, 5.75725175e-02f, 3.00988294e-02f, 3.35503370e-02f, 
    5.26164696e-02f, -6.15108907e-02f, -4.96113487e-02f, 4.83576804e-02f, -6.77175121e-05f, 
    -3.26120146e-02f, 2.32097283e-02f, -9.63509977e-02f, 2.31930427e-02f, 1.43861789e-02f, 
    4.29575816e-02f, 3.97091024e-02f, -8.94282386e-02f, 9.48019605e-03f, -1.00189582e-01f, 
    5.70357665e-02f, -6.80387169e-02f, 9.69139207e-03f, 2.91605741e-02f, 5.14259748e-02f, 
    1.29293680e-01f, -6.26533031e-02f, 1.03729349e-02f, -2.31249519e-02f, 1.94779076e-02f, 
    -5.51196188e-02f, -1.20270006e-01f, 1.29529713e-02f, -4.75697145e-02f, 1.87796797e-03f, 
    4.77164611e-02f, -7.85046443e-02f, 4.04036753e-02f, -1.05327383e-01f, -9.76901203e-02f, 
    2.40935832e-02f, 7.07116164e-03f, 2.91283093e-02f, -1.09814376e-01f, -5.01213558e-02f, 
    2.35556215e-02f, 5.19196577e-02f, -1.42158568e-02f, 3.44439931e-02f, 2.01175492e-02f, 
    9.11106020e-02f, 1.63461026e-02f, -3.80388536e-02f, 7.15078637e-02f, -1.07409479e-02f, 
    -1.18995793e-01f, 1.12228282e-01f, 1.87071748e-02f, -4.07694913e-02f, -6.71659708e-02f, 
    -7.17191994e-02f, 7.21395165e-02f, -4.26963121e-02f, 1.24297090e-01f, -1.47741865e-02f, 
    -8.98480713e-02f, 5.17886654e-02f, -6.91942126e-02f, -6.86620772e-02f, -1.10972866e-01f, 
    4.38285246e-02f, 9.16458294e-02f, -2.22853199e-03f, -3.62628251e-02f, 7.21461140e-03f, 
    -1.08199909e-01f, 5.77894389e-05f, -4.96065617e-02f, 7.09546879e-02f, 3.19757573e-02f, 
    3.90862674e-02f, -1.49773927e-02f, -1.62540495e-01f, 1.01260968e-01f, 8.07232335e-02f, 
    -5.03045693e-02f, 8.53135809e-03f, 3.91704440e-02f, 1.00946933e-01f, 1.13305613e-01f, 
    2.28392128e-02f, -4.15119752e-02f, 1.54683813e-01f, 9.75641608e-02f, -8.72606859e-02f, 
    -5.88654133e-04f, -3.26068923e-02f, -1.04099317e-02f, -9.93832126e-02f, -8.45395550e-02f, 
    1.24461517e-01f, 5.14814667e-02f, -5.39877117e-02f, 1.18513443e-02f, -5.83085306e-02f, 
    -7.13198707e-02f, 1.25841692e-01f, 1.44107297e-01f, 1.95151437e-02f, -2.02340409e-02f, 
    8.51838663e-03f, -1.08600318e-01f, 4.66304570e-02f, -3.23374383e-02f, -1.55600369e-01f, 
    -8.83670896e-02f, -3.04191671e-02f, -2.25086901e-02f, 1.26348987e-01f, -5.48914410e-02f, 
    -1.09483533e-01f, 3.03463992e-02f, 7.96758309e-02f, 5.62356152e-02f, -3.15333195e-02f, 
    -4.22892869e-02f, -4.40175459e-02f, 4.90854308e-02f, 5.79375066e-02f, -3.00988257e-02f, 
    9.27150249e-02f, -1.99308116e-02f, -1.02084592e-01f, -6.99784830e-02f, 8.63551442e-03f, 
    1.02765411e-01f, 3.30731235e-02f, 3.05623491e-03f, -4.04470973e-02f, 4.95991856e-02f, 
    -1.06862992e-01f, 7.84511119e-02f, 1.25785351e-01f, 3.48162418e-03f, 9.79643539e-02f, 
    -3.26766074e-02f, -5.28124459e-02f, 1.60313323e-02f, -5.05671166e-02f, -1.59375414e-01f, 
    5.92130013e-02f, -4.85097729e-02f, -2.77462807e-02f, -1.77564044e-02f, -5.38569205e-02f, 
    -8.48265514e-02f, -2.16636956e-02f, 3.66304442e-02f, 3.99310514e-02f, 3.82045358e-02f, 
    5.89039437e-02f, 4.53429632e-02f, 5.45855537e-02f, -7.21684482e-04f, -5.65326214e-02f, 
    -5.00059351e-02f, 3.90830860e-02f, 4.17719334e-02f, -1.01716861e-01f, 6.51313514e-02f, 
    3.39458250e-02f, -8.71571153e-02f, 2.31299512e-02f, 2.78212968e-02f, -1.52977440e-03f, 
    -1.10042430e-01f, -6.84092939e-02f, 2.45212787e-03f, 5.52102998e-02f, -3.36570553e-02f, 
    2.57419907e-02f, -1.52077368e-02f, 1.01037221e-02f, -3.68215912e-03f, 4.62549217e-02f, 
    7.19523653e-02f, -1.21817514e-02f, -4.24566120e-02f, 7.79471695e-02f, 2.11846102e-02f, 
    -7.28112683e-02f, 3.15015055e-02f, 2.35150428e-03f, 1.01241656e-01f, -5.34715354e-02f, 
    -6.16920181e-02f, 3.64432558e-02f, 7.85576031e-02f, 3.29407677e-02f, 1.04559392e-01f, 
    -3.85174565e-02f, -1.02725521e-01f, 1.07807852e-03f, -2.94061732e-02f, 3.07838414e-02f, 
    1.14109144e-01f, 2.58666109e-02f, -6.11277521e-02f, 4.28207852e-02f, -9.67043415e-02f, 
    -5.89613691e-02f, 7.68812895e-02f, 1.56235546e-02f, 3.94211672e-02f, 8.53356123e-02f, 
    -4.01729792e-02f, 5.53380288e-02f, -1.15475035e-03f, 6.86705783e-02f, -1.75362118e-02f, 
    -4.75043990e-02f, 2.87435763e-02f, -3.26297916e-02f, 5.42502478e-02f, 4.25302796e-02f, 
    7.17849657e-02f, 8.16804543e-03f, 4.73961420e-02f, -4.61731032e-02f, -1.38585735e-02f, 
    -4.79496866e-02f, -5.36224432e-03f, -3.42871174e-02f, 9.21075121e-02f, 1.73451882e-02f, 
    -4.14876118e-02f, 1.75071619e-02f, -4.32767458e-02f, 1.54317357e-02f, 5.42729236e-02f, 
    4.66475040e-02f, -1.36145821e-03f, 1.38598317e-02f, 1.68262944e-02f, 9.93859917e-02f, 
    -8.21328238e-02f, 2.25087274e-02f, 6.30043969e-02f, -8.02505412e-04f, -1.68608110e-02f, 
    -6.25129491e-02f, 7.62191042e-02f, 3.86706367e-02f, -5.25074638e-02f, -3.76293249e-02f, 
    -7.26061985e-02f, -5.97558133e-02f, 4.19681109e-02f, 2.01072339e-02f, 7.74571002e-02f, 
    -5.59557378e-02f, 1.14461191e-01f, 1.29979447e-01f, 4.80119772e-02f, -4.73975614e-02f, 
    1.20491525e-02f, -4.87577133e-02f, 4.29081963e-03f, -5.04846759e-02f, -7.05325529e-02f, 
    -8.65046382e-02f, 6.21614046e-02f, -9.40549448e-02f, 3.86046022e-02f, 3.68592106e-02f, 
    -6.72468692e-02f, -3.00317463e-02f, -1.07837930e-01f, 1.98677890e-02f, -4.37300205e-02f, 
    -8.20384100e-02f, 4.60054316e-02f, -2.37614512e-02f, -8.66594911e-02f, 8.20905045e-02f, 
    6.41997680e-02f, -1.09803893e-01f, -7.44637996e-02f, 2.36787833e-02f, -6.31561801e-02f, 
    -6.53059036e-02f, -1.32243812e-01f, -6.73896866e-03f, 4.20484953e-02f, 5.37083484e-02f, 
    4.42582183e-02f, -9.77689624e-02f, -5.09083681e-02f, -4.36531603e-02f, 1.07269511e-01f, 
    -3.46532464e-02f, 1.28916912e-02f, 2.63276454e-02f, -8.94085318e-02f, -4.06548381e-02f, 
    1.81569476e-02f, -1.27266273e-01f, 6.16381727e-02f, 8.70778114e-02f, 8.66913944e-02f, 
    6.43473789e-02f, 7.13504702e-02f, -7.15750009e-02f, -2.28761639e-02f, 7.66133815e-02f, 
    -1.29473105e-01f, 2.76199244e-02f, -1.26669724e-02f, -2.51538269e-02f, 3.03173847e-02f, 
    1.51556000e-01f, 8.57144687e-03f, -4.74165082e-02f, 1.55973397e-02f, -1.14030086e-01f, 
    -6.23999164e-02f, 2.74503138e-03f, 9.60115492e-02f, -2.70175282e-02f, -5.22005977e-03f, 
    -2.70435866e-02f, 7.91587606e-02f, -6.99359104e-02f, -3.77937630e-02f, 1.18315749e-01f, 
    6.00282624e-02f, -1.12769261e-01f, -8.55566263e-02f, -9.61235911e-02f, -2.40746792e-02f, 
    -4.25656773e-02f, 2.10895631e-02f, -1.07886843e-01f, -1.28879309e-01f, -7.55112097e-02f, 
    -1.61792506e-02f, -5.73477894e-02f, 3.04220021e-02f, -7.94784650e-02f, 2.35259975e-03f, 
    8.07637628e-03f, -1.20482100e-02f, -8.78057182e-02f, -6.96951970e-02f, 5.47662005e-02f, 
    -1.22585155e-01f, -3.71460877e-02f, -4.18339521e-02f, -3.62228453e-02f, -8.99344534e-02f, 
    -1.13753825e-01f, -3.34636159e-02f, -3.49865891e-02f, -6.42146915e-02f, -6.10376745e-02f, 
    8.12878534e-02f, 5.89640439e-02f, -4.59506176e-03f, -1.52283430e-01f, -2.50036586e-02f, 
    9.65249687e-02f, 3.47090736e-02f, -1.08063526e-01f, -4.82644960e-02f, -5.78709021e-02f, 
    -9.25041586e-02f, -7.63136894e-02f, 3.93689312e-02f, 4.37356085e-02f, -1.82998329e-02f, 
    1.01272680e-01f, -2.91568171e-02f, 5.21083660e-02f, 4.07090932e-02f, 6.24449626e-02f, 
    -4.62730452e-02f, -4.15001698e-02f, -1.01230163e-02f, 5.74504584e-02f, 5.81721775e-02f, 
    6.82529481e-03f, -1.03569344e-01f, -5.79330027e-02f, 2.08773054e-02f, -9.04730856e-02f, 
    -2.08773073e-02f, -6.39717560e-03f, 7.13415593e-02f, -6.18907064e-02f, 9.04804748e-03f, 
    -2.04875227e-03f, -8.23134929e-02f, -4.54132631e-03f, -4.57458422e-02f, 3.78928334e-03f, 
    -1.27800228e-02f, 7.11146519e-02f, -2.69779451e-02f, -4.26494144e-02f, -5.87048680e-02f, 
    3.53871565e-03f, -1.41724115e-02f, -3.26581188e-02f, -3.81118059e-02f, -6.97717816e-02f, 
    4.78715971e-02f, 5.59433177e-02f, -8.84901434e-02f, -8.70390162e-02f, -7.22187087e-02f, 
    -2.94160899e-02f, -3.01442817e-02f, 6.54251175e-03f, 3.30828391e-02f, 3.55179980e-02f, 
    2.78042443e-03f, 7.77754411e-02f, -2.00594440e-01f, 8.30304176e-02f, 2.80725099e-02f, 
    -2.28122268e-02f, 1.13576315e-01f, 6.27365559e-02f, 6.38555437e-02f, 1.20549770e-02f, 
    6.71287999e-02f, -5.60935289e-02f, -3.76015417e-02f, 8.39961693e-02f, -7.93555677e-02f, 
    6.54918104e-02f, 1.71231981e-02f, 1.96659341e-02f, 3.94265056e-02f, -1.22164406e-01f, 
    -4.75738943e-02f, 6.56806231e-02f, 1.87305845e-02f, 1.30154639e-01f, -3.05597633e-02f, 
    -3.97895537e-02f, -7.26216063e-02f, -6.57705665e-02f, 1.32357284e-01f, 9.02783405e-03f, 
    1.61439981e-02f, -7.12849647e-02f, -9.10537243e-02f, -2.73646191e-02f, -1.10388212e-01f, 
    -8.17312896e-02f, 3.30104344e-02f, 3.95020582e-02f, 4.88566011e-02f, -2.69793184e-03f, 
    2.43024454e-02f, -5.15417336e-03f, -9.61410906e-03f, 3.59944738e-02f, -4.11454923e-02f, 
    2.46390291e-02f, 6.63867518e-02f, 2.62284353e-02f, -6.80813268e-02f, -5.60632497e-02f, 
    2.40251534e-02f, -5.06638587e-02f, 4.13617678e-02f, -1.19812600e-01f, -5.90841286e-02f, 
    -2.74739191e-02f, -4.77326512e-02f, -6.50742203e-02f, 2.59100832e-02f, 2.94143707e-02f, 
    -1.19747855e-01f, 6.22754358e-02f, -1.20011456e-01f, -7.42317662e-02f, -2.94988044e-02f, 
    -8.86746794e-02f, 3.06440815e-02f, -4.52416353e-02f, -8.47344100e-02f, 8.75815004e-02f, 
    -9.07937288e-02f, 6.78216368e-02f, 2.09205542e-02f, 8.49154592e-02f, 5.62410615e-02f, 
    -9.63915586e-02f, -6.91359043e-02f, 3.51730026e-02f, -7.25601092e-02f, -4.21571136e-02f, 
    -1.13113530e-01f, -5.00224382e-02f, -9.77126509e-03f, -7.90324360e-02f, 6.26510680e-02f, 
    -3.66242938e-02f, -3.14820483e-02f, -9.35676843e-02f, 6.36385828e-02f, -1.00678571e-01f, 
    -4.23516147e-02f, -5.54970540e-02f, -7.16670454e-02f, 1.33399889e-02f, -1.03950076e-01f, 
    -2.69750897e-02f, 2.05922835e-02f, 2.06912886e-02f, 1.06117256e-01f, -5.40913083e-02f, 
    -6.25563487e-02f, -1.63791925e-02f, -5.27326241e-02f, -1.12655260e-01f, -1.43173963e-01f, 
    -5.75365275e-02f, -1.19294208e-02f, -8.90917554e-02f, 8.03722441e-02f, -6.73147989e-03f, 
    -3.23124640e-02f, -1.32602677e-02f, 3.45937982e-02f, 3.04706097e-02f, -8.31041932e-02f, 
    9.52895954e-02f, -3.50654460e-02f, -8.37436225e-03f, -1.67863183e-02f, -9.01154578e-02f, 
    1.90518107e-02f, -3.26729491e-02f, 3.46711874e-02f, 7.89683089e-02f, -5.83642945e-02f, 
    -8.63271803e-02f, -8.93991739e-02f, -4.26941626e-02f, 8.23629349e-02f, 7.34086782e-02f, 
    7.82298446e-02f, 1.11871175e-01f, 1.27137993e-02f, -3.27152684e-02f, 3.53730321e-02f, 
    -1.91439483e-02f, 1.80629815e-03f, -3.37803848e-02f, 1.02058220e-04f, -6.95105568e-02f, 
    6.26146840e-03f, -9.18339565e-02f, -3.63646448e-02f, -6.60258299e-03f, -5.42739928e-02f, 
    -7.41822785e-03f, -5.18277735e-02f, -5.24986647e-02f, 3.13617699e-02f, 3.51672173e-02f, 
    -2.05039419e-02f, -9.35340859e-03f, -9.54540595e-02f, -5.23621291e-02f, -2.72352677e-02f, 
    5.68384901e-02f, -1.20107993e-01f, -1.52387912e-03f, 3.80356722e-02f, -1.59320831e-02f, 
    -5.41596301e-02f, -9.97016486e-03f, 4.48750108e-02f, -9.42473933e-02f, -8.44818205e-02f, 
    -6.17961250e-02f, -1.92199368e-02f, -1.41886488e-01f, -8.40610918e-03f, 7.73646832e-02f, 
    6.41583058e-04f, -2.90227477e-02f, -9.91456397e-03f, -1.21024717e-03f, -5.04309833e-02f, 
    -8.36025923e-02f, 1.73962452e-02f, -2.39162184e-02f, -7.44041950e-02f, -6.18283674e-02f, 
    -7.65875578e-02f, -2.94853225e-02f, -4.82748039e-02f, 7.50687644e-02f, -5.89783639e-02f, 
    2.40109097e-02f, 4.79672290e-02f, -3.35432813e-02f, -7.15568438e-02f, -5.42910695e-02f, 
    3.48597765e-02f, 3.47006768e-02f, -6.48466647e-02f, -1.84833519e-02f, -7.20428256e-03f, 
    -1.42169967e-02f, -4.82310019e-02f, 7.50261471e-02f, 1.95145123e-02f, 3.65278237e-02f, 
    7.70034567e-02f, 5.75218955e-03f, -8.02962407e-02f, -9.21967402e-02f, -1.04190474e-02f, 
    -3.33962813e-02f, 4.35410142e-02f, 1.01466358e-01f, -5.93064316e-02f, -1.90681650e-03f, 
    -7.11006224e-02f, 2.69428790e-02f, 6.89336881e-02f, 4.58347052e-02f, 2.89541180e-03f, 
    3.55942138e-02f, 3.71910222e-02f, -4.69223000e-02f, 8.88301730e-02f, 5.13580665e-02f, 
    4.21369299e-02f, -7.86792561e-02f, -3.90115567e-03f, 8.84197280e-02f, -3.41108255e-03f, 
    3.46258283e-02f, -5.68666831e-02f, -1.11155596e-03f, -4.74045500e-02f, -3.85228603e-04f, 
    -4.32410575e-02f, 3.35636735e-02f, 3.67258340e-02f, -7.41323531e-02f, -7.07250908e-02f, 
    -2.90894900e-02f, 4.97531109e-02f, 2.26341076e-02f, 6.31493330e-02f, -9.36539564e-03f, 
    3.38421650e-02f, 3.26124653e-02f, -7.90790394e-02f, 1.00728661e-01f, 1.85458846e-02f, 
    -5.15590832e-02f, 1.66833196e-02f, -4.35778648e-02f, 5.55685395e-03f, -2.67838668e-02f, 
    8.95811245e-03f, 3.81654175e-03f, 9.38921794e-02f, 3.56086381e-02f, -4.85628918e-02f, 
    4.57981834e-03f, 3.10588279e-03f, 2.87699644e-02f, 1.17699705e-01f, -1.27809914e-02f, 
    3.50256935e-02f, -2.68142615e-02f, -7.91356806e-03f, 6.47454485e-02f, 3.53933610e-02f, 
    -5.73981963e-02f, -2.84615029e-02f, 3.99796441e-02f, 5.74830472e-02f, -6.47605807e-02f, 
    5.30147143e-02f, -9.87359658e-02f, -2.35295687e-02f, 5.32680601e-02f, -3.76133882e-02f, 
    -1.17698163e-01f, 4.55632471e-02f, 6.94393516e-02f, 7.81235769e-02f, -2.02297885e-02f, 
    -4.19134125e-02f, -3.63688730e-02f, -1.97320115e-02f, -7.34446896e-03f, -8.39652792e-02f, 
    9.55720469e-02f, -2.99628656e-02f, -2.15076022e-02f, -7.98915327e-03f, -3.91538404e-02f, 
    6.91937506e-02f, -5.46234511e-02f, -8.73867050e-02f, 1.24477623e-02f, -8.24255571e-02f, 
    -4.09152880e-02f, -6.76842183e-02f, -6.21192418e-02f, -5.95818944e-02f, 1.01507986e-02f, 
    -2.95463782e-02f, 3.09670791e-02f, -2.98778675e-02f, 6.23260885e-02f, -3.98703218e-02f, 
    -1.64618641e-02f, 1.41449822e-02f, 5.86042181e-02f, 2.30461434e-02f, 7.44973272e-02f, 
    8.11356902e-02f, -1.18986621e-01f, 7.21628917e-03f, -6.24208562e-02f, 1.03746355e-01f, 
    2.34679691e-02f, 8.18811655e-02f, 1.01033010e-01f, 5.19859418e-03f, -7.34182075e-02f, 
    5.12957871e-02f, 1.37716997e-02f, -7.92577565e-02f, 7.01005831e-02f, -5.52728623e-02f, 
    -2.68514417e-02f, -1.99543983e-02f, 6.53304458e-02f, 7.43890330e-02f, 1.08024687e-01f, 
    -1.24679524e-02f, -8.34727883e-02f, -6.74427748e-02f, 3.61748748e-02f, -4.68351245e-02f, 
    -3.43108103e-02f, 5.74561357e-02f, 2.46263645e-03f, 1.73030596e-03f, -1.75341163e-02f, 
    -9.26065259e-03f, -3.03043183e-02f, -5.95759787e-02f, 7.98736792e-03f, -4.80749123e-02f, 
    3.37357894e-02f, -5.62604964e-02f, -5.65615185e-02f, -8.03114325e-02f, -6.43165931e-02f, 
    5.08182775e-03f, 1.91198308e-02f, 5.19977547e-02f, 6.75891340e-02f, -3.76592837e-02f, 
    -7.97140319e-03f, 6.21883906e-02f, -6.18575625e-02f, -2.57872068e-03f, -4.84942757e-02f, 
    7.03066364e-02f, 6.00165278e-02f, -4.84130718e-02f, -1.99209135e-02f, 3.58702205e-02f, 
    -8.32045302e-02f, 2.24086922e-02f, 6.42176643e-02f, -2.17151605e-02f, 5.46885096e-03f, 
    -3.10325045e-02f, 2.96290759e-02f, -7.47162988e-03f, -1.00156374e-01f, 5.17939776e-02f, 
    -2.80693453e-02f, 6.96547935e-03f, -5.26954513e-03f, 3.29662859e-02f, -7.15571642e-02f, 
    -1.00722142e-01f, -4.78163324e-02f, 7.39972293e-02f, -1.52840617e-03f, 5.96212372e-02f, 
    -1.54894721e-02f, 7.72747695e-02f, -1.57598015e-02f, -2.57575065e-02f, -1.65788800e-01f, 
    -3.82451713e-02f, 1.16519295e-01f, 6.77669495e-02f, -5.08746803e-02f, -6.16917759e-02f, 
    -1.07101038e-01f, -4.64801043e-02f, 5.48543185e-02f, -1.75165962e-02f, 5.90506271e-02f, 
    -1.94403250e-02f, -5.97216859e-02f, -1.86950527e-02f, -1.49741378e-02f, -1.23760877e-02f, 
    -8.94739758e-03f, -1.26148099e-02f, -3.82711813e-02f, 1.20283393e-02f, 1.32260751e-02f, 
    9.27612185e-02f, -3.70086245e-02f, 2.62114871e-02f, 5.46697006e-02f, 9.02087316e-02f, 
    -7.93194398e-03f, -3.62556726e-02f, -4.35676463e-02f, -2.50399504e-02f, 4.88046296e-02f, 
    5.66128381e-02f, -3.73851098e-02f, -4.77246568e-02f, 3.45832482e-03f, 5.76687455e-02f, 
    -9.39199477e-02f, -8.99441838e-02f, 3.75243044e-03f, -3.49075347e-02f, -3.36488299e-02f, 
    4.31800215e-03f, -1.32928327e-01f, -6.75751045e-02f, 6.77790865e-02f, 7.38634989e-02f, 
    -4.50562984e-02f, 4.54444364e-02f, 5.88687100e-02f, 8.03557318e-03f, 3.41832452e-02f, 
    1.00708038e-01f, -1.99548788e-02f, 2.69734710e-02f, -3.87000591e-02f, 2.75024702e-03f, 
    4.76135872e-03f, 2.89206803e-02f, -8.40186849e-02f, -1.29366875e-01f, -6.53553084e-02f, 
    -5.65413125e-02f, -8.50424096e-02f, -3.94188650e-02f, -1.19637453e-03f, -7.38960505e-02f, 
    2.76339930e-02f, -1.35827381e-02f, 1.06076989e-03f, -4.64079417e-02f, -1.20691635e-01f, 
    -1.19129226e-01f, 5.85468765e-03f, -1.13949671e-01f, 6.53785840e-02f, -1.19552851e-01f, 
    -3.52506787e-02f, 6.16601966e-02f, 4.67150658e-02f, 4.07202356e-02f, -9.41753685e-02f, 
    -5.84237315e-02f, -9.50230956e-02f, 9.92697757e-03f, 7.14989379e-02f, -6.97451085e-02f, 
    -8.52363463e-03f, 1.64357759e-02f, -2.13640463e-02f, -2.06555314e-02f, -9.71870869e-03f, 
    -5.13721481e-02f, -2.91299745e-02f, 9.99279693e-02f, -1.23000750e-02f, -9.77520570e-02f, 
    9.17707831e-02f, 2.15460788e-02f, 1.18369482e-01f, 2.19202470e-02f, -1.81910601e-02f, 
    -1.72260292e-02f, -9.18971300e-02f, -7.32373446e-02f, -4.87875976e-02f, 5.30834720e-02f, 
    1.42471585e-02f, 3.49862911e-02f, -4.09393199e-02f, 7.93667044e-03f, 2.15923507e-02f, 
    -8.48390907e-02f, 2.83099767e-02f, -2.00882591e-02f, -8.26624706e-02f, -4.88443412e-02f, 
    8.05535764e-02f, 4.38509956e-02f, -3.04862354e-02f, -5.83475642e-03f, -2.77199503e-02f, 
    -3.99103202e-02f, 4.02399488e-02f, 3.44828591e-02f, 2.31485330e-02f, -1.33666284e-02f, 
    6.63588271e-02f, -2.16633286e-02f, -1.03254378e-01f, 3.46575044e-02f, -1.39015913e-01f, 
    6.42682910e-02f, -2.51894910e-02f, -2.78207753e-02f, -1.13475613e-01f, 9.84189138e-02f, 
    -2.16148812e-02f, -3.52106243e-02f, -2.11988296e-02f, -1.74639828e-03f, -2.04374059e-03f, 
    5.11486009e-02f, -3.93575840e-02f, -3.40812244e-02f, 1.03247194e-02f, -9.53623727e-02f, 
    1.07492786e-02f, 7.93147907e-02f, 5.17926738e-02f, 4.34852131e-02f, 1.83436275e-02f, 
    4.16384302e-02f, -3.86688262e-02f, -9.26091671e-02f, 4.46095467e-02f, 7.58767352e-02f, 
    3.58540341e-02f, 5.20924814e-02f, 2.83259023e-02f, 5.74656762e-03f, -9.22555849e-03f, 
    -2.49975044e-02f, 3.15345414e-02f, -9.34711769e-02f, -7.66571015e-02f, -8.72381963e-03f, 
    -1.23005837e-01f, 1.02440799e-02f, 1.46948863e-02f, 9.13884863e-02f, 7.53293931e-02f, 
    5.08169681e-02f, -1.43844318e-02f, -5.47805317e-02f, -4.06410359e-03f, 1.40860174e-02f, 
    -8.64703581e-02f, -9.60954055e-02f, -7.27491304e-02f, 1.09466843e-01f, -2.16061436e-03f, 
    -4.37329151e-02f, 6.98994771e-02f, 8.85775238e-02f, -5.79226501e-02f, -1.08454838e-01f, 
    -8.67939591e-02f, -3.87056731e-02f, -1.66632179e-02f, -2.66234856e-02f, 3.69793288e-02f, 
    -3.17721814e-02f, 3.40153389e-02f, 2.41483580e-02f, 6.84693409e-03f, 9.27072689e-02f, 
    1.43645583e-02f, -5.28945588e-02f, 2.44355574e-02f, 1.06084213e-01f, 6.01874776e-02f, 
    3.27830911e-02f, -6.77668005e-02f, 5.44420071e-03f, 2.97336024e-03f, 8.55737701e-02f, 
    5.80626316e-02f, -4.65338379e-02f, 3.86540741e-02f, -9.48255940e-04f, -4.33898866e-02f, 
    9.15783271e-02f, -8.24216604e-02f, -8.08310583e-02f, -1.67914405e-01f, -2.98161022e-02f, 
    3.68016139e-02f, -3.53084467e-02f, 1.23797491e-01f, 1.03285313e-02f, 1.35290720e-05f, 
    6.14183471e-02f, 2.91259289e-02f, -4.79456745e-02f, -4.22462225e-02f, 3.14743561e-03f, 
    -9.52709615e-02f, -9.03856184e-04f, 5.25207259e-03f, -8.58874992e-03f, -6.89358637e-03f, 
    6.36663735e-02f, 6.77777529e-02f, -9.60492715e-03f, 4.71110549e-03f, -4.89953458e-02f, 
    6.09821267e-02f, -2.75921300e-02f, 4.05941308e-02f, 1.01146754e-02f, -1.00264005e-01f, 
    -4.32145968e-02f, 6.50667250e-02f, 3.21472846e-02f, 1.13776820e-02f, 6.78783879e-02f, 
    -5.00446046e-03f, -4.64998074e-02f, 2.58502364e-02f, 7.79122859e-02f, 1.55094778e-02f, 
    4.19982411e-02f, -6.65463135e-02f, -1.53308343e-02f, 8.58331565e-03f, 1.60549637e-02f, 
    1.12221964e-01f, 1.20263444e-02f, 5.72653152e-02f, -6.88716918e-02f, -2.74243876e-02f, 
    1.55622000e-02f, 3.92133556e-02f, -5.16534038e-02f, 6.58491477e-02f, 1.08722582e-01f, 
    -7.52746537e-02f, 6.47423863e-02f, -2.73855496e-02f, 7.28631541e-02f, 4.97229099e-02f, 
    -3.31462882e-02f, 2.46612839e-02f, -9.64910835e-02f, 8.97151306e-02f, 3.02232429e-02f, 
    2.90679783e-02f, 3.92037742e-02f, -4.73805107e-02f, -9.90910009e-02f, 8.19862783e-02f, 
    4.98852842e-02f, -2.10823435e-02f, 7.10935295e-02f, -1.06678195e-02f, -1.22689940e-01f, 
    -9.47583318e-02f, -4.49318588e-02f, -8.32576379e-02f, 2.60637999e-02f, 8.47238079e-02f, 
    -2.73953704e-03f, 7.99769387e-02f, 7.63650462e-02f, -4.05724198e-02f, 1.30091868e-02f, 
    9.92362946e-02f, -2.67677363e-02f, 3.44689637e-02f, 5.34816720e-02f, -1.54735371e-01f, 
    -9.45873335e-02f, -1.95389036e-02f, -1.09116724e-02f, 1.53878987e-01f, 3.51634957e-02f, 
    -6.08810671e-02f, 2.82649826e-02f, -1.18393395e-02f, -5.97615689e-02f, 3.39403227e-02f, 
    -3.71100269e-02f, 8.11884478e-02f, 2.84554828e-02f, -2.26465184e-02f, 7.00833872e-02f, 
    -8.15678760e-02f, -4.45756465e-02f, 4.11796048e-02f, 5.57519644e-02f, 7.44510591e-02f, 
    -2.24951133e-02f, -6.61436617e-02f, 1.82946045e-02f, -6.91205710e-02f, 2.63104308e-02f, 
    4.41064648e-02f, -7.47842044e-02f, -7.31680449e-03f, 8.78937356e-03f, 1.21235102e-01f, 
    -2.84090899e-02f, 2.93558054e-02f, -6.06989302e-02f, -8.20556581e-02f, -1.17570177e-01f, 
    1.15474202e-02f, 4.14668620e-02f, 5.76272905e-02f, 5.65128326e-02f, -3.96388322e-02f, 
    8.15314427e-02f, 4.35669497e-02f, 3.98919592e-03f, -3.79758365e-02f, 4.27213637e-03f, 
    3.94645333e-02f, -2.30368655e-02f, 5.92187326e-03f, -3.49387936e-02f, -4.81406823e-02f, 
    -6.61829785e-02f, -7.10916221e-02f, 5.55809885e-02f, 4.24927697e-02f, -4.94941929e-03f, 
    4.73178625e-02f, 7.14835129e-04f, 2.48024557e-02f, -8.78626332e-02f, 4.26152013e-02f, 
    4.20292169e-02f, -4.08611484e-02f, 5.44440039e-02f, -7.29558766e-02f, -8.34224597e-02f, 
    4.67069186e-02f, 4.47539845e-03f, 3.91618386e-02f, -8.81217644e-02f, 8.87643024e-02f, 
    -5.98412938e-02f, -2.41333619e-02f, 1.12024695e-01f, 6.66413605e-02f, -3.35789286e-02f, 
    -6.25284165e-02f, -1.95502471e-02f, 8.30810890e-02f, -2.28968984e-03f, -7.30099296e-03f, 
    -6.26297444e-02f, -7.55193606e-02f, -4.20386270e-02f, -1.00064710e-01f, 3.37572135e-02f, 
    2.51303073e-02f, 2.96657458e-02f, 6.03682846e-02f, 1.28161803e-01f, -3.92307527e-02f, 
    -2.34575849e-02f, -1.12859346e-02f, -5.54816835e-02f, 9.20022056e-02f, 8.48810226e-02f, 
    4.48572263e-02f, 1.61109269e-02f, -2.04243828e-02f, 5.52192070e-02f, 5.50486555e-04f, 
    9.44458246e-02f, -1.24044366e-01f, 5.67688001e-03f, 1.17974199e-01f, -5.75000569e-02f, 
    1.07636619e-02f, 5.10221012e-02f, -4.05044258e-02f, 4.57519181e-02f, 6.06937818e-02f, 
    -8.69158208e-02f, -3.38227637e-02f, 1.65516622e-02f, 1.71149932e-02f, 4.88436334e-02f, 
    2.60924026e-02f, 5.59248552e-02f, -5.76792546e-02f, -3.32697518e-02f, -1.88369587e-01f, 
    3.56262140e-02f, 5.98474741e-02f, -8.16091895e-03f, -3.34825516e-02f, -7.10860342e-02f, 
    -6.05895109e-02f, 2.09172852e-02f, 3.73147875e-02f, 5.46745118e-03f, 6.06562458e-02f, 
    7.60495216e-02f, 2.47602705e-02f, -7.28399977e-02f, -8.87306482e-02f, -4.69081337e-03f, 
    -9.70450714e-02f, -8.66708253e-03f, 4.84445393e-02f, 4.81550619e-02f, -1.80602670e-02f, 
    1.40747055e-04f, -1.23394936e-01f, -4.11520563e-02f, -5.79261109e-02f, 3.55352461e-02f, 
    1.27030797e-02f, -8.64310842e-03f, -4.75039482e-02f, -1.00297250e-01f, 1.59531329e-02f, 
    1.44549729e-02f, -5.69249205e-02f, -3.49775404e-02f, -3.32760513e-02f, 4.46884036e-02f, 
    6.99480623e-02f, 1.12834089e-02f, -3.22017781e-02f, -6.16330057e-02f, 6.05650134e-02f, 
    -1.80272274e-02f, -4.20510434e-02f, -2.35810932e-02f, -4.36148979e-02f, 1.04170898e-02f, 
    1.91097278e-02f, -4.66227531e-02f, 8.95457193e-02f, 1.43873238e-03f, -3.76541167e-02f, 
    2.43430454e-02f, 8.01779330e-02f, 3.81533951e-02f, -2.30433755e-02f, 1.25988675e-02f, 
    -1.18732370e-01f, 1.04897149e-01f, -1.05483262e-02f, 1.23363417e-02f, -2.14924440e-02f, 
    -9.99690145e-02f, -3.93886901e-02f, 4.47837450e-02f, -7.32623041e-02f, -6.31836802e-03f, 
    1.86820906e-02f, -1.45331517e-01f, 2.22784337e-02f, 6.97793514e-02f, 7.24591166e-02f, 
    4.37353700e-02f, -9.94150862e-02f, -6.51063323e-02f, -8.64648446e-02f, -8.02312419e-02f, 
    5.52586578e-02f, 8.61471072e-02f, 6.03279360e-02f, -5.53269014e-02f, 6.72688931e-02f, 
    8.44152737e-03f, -8.26118439e-02f, -9.36019123e-02f, -8.16913247e-02f, 4.32478748e-02f, 
    6.31699413e-02f, -6.32264689e-02f, -9.39364210e-02f, 3.94572802e-02f, -2.32692473e-02f, 
    2.83915959e-02f, 9.66819078e-02f, -1.24896854e-01f, -3.83214466e-02f, -7.87429959e-02f, 
    5.35015240e-02f, 2.05671005e-02f, -2.29958259e-02f, -4.68247198e-03f, -6.87820911e-02f, 
    -6.06564134e-02f, 5.32004535e-02f, -4.20002230e-02f, 6.91562220e-02f, 3.98264416e-02f, 
    2.18826253e-03f, 1.20002124e-03f, -5.35154641e-02f, -6.91557825e-02f, 2.04923227e-02f, 
    -1.02218138e-02f, -5.55399153e-03f, 1.74006652e-02f, 4.29330915e-02f, -2.04731952e-02f, 
    9.29837674e-02f, 3.31489779e-02f, 4.34652790e-02f, -1.11290582e-01f, 1.18512157e-02f, 
    9.16436613e-02f, -8.19928292e-03f, 1.00314967e-01f, 8.18461627e-02f, -7.76640177e-02f, 
    -6.60066456e-02f, 5.23252077e-02f, 6.33921325e-02f, -1.30849490e-02f, -8.08661580e-02f, 
    7.60210827e-02f, -2.59839129e-02f, -2.41241995e-02f, 1.24896124e-01f, -1.43819049e-01f, 
    7.93051161e-03f, -6.22619763e-02f, 1.08453101e-02f, 2.33632717e-02f, -4.64424156e-02f, 
    -1.46885542e-02f, -1.28132505e-02f, 8.51953700e-02f, -6.69381171e-02f, -5.93611225e-02f, 
    -4.06294167e-02f, 1.61242839e-02f, -5.65083213e-02f, -1.11226784e-02f, 4.84756827e-02f, 
    6.30926043e-02f, 3.24891433e-02f, 2.38001179e-02f, 2.87589766e-02f, 2.31682677e-02f, 
    -2.60912441e-02f, 9.89598501e-03f, 4.13799845e-02f, 7.96167925e-02f, -1.57838725e-02f, 
    3.47238878e-04f, -5.29820435e-02f, 8.32282472e-03f, 7.52087831e-02f, 8.68692920e-02f, 
    -1.69464909e-02f, -9.36263800e-02f, -7.75762200e-02f, -4.70414720e-02f, 1.97951104e-02f, 
    -7.87151009e-02f, 3.00004687e-02f, -2.92555541e-02f, 1.96525436e-02f, -8.72039497e-02f, 
    5.51452301e-02f, -6.75279126e-02f, -4.62410152e-02f, -4.99051847e-02f, 1.19220212e-01f, 
    1.04773402e-01f, -1.55382445e-02f, -5.79743497e-02f, -5.88720590e-02f, -7.56660616e-03f, 
    -1.72232352e-02f, -7.23788887e-02f, -8.29309877e-03f, -6.69302493e-02f, -9.69433691e-03f, 
    8.96786973e-02f, 9.03811082e-02f, 4.10319604e-02f, -4.02170382e-02f, -3.96761075e-02f, 
    5.58143258e-02f, 8.08393583e-02f, -8.99140537e-03f, 9.19877887e-02f, 8.23478326e-02f, 
    4.82359491e-02f, 1.74280815e-02f, 6.08473606e-02f, -8.16966072e-02f, -1.74214944e-01f, 
    -4.78155240e-02f, 6.41212985e-02f, -1.01845413e-01f, -9.94624421e-02f, -4.22809944e-02f, 
    9.78459716e-02f, 1.32101730e-01f, 1.17339894e-01f, -2.11700751e-03f, -8.76938775e-02f, 
    -5.59652485e-02f, -4.23255824e-02f, 8.17737728e-02f, -3.38440901e-03f, 7.60049298e-02f, 
    -1.09289058e-01f, 3.53918262e-02f, -1.28189502e-02f, -8.88211653e-02f, 8.30371156e-02f, 
    4.48301136e-02f, 2.03507897e-02f, 8.67578983e-02f, 4.32210490e-02f, -9.63769108e-02f, 
    2.18081451e-03f, 1.36487931e-01f, 2.26398520e-02f, -6.56289756e-02f, -8.26315954e-02f, 
    -7.18073100e-02f, -2.82739736e-02f, 2.21568346e-02f, 3.46215814e-02f, 3.71712558e-02f, 
    -4.27114591e-02f, -3.48279774e-02f, -8.85599013e-03f, 1.38225228e-01f, 7.87703544e-02f, 
    2.86229774e-02f, -2.13308865e-03f, 2.39642933e-02f, -1.76898763e-03f, 9.33589041e-03f, 
    -8.17750916e-02f, 5.96626066e-02f, 6.36841031e-03f, -4.75434437e-02f, -6.82136714e-02f, 
    -8.17349553e-02f, -8.07668343e-02f, 7.01876730e-02f, 2.37535220e-02f, -2.56139524e-02f, 
    -6.85648024e-02f, -1.05159134e-01f, -7.78493052e-03f, 9.96588543e-02f, 3.85621265e-02f, 
    -3.45063210e-02f, -3.29473428e-02f, -8.82145688e-02f, -7.60256127e-02f, 2.48897877e-02f, 
    -4.79467772e-03f, 9.95645579e-03f, -6.80070594e-02f, -4.13106047e-02f, -6.87119663e-02f, 
    -3.82419527e-02f, -7.01113716e-02f, 1.26706800e-04f, -4.85211462e-02f, -9.84497741e-02f, 
    2.60919686e-02f, 2.07308698e-02f, -4.21352908e-02f, -1.14137053e-01f, 4.74155359e-02f, 
    -1.10425718e-01f, -3.26073952e-02f, 1.00147776e-01f, 4.01175804e-02f, 9.29212756e-03f, 
    1.29335420e-03f, -3.94908190e-02f, -9.69143119e-03f, -5.05398214e-02f, -3.66247743e-02f, 
    5.54367751e-02f, -9.99152884e-02f, -5.46191558e-02f, 9.69066843e-02f, 6.90559223e-02f, 
    -8.39103386e-03f, 2.96445750e-03f, -7.63486326e-02f, 6.75496012e-02f, -6.46368489e-02f, 
    1.89291984e-02f, -1.85279809e-02f, -7.76492953e-02f, -6.68244511e-02f, 5.78817278e-02f, 
    7.91462660e-02f, -2.79768072e-02f, 6.90294877e-02f, -3.29433233e-02f, 7.10296184e-02f, 
    -3.82184759e-02f, 8.40543211e-02f, -6.57808110e-02f, -8.86074603e-02f, -1.87914874e-02f, 
    -2.07387637e-02f, 2.93864869e-02f, 2.03937553e-02f, 8.11034806e-06f, 1.88365150e-02f, 
    -7.61205852e-02f, 5.83353732e-03f, -7.56002665e-02f, 4.43109917e-03f, 1.30768260e-02f, 
    9.03799161e-02f, -9.58352629e-03f, -2.21086275e-02f, -3.36511014e-03f, -3.98786478e-02f, 
    -1.56502821e-03f, 7.64920339e-02f, 8.65348354e-02f, -2.39689816e-02f, 9.36477445e-03f, 
    -2.74945665e-02f, 2.32335366e-02f, 9.10280049e-02f, 1.97963398e-02f, -1.23880923e-01f, 
    -3.93933617e-02f, 1.79589707e-02f, -6.18646853e-02f, 3.38628367e-02f, 1.04256803e-02f, 
    -2.16870606e-02f, 1.51390154e-02f, -2.32599992e-02f, -5.55955321e-02f, -1.33545488e-01f, 
    1.30415708e-01f, -4.45004106e-02f, 7.03762565e-03f, -1.72385667e-02f, -1.67279989e-02f, 
    -4.12698314e-02f, -1.52669162e-01f, -2.03188602e-02f, 5.63151650e-02f, 6.99184611e-02f, 
    1.26773790e-01f, -5.91703579e-02f, -7.31808916e-02f, -1.16451845e-01f, -1.17006369e-01f, 
    1.07070364e-01f, -3.15215066e-02f, 7.41337016e-02f, 2.35068854e-02f, -5.32004200e-02f, 
    -4.72070947e-02f, -1.17726676e-01f, -1.53978239e-03f, 1.46742882e-02f, 9.29474756e-02f, 
    -1.48470867e-02f, -2.68035363e-02f, 2.59915628e-02f, -7.09972680e-02f, -5.81045300e-02f, 
    -9.64444224e-03f, -3.93197052e-02f, 6.59143925e-02f, 9.27248690e-03f, 6.28589839e-02f, 
    -1.13079918e-03f, -1.44573346e-01f, -1.89003143e-02f, 4.91147749e-02f, 5.36689386e-02f, 
    -1.86627191e-02f, -1.26152307e-01f, -2.13617366e-03f, 6.23319037e-02f, 1.11431174e-01f, 
    2.88524795e-02f, 2.76728184e-03f, 1.28135104e-02f, 8.06743875e-02f, 2.41518393e-02f, 
    9.84054729e-02f, 2.29897425e-02f, 2.24953927e-02f, 4.56705131e-02f, 8.92268121e-02f, 
    9.05823186e-02f, -1.93038713e-02f, 1.90824736e-02f, -1.01625570e-04f, 3.22008319e-02f, 
    1.59423426e-02f, -8.52872506e-02f, -4.02186215e-02f, -1.62571687e-02f, 6.98108599e-02f, 
    1.97414830e-02f, 3.75052579e-02f, 4.87779453e-02f, -1.07351802e-01f, 1.01066660e-02f, 
    -1.35470834e-02f, 1.13699719e-01f, 9.74788591e-02f, -1.83879640e-02f, 8.85924995e-02f, 
    1.68276893e-03f, 3.64149958e-02f, -1.13531396e-01f, -5.88128045e-02f, 1.05772965e-01f, 
    -1.06489576e-01f, -1.10360824e-01f, 2.84996610e-02f, -9.21021625e-02f, 1.75168756e-02f, 
