// Auto-generated weights header
#pragma once
#include <cstddef>

static const float NORMALIZATION_MEAN[] = {
    -7.76994991f,
};

static const float NORMALIZATION_VARIANCE[] = {
    27.3754883f,
};

static const float NORMALIZATION_EPSILON = 1e-7f;

// CONV2D kernel shape (3, 3, 1, 12)
static const float CONV2D_KERNEL[] = {
    -0.00936106872f, 0.0295452084f, 0.256310791f, 0.185948044f, 0.196995869f, 0.175826132f, -0.195464104f, 0.0480530672f,
    0.0086225681f, -0.0196875911f, 0.15850991f, 0.148651242f, 0.0375955142f, 0.183318809f, 0.0736919269f, -0.0053533311f,
    0.0367725044f, -0.154724836f, 0.22250025f, -0.18436791f, -0.0924323872f, 0.0956315547f, 0.00867254287f, -0.16397503f,
    0.108946346f, -0.141954124f, -0.0137126911f, 0.17670083f, -0.0635356978f, 0.135190532f, -0.0387586169f, -0.146078721f,
    0.0150273303f, 0.125027776f, -0.0985435471f, 0.222628757f, 0.143017679f, 0.043245025f, 0.168232635f, -0.011859634f,
    -0.0640860349f, -0.102997378f, -0.0286446009f, 0.204779744f, -0.148207873f, 0.0744012594f, 0.152134717f, 0.18029657f,
    -0.140837073f, 0.172003791f, -0.110238895f, -0.109734073f, -0.187554747f, -0.0786925554f, 0.0203253385f, 0.216465428f,
    0.0775321424f, -0.0463173874f, 0.0782240331f, -0.18638511f, -0.0909105241f, -0.156431019f, -0.071262233f, -0.0870716199f,
    0.0338687226f, -0.233729422f, 0.149716541f, 0.068234235f, -0.147127777f, 0.0411593132f, -0.1834075f, -0.0447163321f,
    -0.0250770301f, 0.120402977f, 0.128646791f, -0.218474075f, -0.0803897083f, -0.148680121f, 0.0598901324f, -0.118916959f,
    0.155377135f, 0.0470447317f, 0.163083375f, -0.162540436f, -0.101704173f, -0.182770178f, 0.0295120906f, 0.0121385222f,
    -0.128942743f, -0.0219362881f, 0.114367194f, -0.126803443f, 0.0587393753f, -0.0133838151f, -2.73389232e-05f, -0.17405358f,
    -0.0202673115f, 0.0171862654f, -0.0175430086f, 0.171545461f, -0.0363850929f, 0.114108913f, -0.00611681165f, 0.159702554f,
    0.26170668f, -0.107184321f, 0.0601316318f, 0.0327861384f,
};

static const float CONV2D_BIASES[] = {
    0.0353043005f, -0.0292858575f, -0.121161185f, 0.0675572455f, 0.0120697143f, 0.0143879605f, -0.0309891813f, -0.00854443014f,
    -0.0833654851f, -0.0566879995f, -0.0546571948f, 0.0282473061f,
};

static const int CONV2D_KERNEL_K = 3;
static const int CONV2D_KERNEL_W = 3;
static const int CONV2D_IN_CH = 1;
static const int CONV2D_OUT_CH = 12;

static const float BATCH_NORMALIZATION_GAMMA[] = {
    0.999106348f, 1.04664648f, 1.0087359f, 0.947588205f, 0.976315916f, 0.972812295f, 1.02622139f, 0.99135071f,
    1.03370941f, 0.977277458f, 0.994827688f, 0.948778689f,
};

static const float BATCH_NORMALIZATION_BETA[] = {
    0.0780691728f, 0.0476474278f, -0.0906557962f, 0.00861786027f, -0.0413659662f, -0.0619684495f, -0.0719510466f, 0.0900030732f,
    0.0292596128f, -0.0936596617f, 0.0098743476f, 0.118529901f,
};

static const float BATCH_NORMALIZATION_MOVING_MEAN[] = {
    0.0678308532f, 0.0320980139f, 0.13541694f, 0.101714522f, 0.139452979f, 0.151403368f, 0.120006375f, 0.0553322248f,
    0.0498716012f, 0.0617762171f, 0.124055833f, 0.0954652354f,
};

static const float BATCH_NORMALIZATION_MOVING_VARIANCE[] = {
    0.00599839725f, 0.00268846448f, 0.0346198156f, 0.0119129773f, 0.0292958021f, 0.034465801f, 0.0227754675f, 0.00587975234f,
    0.00641192356f, 0.00685359864f, 0.0252778493f, 0.0138203343f,
};

static const float BATCH_NORMALIZATION_EPSILON = 0.001f;

// CONV2D_1 kernel shape (3, 3, 12, 24)
static const float CONV2D_1_KERNEL[] = {
    0.013339527f, -0.0407886952f, 0.0307714418f, 0.0809290633f, 0.138610229f, -0.0669919029f, 0.00258592749f, 0.0247214288f,
    -0.182044595f, -0.0530865379f, -0.0580230877f, 0.131299049f, -0.0899669528f, 0.0276078712f, -0.0436635017f, -0.0381995514f,
    0.0547681227f, 0.0406856947f, 0.0529390015f, 0.0549054816f, 0.124727495f, -0.128004044f, -0.0987642333f, -0.133270711f,
    0.0405758992f, -0.104257792f, -0.0690849125f, 0.146914929f, -0.110799119f, -0.0380775407f, -0.0806098804f, 0.0587669909f,
    -0.109869741f, -0.07367336f, -0.0451773033f, -0.0826957449f, 0.114739768f, -0.110331893f, 0.0597002916f, -0.168022409f,
    -0.0415666178f, 0.0409072563f, 0.0298895203f, 0.0327785537f, 0.0850622505f, -0.130047724f, -0.136709049f, -0.217092112f,
    0.0325410292f, 0.0949344039f, -0.0297825336f, -0.0856281593f, -0.137289241f, 0.0616664439f, 0.0518049151f, -0.0786738992f,
    -0.06504976f, 0.157035902f, -0.0249935202f, -0.0560302325f, 0.143408358f, -0.0309681408f, -0.0721792802f, -0.103699863f,
    -0.0451393872f, -0.00544273946f, -0.0224439949f, 0.0637885854f, 0.0641717911f, -0.101710178f, -0.128714308f, -0.1302865f,
    0.128081158f, -0.0765797868f, -0.118501812f, -0.0105106216f, 0.0703261197f, 0.0218292009f, 0.0413322486f, -0.0967030674f,
    -0.112652287f, -0.00800642185f, 0.0353540629f, 0.0771313533f, 0.0562083051f, 0.0684770718f, -0.0911139026f, 0.0290581975f,
    -0.135004878f, -0.0937421396f, 0.104356758f, 0.00966690574f, -0.0537769794f, 0.0168922022f, -0.0613004006f, 0.0401454866f,
    -0.0637547895f, -0.0497657284f, -0.00907780137f, 0.0670158267f, -0.118045568f, 0.11446771f, -0.122621469f, -0.0501849279f,
    -0.0092663914f, 0.0963031575f, -0.109213486f, 0.0984244868f, 0.0800234005f, 0.0149172759f, -0.0925337076f, 0.110765107f,
    0.124970667f, -0.0801875666f, -0.0727120489f, -0.0105888629f, 0.136861429f, -0.0674337745f, -0.0120450621f, 0.0723278001f,
    -0.0684491545f, -0.0466835797f, 0.0884699002f, 0.0309655964f, 0.0279267523f, -0.0576859415f, 0.0590377524f, -0.0343580022f,
    -0.0172832459f, 0.0090915896f, -0.0366970226f, 0.00985957682f, -0.0791443661f, 0.105558433f, -0.204807386f, -0.0877564996f,
    0.0118462555f, -0.0159338862f, -0.0233394448f, 0.109162323f, 0.0859548151f, -0.0830898061f, 0.0993060544f, -0.056092605f,
    0.0469323061f, 0.0675008446f, -0.0261552073f, 0.116777807f, 0.0787440166f, 0.0192000419f, -0.115126036f, -0.00173932209f,
    -0.122163147f, -0.0439697094f, -0.0217593368f, 0.0988601446f, -0.0147348708f, 0.123478428f, 0.113617152f, 0.103737034f,
    0.0806479752f, -0.0922452733f, 0.0982187241f, -0.115846321f, -0.121530272f, 0.0646574348f, -0.0425489433f, 0.148130715f,
    -0.00100274535f, -0.0537648685f, 0.0238831025f, -0.158721671f, -0.173988596f, 0.00934892148f, 0.0430813432f, -0.0968704745f,
    -0.119563624f, -0.00111563795f, -0.080050528f, 0.033162903f, -0.014329358f, 0.0721104592f, -0.0364760086f, -0.145659208f,
    -0.0182875972f, -0.111668289f, 0.0367953256f, -0.0454632081f, -0.03876004f, 0.0847268328f, -0.14892596f, 0.0458387136f,
    0.00683450326f, 0.0068987906f, 0.0764155313f, -0.059548188f, -0.0793831646f, -0.115438014f, 0.0497166142f, -0.0035320879f,
    -0.0676549375f, 0.0101226326f, 0.0432971269f, -0.0213098023f, 0.117510676f, -0.0447870083f, 0.124708243f, 0.0701954365f,
    0.0788102895f, -0.100803718f, -0.110496059f, -0.086742267f, 0.074590683f, -0.0185584519f, 0.0209323354f, 0.187020734f,
    0.118996009f, 0.0437400602f, 0.0798691735f, -0.0665690377f, 0.0506014787f, -0.0206482336f, -0.181884408f, 0.00728249038f,
    0.122826084f, -0.013766787f, -0.0337568708f, -0.00701100193f, -0.097144939f, 0.0708514079f, 0.025626665f, -0.0146022243f,
    -0.0543154702f, -0.0710039511f, -0.00564892404f, 0.0417558774f, -0.0549222156f, 0.0213397127f, -0.0598728694f, 0.0644931346f,
    -0.00537983468f, -0.0635074899f, -0.034563031f, 0.0641158074f, 0.0760785714f, 0.0671164393f, -0.12486624f, 0.11914508f,
    -0.059037447f, -0.033700332f, -0.0931047872f, -0.107803933f, 0.0271762889f, 0.0934496298f, 0.0346879214f, -0.122184642f,
    0.16594778f, -0.0791926757f, -0.127410784f, 0.0158386845f, -0.0904435292f, -0.115468919f, -0.0537476949f, 0.0259728096f,
    0.0772437677f, 0.0972499847f, -0.0436151288f, -0.0658687502f, -0.0825221911f, 0.0494340584f, -0.123311289f, 0.0245612115f,
    -0.0982372984f, -0.0570873618f, 0.0334669128f, 0.0828814283f, 0.0776340365f, 0.0396841019f, 0.0994263515f, 0.044483915f,
    -0.0491690524f, 0.10944929f, 0.0348874331f, 0.0378482677f, -0.017349517f, -0.115918897f, -0.110030994f, 0.0861382186f,
    -0.0543873683f, 0.0473114103f, -0.122691609f, -0.0757902712f, 0.112296589f, -0.121927224f, 0.139170185f, -0.00152250193f,
    -0.0186468624f, -0.135013267f, 5.4532451e-05f, -0.0804091245f, -0.0707349628f, -0.120370522f, -0.0914937109f, 0.0108691556f,
    -0.0369264893f, 0.0585099384f, -0.0934626162f, 0.124490179f, 0.0192034822f, 0.0749188215f, -0.0815000534f, -0.0599146709f,
    0.159054413f, -0.0923401117f, -0.165616721f, 0.0765793398f, -0.00510130078f, 0.0837424397f, -0.0176217351f, 0.0771994591f,
    0.0428488553f, -0.104252517f, 0.184692055f, 0.0266833361f, -0.0104489122f, -0.078122288f, -0.0475726277f, -0.0950646326f,
    -0.146705538f, 0.0395444222f, 0.0379407555f, 0.091030702f, 0.0296302717f, -0.0575823374f, 0.0685215294f, -0.026190253f,
    -0.0119096488f, 0.0482586473f, -0.0205023382f, -0.0906756669f, -0.156071037f, 0.15359351f, 0.120105624f, 0.0965740234f,
    0.137885332f, -0.0450311787f, 0.0693592429f, 0.0874828175f, -0.0155686652f, -0.0111197056f, -0.0752116442f, 0.0186371747f,
    -0.0870268494f, 0.141964704f, 0.0396816544f, 0.0845521465f, -0.0938608944f, -0.0329551771f, -0.0292760227f, -0.150010124f,
    0.113617614f, 0.000253360107f, -0.080789499f, -0.0679417476f, -0.148228303f, -0.0319251269f, 0.0117511395f, -0.139145747f,
    -0.0156333968f, 0.0398954302f, -0.0402385667f, -0.0386244804f, 0.00204635924f, -0.129861429f, -0.0407672077f, -0.0651839599f,
    0.00110366102f, -0.0258083902f, -0.0160638504f, 0.0582587197f, -0.0952722803f, 0.0698752925f, 0.0458272509f, -0.121336162f,
    0.0240908768f, 0.124578893f, -0.0244278572f, -0.00402237475f, -0.0951823369f, 0.00889872666f, -0.0259916484f, 0.0722526014f,
    -0.0855741352f, -0.0396230705f, -0.0689486712f, -0.129129753f, 0.0991511196f, -0.065956302f, -0.093002975f, 0.0117771998f,
    -0.122492865f, 0.0846107826f, -0.126364604f, -0.0650153831f, 0.0505460054f, -0.0421896353f, 0.128791854f, -0.0215667337f,
    -0.111250758f, -0.118273042f, 0.048573412f, -0.0614383183f, 0.148902968f, 0.090028137f, -0.0659583285f, 0.092713885f,
    0.120026961f, 0.0306335911f, -0.0373162329f, -0.054109659f, 0.0467969067f, -0.110460199f, -0.160401732f, -0.0279006474f,
    -0.0383382663f, 0.117856354f, -0.136918008f, -0.0183842573f, -0.0750952289f, 0.00539741758f, 0.0335591808f, 0.0219524913f,
    -0.120233707f, 0.116130121f, 0.00465556653f, -0.0172377545f, 0.151795194f, 0.164484903f, -0.0827351287f, 0.0386966988f,
    -0.00797967333f, -0.0553812161f, 0.0268903915f, -0.159983546f, -0.109957449f, 0.0943687186f, -0.036588084f, 0.0727523714f,
    0.113376625f, 0.118206158f, 0.0933996439f, 0.0824384466f, -0.0415958613f, 0.00196049619f, 0.0488819368f, 0.137831375f,
    0.0607229285f, 0.0777915418f, 0.0152165452f, 0.0333970338f, -0.0393934213f, -0.0378469005f, 0.0816153958f, -0.0482014157f,
    -0.00447211927f, 0.00317801093f, -0.111096606f, 0.0419865996f, -0.0114643797f, -0.0174573362f, -0.0809789822f, 0.000928798108f,
    0.00332498178f, 0.10341005f, -0.110463232f, 0.082568258f, 0.00222604861f, -0.021014994f, -0.0609025396f, -0.0532627776f,
    0.0767830834f, -0.0332455561f, 0.0196574256f, 0.0787719935f, -0.169415355f, -0.149731457f, 0.0732172281f, -0.0243386291f,
    -0.049078159f, 0.0252768062f, 0.0518026873f, -0.0046497779f, 0.00181212532f, 0.123864666f, 0.0518683419f, -0.132394314f,
    0.0803937316f, 0.0934787244f, -0.178161263f, 0.0363739915f, 0.160357803f, -0.01172115f, -0.0137420548f, 0.0655669272f,
    0.0114798285f, -0.00291890861f, -0.19082959f, 0.101088293f, 0.147381976f, 0.114482142f, 0.0981803983f, -0.0545889102f,
    0.13777715f, 0.0670822635f, -0.0306407455f, 0.0427414775f, -0.0246680342f, -0.0756609067f, -0.0659251884f, 0.0909986198f,
    -0.0911540017f, 0.03975375f, 0.0372162461f, 0.0310536791f, 0.056568034f, -0.0282200817f, 0.0326454602f, 0.0494038649f,
    -0.0729409456f, -0.0337274931f, -0.0278090332f, -0.0197901968f, 0.071654737f, 0.120390795f, 0.0386056453f, 0.0147873955f,
    -0.0116090681f, 0.118654899f, -0.0954125598f, -0.00785252172f, -0.0657338649f, 0.0605515577f, 0.112892061f, 0.0781956837f,
    0.00460226787f, 0.0615087375f, -0.0197755191f, -0.0039052018f, 0.169628456f, -0.0828799978f, -0.0319487602f, 0.0651824549f,
    -0.00911646616f, 0.112268217f, -0.104428679f, 0.0800854638f, -0.106951579f, -0.0679616928f, 0.131986141f, 0.0792751312f,
    -0.0402428657f, 0.0804130584f, -0.00793617871f, 0.0269675907f, 0.11706464f, 0.0822246522f, -0.0788235962f, 0.104333654f,
    0.102378875f, 0.111481316f, 0.0911896229f, 0.135078818f, 0.108710185f, 0.0413428023f, -0.130881757f, 0.0860797912f,
    0.0824004412f, -0.0503074564f, 0.13248831f, 0.0618303753f, 0.0137492362f, 0.0225364063f, 0.0441752411f, 0.0546471141f,
    -0.0158662274f, -0.0649497807f, -0.0628354177f, -0.0725361258f, 0.0865458325f, 0.030690914f, -0.113610663f, -0.0540644713f,
    -0.0954787061f, 0.0316693187f, -0.0311629307f, 0.0487778373f, -0.120932013f, 0.0556760728f, 0.0316624157f, -0.0764022768f,
    0.0296893325f, -0.00239716633f, -0.127448857f, 0.0531897806f, 0.0229068883f, 0.0298229326f, -0.0123137599f, -0.0478755049f,
    0.0752911717f, 0.00794813409f, -0.0753075704f, -0.0936462954f, 0.00316470047f, 0.0308454577f, 0.0138169853f, 0.048106771f,
    -0.105570592f, 0.123870783f, 0.0155680068f, -0.0370893106f, -0.107623518f, -0.0971102491f, 0.0650399327f, -0.0894333944f,
    0.170687631f, 0.077997461f, -0.0124014402f, 0.102499872f, 0.106337197f, 0.112845935f, 0.0530727282f, -0.00694324076f,
    0.131044924f, -0.125311151f, 0.132265732f, -0.0775794163f, -0.0144066298f, 0.147563487f, -0.160654813f, 0.0388969705f,
    0.0348049589f, 0.0103249243f, -0.104306728f, 0.0130840186f, 0.107112437f, 0.0229239669f, -0.0425430201f, -0.0614467748f,
    0.116967052f, -0.120501935f, -0.0519313067f, -0.0470926538f, 0.0702945143f, -0.0857990161f, -0.0153345503f, 0.0592542291f,
    0.0380942374f, -0.0263731517f, 0.0137020173f, 0.0317353457f, -0.0336084589f, -0.0884286985f, -0.13357237f, 0.0805787891f,
    0.0939758345f, -0.133803859f, -0.0779396445f, -0.0923573524f, -0.0173397753f, -0.134158149f, 0.0525390655f, -0.0397805534f,
    -0.115104437f, 0.0213637613f, 0.0885670856f, -0.0774040297f, -0.0956514329f, -0.0615201704f, 0.0327827595f, 0.023376083f,
    -0.0652314574f, 0.0849051997f, 0.0094433492f, 0.0112036457f, -0.0876463801f, 0.0032711369f, -0.0277153254f, 0.0848285109f,
    0.112956733f, -0.0946493298f, 0.103265353f, 0.0979833901f, -0.0214070063f, -0.139338806f, -0.08162871f, 0.119963229f,
    -0.157250941f, -0.0326345004f, 0.0709623322f, -0.164576143f, 0.0354822278f, -0.0341749899f, -0.091675438f, -0.0721006617f,
    -0.0920143872f, -0.0424978659f, 0.10874252f, 0.0346304253f, -0.0890668854f, 0.0154061588f, -0.133087158f, -0.0829042643f,
    0.122119091f, 0.0655321628f, 0.0236805696f, -0.115266345f, 0.110018425f, -0.0986033976f, 0.0852149948f, -0.0907270089f,
    -0.0402880758f, -0.0144568784f, 0.0144618712f, 0.0720343664f, -0.0827897489f, -0.0869252384f, -0.123929508f, 0.108465061f,
    0.101822972f, -0.0704196021f, 0.0673686787f, 0.079899855f, 0.119637571f, 0.0692179576f, -0.14213343f, -0.0329065695f,
    0.082863681f, -0.0834166333f, -0.0961632058f, -0.0427168757f, -0.0741957948f, -0.0178223029f, 0.164016202f, 0.154176012f,
    -0.0398011208f, -0.0170331579f, 0.0482906997f, -0.0802660659f, 0.115631007f, -0.0791210681f, 0.0164218973f, 0.101048023f,
    0.120931774f, 0.0450824909f, -0.0640300289f, 0.126201108f, -0.0868868902f, -0.00851657055f, -0.102030925f, 0.0546838008f,
    0.122156404f, -0.142843172f, -0.125593886f, -0.00133374822f, -0.00205116929f, -0.0609021746f, 0.00441336958f, -0.0749053806f,
    -0.0995737165f, 0.00248848461f, 0.0615011528f, -1.34498941e-05f, 0.172616735f, 0.0526484847f, -0.0154777905f, 0.0957894549f,
    0.0405603796f, 0.0739849955f, -0.0669035316f, -0.121686138f, 0.150785238f, -0.0700585768f, -0.0169472788f, 0.100828178f,
    0.0792580992f, -0.0758629814f, -0.17242898f, -0.0284548886f, 0.181345984f, -0.0647764131f, 0.0281107593f, 0.135527655f,
    -0.0705023259f, 0.0200758353f, -0.0406077616f, 0.0899367407f, -0.0296265986f, 0.0763117f, -0.0790366903f, -0.0683968738f,
    0.0857183114f, 0.0125565678f, -0.0248512179f, -0.0802270845f, 0.0654946491f, 0.0733926296f, -0.0525842197f, -0.100626931f,
    -0.0513427109f, -0.122258641f, 0.0319156721f, -0.00918097328f, -0.0368824601f, -0.127460182f, 0.0737612545f, 0.054645367f,
    0.121292695f, -0.0679685399f, -0.0133115919f, -0.0855725408f, 0.0821586326f, -0.0687919483f, -0.129252404f, 0.0586372614f,
    -0.00491211051f, 0.00717098033f, 0.0789798945f, 0.078863956f, -0.0922507942f, -0.0907258242f, -0.0234785005f, 0.082353808f,
    -0.0172792673f, 0.127847135f, -0.139892802f, 0.116491839f, -0.0478706285f, 0.0168582313f, 0.0209392589f, 0.0293787252f,
    -0.0499860235f, -0.112166032f, -0.0512735248f, 0.0424267314f, -0.0943362936f, 0.115834631f, 0.0109552415f, -0.0774879754f,
    0.110895552f, 0.0460384786f, 0.00690140249f, -0.0648972318f, -0.00287255761f, 0.060674604f, -0.112098984f, -0.068082653f,
    0.0803054422f, 0.0323583707f, -0.151651859f, 0.0414139107f, 0.12178839f, 0.0671744794f, -0.0596182905f, 0.00798748154f,
    -0.153542131f, 0.0445446633f, -0.134295985f, 0.0875017643f, 0.0180991925f, -0.0583861992f, 0.14953886f, 0.10600663f,
    -0.0644189268f, 0.0500091463f, -0.0316916816f, 0.0703278258f, 0.0659260899f, -0.0559096001f, 0.0331776403f, 0.0413080007f,
    -0.0212509558f, -0.00535429781f, 0.129964963f, 0.0670505613f, 0.0539899282f, -0.0174196288f, -0.0205953903f, 0.0138598504f,
    0.00733534899f, -0.0429550149f, -0.0359050557f, -0.0944318473f, -0.00949884392f, -0.0204087179f, 0.0863492936f, 0.057537958f,
    -0.152868629f, 0.0341869146f, 0.0809258893f, -0.00331503013f, -0.00742514944f, -0.102033488f, -0.0445597656f, -0.108699642f,
    0.0141318506f, 0.0236707758f, -0.0666915253f, 0.0373908691f, 0.0536549985f, 0.0481229797f, -0.0926852152f, 0.148520157f,
    -0.0529600531f, 0.019994501f, 0.0989863575f, -0.0266802236f, -0.000533776009f, 0.0165418759f, -0.113650486f, -0.00772056868f,
    -0.0243791696f, -0.0714274868f, -0.199852392f, -0.118338861f, -0.0069434084f, -0.0672831386f, 0.127643779f, -0.116906226f,
    0.0326063074f, -0.135387883f, 0.0485137068f, -0.0193771422f, -0.0140625713f, -0.0424378477f, 0.0313553847f, -0.0526637286f,
    0.0636804849f, 0.0910902172f, 0.0602950938f, -0.107193358f, -0.0541114546f, -0.00988681614f, -0.0611537732f, 0.0506860837f,
    -0.000453947752f, 0.017447684f, -0.0799728855f, 0.0087522734f, 0.112524822f, 0.102394506f, 0.0993672535f, 0.00581820542f,
    -0.0352947004f, -0.0133616831f, -0.0645081028f, -0.0740938708f, -0.018602984f, 0.0834328234f, -0.144597977f, -0.00834507123f,
    -0.0059463582f, -0.0394578837f, -0.117320873f, 0.0928516537f, 0.0420350879f, -0.0642390549f, 0.00582250534f, -0.0838068575f,
    -0.123647302f, 0.16975072f, -0.113300659f, 0.0985525027f, -0.00734123169f, 0.0158981252f, -0.0552568547f, 0.0303294864f,
    -0.064746961f, 0.0705390349f, -0.0942099467f, 0.103050001f, 0.127840996f, -0.0690771267f, 0.00168133713f, -0.094868511f,
    -0.121810764f, -0.0961075649f, 0.0715879127f, 0.00925003737f, 0.082061246f, 0.0921909586f, -0.0231340881f, -0.0879251361f,
    -0.0621145368f, -0.0137058785f, 0.118219353f, -0.0265104417f, 0.0287927873f, -0.0705069005f, 0.0380658805f, 0.0830482468f,
    0.0243087206f, 0.0882522091f, -0.125503004f, 0.00994095113f, -0.115744978f, -0.0167915318f, -0.00362831424f, 0.0285637695f,
    -0.112752788f, 0.0360986367f, 0.0877636895f, 0.0255544353f, 0.0441101603f, -0.0974336937f, -0.044713214f, -0.0517004356f,
    -0.089862369f, -0.0321070552f, -0.00413992442f, -0.0670052841f, -0.0741511136f, 0.114501141f, -0.04953916f, 0.0603317879f,
    0.0373909213f, -0.0488187261f, 0.0599019937f, -0.0942454115f, -0.0442091599f, 0.124475919f, -0.0152472416f, 0.0282304324f,
    0.0248483103f, 0.00692928443f, 0.0485673435f, -0.0560953245f, 0.0724048465f, -0.0940975919f, 0.00954582356f, 0.0539157391f,
    -0.0263802465f, 0.0974962339f, 0.000943539373f, 0.0382162631f, 0.0142784566f, 0.0717298985f, -0.00552657992f, -0.0148956422f,
    0.0345275737f, 0.13976039f, 0.0899161473f, -0.0828942955f, 0.0580355674f, -0.0291617699f, 5.84718509e-05f, 0.0275360327f,
    -0.0985313877f, -0.0597668588f, 0.0279567149f, -0.0400933661f, 0.0315135643f, 0.049998749f, -0.0692404956f, -0.0253901426f,
    0.0106469272f, 0.177553222f, 0.0758686289f, -0.094121322f, -0.0763813257f, 0.00732342526f, 0.0385546423f, -0.0436032861f,
    0.0760405287f, -0.0557452925f, 0.0813105255f, 0.0373964608f, -0.0725803673f, -0.0700517744f, 0.145475179f, -0.0384514444f,
    0.0443968251f, -0.0923667923f, -0.0331232175f, -0.141985059f, 0.0161870569f, 0.114700466f, -0.0124181751f, -0.0909149647f,
    0.0883379504f, 0.065895766f, 0.0550307818f, 0.0122406678f, -0.0107266428f, 0.0918774977f, -0.0410622284f, 0.0806427747f,
    -0.0482136607f, -0.0417222865f, -0.0407612175f, -0.0942770466f, 0.028316509f, -0.126723304f, 0.132658362f, 0.0729530081f,
    -0.048415225f, -0.0172492359f, -0.0409446917f, 0.0291858409f, 0.0501870736f, -0.0794096366f, -0.0484260097f, 0.112517737f,
    -0.0421498157f, 0.0719933137f, 0.0686725304f, -0.116242044f, 0.0393045433f, -0.0184074994f, -0.0780199394f, -0.121153541f,
    -0.0491543561f, 0.0225336459f, -0.0971582457f, 0.133852616f, -0.0181398503f, -0.00252571027f, -0.0779933557f, -0.00934398454f,
    -0.148835197f, 0.0331964046f, -0.0012101169f, -0.0628751665f, 0.119230412f, -0.0438437089f, 0.0171749573f, -0.0624346845f,
    0.0375418812f, -0.0830083415f, 0.0670453086f, 0.143297702f, 0.0561917461f, -0.0590664037f, 0.0891987085f, -0.171133757f,
    0.0425843447f, -0.0478621386f, 0.12972489f, -0.0134753119f, 0.0624279678f, 0.0996062309f, 0.00903740246f, 0.00170219515f,
    0.0453508161f, -0.084818244f, -0.0471255146f, 0.0759709924f, 0.127340972f, 0.026325956f, -0.120519049f, -0.128287986f,
    -0.0918617845f, -0.0988197774f, -0.0615461692f, 0.0734590143f, -0.0395176746f, -0.0643179268f, 0.0233325623f, -0.00702162972f,
    -0.110251337f, -0.0417831279f, 0.0867236331f, 0.0707086623f, 0.0848283917f, -0.0999901965f, -0.139276996f, 0.068765074f,
    -0.0667852163f, -0.0784242153f, -0.0116479378f, -0.0744083524f, 0.140545964f, -0.0316030942f, 0.0235419124f, -0.0710762665f,
    -0.0520104915f, 0.000377844059f, -0.0723579824f, -0.164752945f, 0.00201003556f, 0.13319023f, -0.0500929691f, -0.175563976f,
    0.0451660641f, 0.0557550229f, -0.00688522123f, 0.0117416037f, 0.0745807886f, -0.119396716f, 0.0641815439f, -0.0725424662f,
    -0.104657546f, -0.0166432001f, 0.0861322805f, -0.00636989065f, 0.0314197913f, 0.0938502997f, 0.00136547047f, -0.155845031f,
    -0.0600252561f, 0.0683312565f, 0.0733293071f, 0.150204375f, 0.117800698f, -0.0784512609f, 0.0954633653f, -0.0411868691f,
    -0.0295969751f, 0.116527021f, -0.0218752958f, 0.106667668f, 0.068789117f, 0.0790995136f, 0.121313155f, -0.0586883985f,
    -0.0856802836f, -0.0988601893f, -0.00689481664f, -0.0344283879f, -0.0782292783f, -0.118146233f, 0.0230131801f, -0.0964064375f,
    0.114116795f, 0.112188861f, 0.0458383113f, 0.0547453016f, 0.0811307654f, -0.0775700361f, 0.0805992782f, 0.0804134831f,
    0.00280511728f, -0.142522216f, -0.0519065633f, 0.0862540603f, 0.123572834f, 0.117280237f, -0.0311830863f, -0.0210695341f,
    0.0251441076f, -0.0864525437f, 0.115102418f, -0.0118689463f, -0.0558334365f, 0.047105018f, -0.0814822689f, -0.013462727f,
    0.0845054984f, 0.0291763693f, -0.0112177124f, 0.0350430086f, -0.0238216817f, 0.0550641827f, -0.032457009f, 0.0654270127f,
    -0.118332729f, -0.108574867f, -0.0643727109f, 0.129892409f, -0.0542753153f, -0.0856246501f, 0.11499916f, 0.00675429078f,
    0.0815766975f, 0.0867756754f, 0.10532099f, 0.059554182f, -0.0333995931f, -0.0611643344f, -0.0116254296f, 0.0962221324f,
    -0.102933094f, 0.105256639f, 0.00357140345f, -0.0786969215f, -0.0287983101f, 0.0316799767f, 0.0121798459f, -0.0543105379f,
    -0.0102059478f, -0.0108547946f, 0.0479292162f, 0.0238389242f, -0.124379322f, 0.123547152f, -0.0102482038f, 0.0477784276f,
    0.0623346977f, -0.0110806571f, 0.0313458443f, -0.0109754987f, 0.118346781f, 0.128438726f, -0.0415636599f, -0.146903157f,
    0.0973450541f, -0.124100253f, 0.0427564569f, -0.103714809f, -0.0573547408f, 0.108666189f, -0.0380270816f, 0.0697884038f,
    0.0626149997f, 0.0724579692f, 0.0448593833f, -0.0123848189f, 0.000551824633f, 0.067977339f, 0.0886001512f, 0.0481214449f,
    -0.0554304942f, -0.0130668161f, 0.0441678911f, -0.0795084015f, -0.146737799f, 0.0264980085f, 0.0463748313f, -0.125563323f,
    -0.042473942f, -0.00250347354f, -0.0117294407f, 0.0498332754f, -0.0175634399f, -0.122937307f, -0.0653207004f, 0.0863476247f,
    0.151808277f, 0.13757354f, -0.0497254096f, 0.0544736944f, -0.135032713f, -0.104594834f, -0.0854263529f, 0.00587047217f,
    0.06627924f, 0.0853726938f, 0.0806541145f, 0.114678197f, 0.0667226911f, -0.0409342684f, -0.0746628866f, 0.0807350278f,
    -0.0834912956f, 0.0306427851f, 0.108969018f, 0.0548565835f, -0.136454046f, 0.0700778067f, -0.0323821083f, -0.0103590088f,
    -0.127978727f, 0.0690973476f, 0.00419422239f, 0.0715975389f, 0.10227292f, -0.0583128631f, -0.0677586347f, 0.00912689511f,
    -0.0487537086f, -0.0320953056f, -0.093919456f, -0.107833877f, -0.0763049275f, -0.0600013323f, -0.0918993726f, -0.0592125431f,
    -0.0951728746f, 0.0568728335f, 0.135945305f, 0.0513803102f, 0.0522936992f, -0.130071297f, -0.1564468f, 0.0831528157f,
    0.0638345405f, 0.0762644187f, 0.105569392f, -0.0356497057f, -0.0448868722f, 0.0453888811f, 0.0150241284f, 0.0585888438f,
    -0.00391427055f, 0.0648420751f, 0.0699966624f, -0.0144648151f, -0.119681649f, 0.121306397f, 0.0181124583f, -0.154948577f,
    -0.00151902298f, 0.129634261f, -0.0140111046f, 0.132614091f, 0.0673686564f, -0.017428251f, -0.0195000973f, -0.0975502282f,
    -0.0481659286f, -0.104142584f, 0.00217657909f, 0.015381027f, -0.0674878061f, 0.0901916698f, -0.0309976395f, 0.0229416154f,
    0.04789529f, -0.026715951f, 0.0800953284f, -0.101251148f, 0.0116397897f, -0.0779389441f, 0.101580404f, 0.0310269445f,
    0.139222696f, -0.084004581f, 0.00857931469f, 0.0601774976f, 0.0604520403f, -0.124160714f, -0.0732660368f, 0.0347188525f,
    -0.0425947718f, -0.0358050466f, 0.0509739034f, -0.110276319f, 0.100763939f, 0.0147279967f, 0.0459238105f, 0.1209879f,
    -0.00422298163f, 0.142644063f, -0.0712699369f, -0.0743301809f, -0.0743088275f, -0.0233364236f, -0.107559472f, 0.000468625396f,
    0.0836828724f, 0.0110459784f, -0.0219946597f, 0.0254861806f, -0.0377308205f, 0.107080437f, -0.0168341547f, -0.119020991f,
    0.0848354697f, -0.00525057595f, 0.0579319112f, -0.0636188537f, 0.039590925f, -0.0304472409f, 0.0389022566f, 0.0612266697f,
    -0.118016228f, -0.0904445872f, -0.113730587f, 0.107873261f, 0.0375138f, -0.0519069359f, -0.0738078505f, -0.0820444673f,
    0.101321012f, -0.0571738221f, 0.0359544978f, -0.0941482186f, -0.0695988014f, -0.0477910303f, 0.0966250524f, 0.0640452504f,
    0.0486923158f, -0.0365693495f, 0.077725783f, -0.0870243534f, -0.0550541617f, -0.0473707095f, 0.0403873585f, 0.00260034367f,
    0.0843800381f, 0.0132949259f, 0.110373683f, -0.00324006146f, -0.00175724807f, 0.0412891433f, 0.0964586586f, -0.048803661f,
    -0.0490622707f, -0.0528813042f, 0.0690144002f, -0.0641240031f, -0.0710509345f, -0.0953706875f, -0.0314182825f, -0.0103398245f,
    0.0624045394f, 0.0521144383f, -0.00675525982f, 0.114750557f, 0.0798410475f, -0.0682817847f, -0.0813158154f, -0.0913256034f,
    0.104479678f, 0.15734151f, -0.0808067247f, -0.000644087966f, 0.0499927364f, -0.140759379f, -0.0227674898f, 0.126402751f,
    -0.0293284394f, 0.118090987f, 0.0682441294f, -0.00705465721f, 0.0384124368f, -0.124417856f, 0.0728188083f, 0.138771579f,
    0.0180436894f, 0.0074570477f, 0.0554264747f, -0.0920688957f, -0.00966397207f, -0.104373232f, 0.0592233688f, -0.105523527f,
    0.0626512691f, 0.122029863f, -0.073585771f, -0.140420392f, -0.0357011966f, -0.0335238799f, 0.0755169615f, 0.121268496f,
    0.0494347103f, -0.0505452529f, -0.037833102f, -0.035681542f, -0.163394704f, 0.000270223944f, 0.07906764f, 0.125771761f,
    0.12574631f, -0.115800798f, 0.061883267f, -0.029655952f, -0.0723946169f, 0.0506610759f, 0.0741379932f, -0.074871324f,
    0.0128075015f, 0.136661842f, 0.121487893f, 0.087299034f, -7.59450049e-05f, -0.00400188239f, -0.0621403754f, 0.100242637f,
    0.105975851f, -0.0650225803f, 0.0994196013f, 0.0251332261f, -0.129654065f, -0.0818412378f, -0.120900698f, -0.0902464539f,
    0.103213325f, 0.0890788734f, 0.131015435f, -0.0503146425f, 0.0578965209f, -0.0464315861f, 0.104166612f, -0.0552096292f,
    -0.119500078f, 0.101073049f, 0.137022153f, -0.0506930798f, 0.0228608325f, -0.12678507f, -0.0275821406f, 0.0144735007f,
    0.0303067118f, -0.0811741352f, 0.00141510484f, 0.0475959219f, 0.0773825943f, 0.000132077374f, -0.145289928f, 0.0770195872f,
    0.0651099384f, -0.0226822682f, 0.0371408835f, 0.0651484802f, 0.0206256025f, -0.0278957728f, -0.0102143958f, 0.10870973f,
    -0.0715221018f, 0.0621733926f, -0.036208529f, -0.07564044f, -0.117279798f, -0.0819422379f, -0.061946284f, 0.0279571917f,
    -0.172569737f, -0.148333922f, 0.0356748216f, 0.00777166989f, 0.0590242781f, 0.03294193f, -0.115657836f, -0.00703483354f,
    0.088040106f, -0.0534100719f, -0.0916668102f, 0.121482827f, -0.0830958262f, -0.124792151f, -0.0560458302f, 0.0525209792f,
    -0.121036313f, -0.013829859f, 0.150825635f, 0.0223537609f, -0.0962508768f, -0.138806134f, -0.0744584724f, -0.033025369f,
    -0.096633561f, -0.121083431f, -0.0891039521f, 0.0812470317f, -0.149541527f, 0.114055946f, -0.0209878162f, -0.0896811187f,
    -0.0235342048f, -0.135091156f, -0.104820065f, 0.101873636f, -0.0410284512f, -0.135009095f, -0.103813589f, 0.0230693948f,
    -0.102854639f, -0.058566805f, 0.129706636f, -0.0194378942f, 0.00663040997f, 0.0986243486f, 0.111722067f, -0.0484590717f,
    0.0252844058f, -0.0932685584f, -0.0624494813f, 0.0767100304f, 0.142730162f, 0.0183273256f, 0.0212480407f, 0.104159355f,
    -0.0522099435f, -0.0170201194f, -0.118452385f, 0.0942334309f, -0.0198531207f, 0.0114129763f, -0.0111088986f, 0.0507476553f,
    -0.11347466f, 0.0513304248f, 0.102468573f, 0.110230066f, 0.0159212314f, 0.116728984f, 0.0321593732f, -0.106128111f,
    -0.0250269715f, -0.119728215f, 0.130370602f, 0.0202134885f, -0.0724202543f, -0.0643352717f, -0.0887285993f, -0.0102830892f,
    0.00722923269f, 0.0333629027f, -0.08740291f, 0.0632997677f, -0.0618261509f, -0.0897149891f, 0.0831156373f, -0.0645823553f,
    -0.064364031f, -0.114081502f, 0.05471671f, 0.0204655081f, 0.0101915263f, -0.0027999673f, -0.139403895f, 0.0971645713f,
    -0.0533878654f, -0.141254991f, -0.133326471f, 0.00739832735f, -0.0580746494f, -0.0435911752f, 0.0267668646f, -0.0701121166f,
    0.0377125517f, -0.0490277857f, 0.0650959909f, -0.0751706064f, -0.136150748f, -0.0655007288f, -0.0592685118f, 0.0471640527f,
    0.111797765f, 0.040346466f, -0.0142228482f, -0.00223106612f, 0.00909837801f, 0.00391435018f, -0.0571300648f, -0.0525597222f,
    -0.107075736f, 0.000390807574f, -0.108140662f, -0.0545861162f, -0.0955821425f, -0.0138664944f, 0.00318961404f, -0.00316029345f,
    0.0762520581f, -0.0238848552f, 0.0563247763f, 0.0727998093f, 0.0143692205f, -0.105674602f, -0.136837751f, -0.0348212086f,
    0.0630614758f, -0.0279004015f, -0.00846685283f, -0.0636562631f, -0.0502266549f, 0.033029221f, -0.053874217f, 0.114255853f,
    0.0380573831f, 0.0395955332f, 0.196760848f, 0.0648460463f, -0.125518218f, -0.129412875f, 0.00212637731f, -0.0171035547f,
    0.0532353856f, -0.0196304638f, 0.0822209567f, -0.0917643234f, -0.0722030178f, 0.0183835551f, 0.158118203f, 0.0259960033f,
    0.0160634462f, 0.155654594f, -0.119848222f, -0.0403976776f, -0.0296885166f, -0.0611312725f, -0.0328251384f, 0.140663803f,
    0.0792921185f, 0.105405003f, -0.0153852329f, 0.106661789f, -0.0262142401f, -0.0634232014f, -0.0874658599f, 0.0168768354f,
    0.0996946692f, -0.140526533f, -0.0931738615f, -0.0734008104f, 0.138939738f, 0.138523892f, 0.0440656357f, 0.0208343323f,
    0.112200871f, -0.0130575569f, -0.0725749731f, 0.118584454f, -0.0340612717f, 0.0306553859f, 0.031880904f, -0.101713054f,
    -0.141658843f, 0.0790891126f, -0.105965085f, 0.0222038999f, 0.0939504579f, 0.135584503f, 0.0586202927f, 0.0562009551f,
    -0.0846978575f, -0.112191074f, -0.0066114557f, -0.119000636f, -0.0249028597f, 0.0777662545f, 0.00305550219f, -0.0742980763f,
    0.115074709f, -0.0858114511f, -0.0825269148f, -0.026985513f, -0.0497790501f, 0.0116623119f, 0.114624903f, -0.127359971f,
    -0.067898564f, 0.055681318f, -0.0484263748f, -0.0436485745f, -0.140786424f, 0.0639818013f, 0.143039107f, -0.0998896435f,
    -0.10065069f, -0.0506737791f, 0.0993223861f, 0.151785791f, -0.018266527f, -0.11700324f, -0.0113763353f, 0.0887482911f,
    0.0208890978f, -0.122927845f, 0.137667596f, -0.0704406425f, 0.0242823772f, 0.0979333222f, 0.095823437f, 0.117179386f,
    0.0875450522f, 0.0300323572f, -0.0312536471f, 0.0274736937f, -0.00967027619f, -0.00512322551f, 0.0282308031f, -0.0143900327f,
    0.0736367032f, -0.0814221054f, -0.0185157787f, -0.0343772583f, 0.00610342249f, 0.0147927469f, 0.00562860304f, 0.063122578f,
    -0.0262465812f, 0.181523651f, 0.0953951851f, -0.106173448f, 0.0663515553f, -0.0957444906f, -0.0778022632f, 0.0283059869f,
    -0.0412757844f, -0.0890920088f, 0.121221058f, -0.108373076f, 0.0995348468f, 0.0811498985f, -0.00153202587f, 0.0274542812f,
    0.125624537f, -0.12522997f, 0.039845977f, 0.102781251f, -0.0125483908f, -0.102294393f, 0.127964243f, 0.106987491f,
    -0.121963955f, 0.0605274513f, -0.00962998718f, 0.0293257963f, -0.0997538343f, -0.0493469536f, 0.10464146f, 0.0576561354f,
    -0.111191094f, 0.0444498658f, -0.134326056f, 0.0843898654f, -0.0186109152f, -0.0124633145f, -0.0134387873f, -0.0564103611f,
    -0.0650966242f, 0.00987496786f, -0.0230119005f, -0.0745589584f, -0.164288163f, 0.0148835415f, -0.0782395005f, -0.0426774882f,
    -0.0190425217f, -0.0450433902f, -0.117566988f, 0.0195494276f, 0.0401653014f, -0.135414034f, -0.158820406f, 0.0189910289f,
    -0.0141096236f, 0.0141046988f, 0.110882156f, -0.0698282719f, 0.0458157547f, 0.0481818803f, -0.153272673f, -0.1295681f,
    -0.148521766f, 0.0178679638f, 0.0818373933f, -0.0640959144f, -0.165991753f, 0.0125766704f, -0.00688341353f, -0.0726559609f,
    0.0926108807f, 0.151631489f, 0.0463216305f, 0.0742912963f, 0.117073238f, 0.00635374384f, -0.00859602541f, -0.0926894993f,
    -0.0681940839f, 0.119670816f, -0.0362476632f, 0.0122864582f, -0.109602496f, -0.130529299f, 0.0744167641f, -0.0717070028f,
    0.0751632527f, -0.0242693108f, -0.0160059221f, -0.0551629104f, 0.0864024311f, -0.0727299973f, -0.0218357518f, 0.0681145564f,
    0.0655712485f, -0.0564633161f, 0.00547830667f, -0.0490182601f, 0.041049283f, 0.0304450206f, 0.0378302559f, -0.0972603038f,
    0.0551875345f, 0.151728109f, -0.113016702f, -0.0453234278f, 0.0598279834f, -0.0179929994f, 0.091808334f, -0.0872299522f,
    0.13465552f, -0.101521812f, -0.0713394433f, -0.0864436477f, 0.000312358839f, -0.132041663f, 0.0653245375f, -0.102132864f,
    -0.0160439312f, -0.015066565f, 0.00300286547f, -0.00880929455f, 0.0201132633f, 0.0680915043f, -0.0549004935f, 0.091015704f,
    0.119122975f, 0.111216299f, 0.11565011f, -0.132384226f, -0.0926429629f, 0.141778931f, -0.0218749996f, -0.0435601361f,
    0.0310992915f, 0.0871820897f, -0.0532821491f, 0.140883952f, -0.119657993f, -0.042631343f, -0.00225011958f, 0.024317408f,
    -0.0394907296f, 0.110137172f, -0.129083797f, 0.0245999955f, -0.145350754f, 0.0473063998f, -0.036367882f, 0.0526050478f,
    -0.0584289506f, -0.124454319f, 0.0159648489f, -0.0927492902f, 0.0181365833f, -0.0990607888f, 0.0208283402f, -0.0640428513f,
    0.138328061f, -0.0717331171f, -0.0546471812f, 0.118850663f, 0.0676984936f, -0.0255168211f, 0.0940338001f, 0.0657963306f,
    -0.047547508f, -0.0766116455f, 0.0669879317f, -0.252377868f, 0.0635413155f, 0.0825135559f, 0.0854974836f, 0.0579083525f,
    0.105483212f, 0.109420769f, -0.00774660893f, -0.123789929f, 0.0394663699f, 0.166057914f, 0.0557770021f, -0.0226879437f,
    -0.161722347f, -0.057654988f, -0.0208561886f, 0.0411809944f, 0.14923875f, -0.0351483338f, -0.0494753905f, -0.128291443f,
    -0.0950087905f, -0.11958085f, 0.055999279f, 0.0601585247f, 0.032972049f, 0.132709607f, 0.0263237208f, -0.00420005852f,
    -0.0413361602f, 0.0209154896f, 0.041834224f, -0.0999753997f, 0.129327372f, -0.00536428438f, -0.0599299408f, -0.1022937f,
    -0.0671855286f, -0.139031351f, 0.0339360386f, 0.0646958128f, 0.0663329512f, -0.0683002695f, 0.0914022699f, -0.110731609f,
    -0.133002833f, 0.0686545819f, 0.031565398f, -0.0027960951f, 0.0894337669f, 0.0726724342f, -0.114705823f, 0.0806180537f,
    -0.0144246258f, -0.0177489687f, -0.136153385f, -0.12147104f, -0.169760615f, -0.137697697f, -0.0579631254f, -0.0527564846f,
    0.0704100505f, 0.112637945f, -0.142695397f, -0.0796236321f, 0.0020606129f, 0.00980166998f, -0.0228892993f, -0.066354394f,
    -0.0344845988f, 0.116066679f, -0.0969386026f, 0.0983300135f, -0.0527222753f, 0.0180673394f, -0.132067516f, -0.113132901f,
    -0.0385969132f, -0.0769931898f, 0.143363446f, -0.128635377f, 0.0411831141f, -0.0108930888f, -0.0702716708f, 0.0409231745f,
    0.125386402f, 0.0540955067f, 0.0309002884f, 0.0255289506f, -0.0126626957f, -0.0271310918f, -0.0638825148f, -0.117879249f,
    -0.0802845955f, 0.114461288f, 0.0427018255f, 0.107446931f, -0.0333217643f, -0.0221995618f, 0.0751788765f, 0.00635813409f,
    -0.0791665539f, -0.0464680754f, 0.0444006212f, -0.118982442f, 0.00861879718f, 0.0207282547f, -0.0949457586f, -0.128744736f,
    0.00653994083f, -0.0634367168f, 0.0117038684f, -0.00129630405f, -0.033589147f, 0.0456033722f, -0.0390019715f, 0.0302933231f,
    0.0588721633f, 0.0674182549f, -0.0377695411f, -0.143752977f, 0.0250727404f, -0.0393146873f, 0.0910115689f, 0.0312721021f,
    0.0626161024f, -0.0377819501f, -0.108126149f, -0.080352284f, -0.138421327f, 0.0364888795f, -0.089126125f, 0.0869851857f,
    0.130956203f, 0.00340153929f, 0.144943118f, 0.0543892756f, 0.0344565585f, -0.0557898581f, -0.0161093995f, -0.0204512794f,
    -0.0896599591f, -0.0998759195f, -0.0270809513f, -0.018106645f, -0.114215739f, 0.0924123973f, 0.0189209767f, -0.0692875609f,
    -0.0838532746f, -0.0148377465f, -0.0398292094f, 0.0958286747f, -0.0273417309f, -0.00247309986f, 0.15371497f, 0.0425607376f,
    -0.1244675f, 0.0290004238f, 0.0592718534f, 0.061618086f, -0.14980635f, -0.00792628899f, -0.0111227259f, -0.099519439f,
    0.055076357f, 0.0255242214f, 0.1002969f, -0.0839017332f, 0.0691738725f, 0.0792842135f, 0.0897874981f, 0.00728972023f,
    0.044296246f, -0.0381921642f, 0.0565716587f, -0.0833846629f, 0.00139954756f, 0.0117671546f, -0.0429114699f, 0.115171522f,
    0.0320465937f, 0.0703055114f, 0.137715444f, 0.0697953478f, 0.0629218444f, -0.0625878051f, -2.40601439e-05f, -0.0842459053f,
    0.0465222932f, -0.0284635015f, 0.0484873578f, -0.114742726f, 0.0583753921f, 0.119263329f, -0.0705877542f, 0.00588064641f,
    -0.0671042576f, 0.00376880169f, 0.138422519f, 0.0657610223f, 0.0758174583f, 0.119082391f, 0.00693265442f, 0.122764014f,
    0.00713696517f, 0.0841985568f, 0.0935574323f, 0.124187037f, 0.0192508623f, -0.106193982f, 0.0835773498f, 0.00844558794f,
    -0.0166000593f, 0.0464404635f, -0.150628403f, 0.0186749455f, -0.127086163f, 0.102661438f, -0.0287491474f, 0.0610084534f,
    -0.0128324619f, -0.0671372339f, 0.0610277802f, 0.0502482057f, 0.0188921243f, 0.066638276f, 0.0632417426f, -0.0329656191f,
    0.0163574964f, -0.155324623f, 0.162885964f, -0.0846517235f, -0.00697260164f, 0.0159147698f, 0.0571629517f, 0.0620406494f,
    -0.0767344162f, -0.0315750837f, -0.147100449f, -0.126883179f, 0.0932196155f, -0.00130543974f, -0.128026024f, 0.113423273f,
    -0.0795304477f, -0.0142885698f, -0.00197953312f, 0.0336483382f, 0.0697312728f, 0.0873129591f, 0.0778133646f, 0.0185087193f,
    0.117646746f, -0.063676782f, -0.0670181811f, 0.0731704012f, 0.0712449923f, 0.0886429027f, 0.041260656f, -0.0849758014f,
    -0.116047904f, -0.0196780786f, -0.0353065841f, -0.0143116927f, -0.0229035616f, 0.0408981033f, -0.065781571f, -0.0790525749f,
    -0.0346391164f, -0.0910259858f, 0.0343225636f, -0.078705065f, 0.0818127543f, 0.136660516f, 0.0432656296f, 0.0992897302f,
    0.00395224197f, -0.0809449852f, -0.00278063538f, -0.0211403165f, -0.0924068615f, 0.00668552564f, -0.141524881f, 0.0582625419f,
    0.10463617f, -0.00540028419f, 0.102901161f, 0.140129089f, 0.0179464351f, 0.0637260824f, 0.07139346f, 0.0642482638f,
    -0.129811257f, -0.0896283239f, -0.122780696f, 0.118010528f, -0.0404874422f, 0.0697094202f, 0.110213809f, -0.0209351499f,
    0.146939099f, -0.0732643604f, 0.0985067561f, -0.0138444845f, -0.0494675934f, -0.06581036f, -0.0434794575f, 0.010563775f,
    0.115679078f, 0.109667115f, -0.0104159806f, 0.10332711f, -0.0220010225f, 0.0392611995f, 0.0556476116f, 0.0890635774f,
    0.0148235653f, 0.0167865008f, -0.111032933f, -0.0417804495f, -0.102504306f, -0.0439513959f, -0.0871048346f, 0.0881885365f,
    0.0517841801f, 0.0169149097f, -0.0773250908f, 0.0628750622f, -0.00103137293f, -0.0985248163f, -0.0512662493f, -0.0296285488f,
    0.0122504057f, -0.0318211392f, -0.0362015069f, -0.157887563f, -0.035770718f, -0.116069153f, 0.0230992232f, -0.119162567f,
    0.0314610638f, -0.0353019424f, 0.0554081388f, 0.106130823f, -0.0647341684f, 0.0958104134f, -0.0360964797f, 0.0320892408f,
    -0.0253605805f, 0.0505587384f, -0.0800569579f, -0.0402468443f, 0.0215371829f, -0.0689790249f, -0.0340517424f, -0.104631901f,
    -0.106270552f, 0.101973876f, 0.0384164602f, -0.0364008099f, 0.0063860924f, 0.0535763316f, -0.0819470286f, -0.0473881364f,
    0.0424884111f, -0.0719967261f, 0.0175218247f, -0.110618785f, -0.04810315f, 0.104114138f, -0.0320102088f, 0.0569469482f,
    -0.0246466212f, -0.0769215524f, -0.072563976f, 0.000810163503f, -0.0118887266f, 0.0828520581f, -0.00785596669f, -0.00096308114f,
    0.0803265274f, 0.0565324724f, -0.0216404647f, -0.000362504681f, 0.0912959501f, -0.131284967f, -0.0682229176f, -0.03572689f,
    -0.0756137371f, 0.127651796f, 0.0640419796f, -0.0179151613f, -0.0570517145f, -0.110248528f, -0.0799026266f, 0.048841387f,
    0.0422099903f, -0.0573178269f, -0.0255665444f, 0.0245084558f, 0.00172556879f, -0.0490668155f, 0.151783675f, 0.102035157f,
    -0.0391523242f, 0.0692232698f, 0.0536666662f, -0.147548303f, 0.00801164936f, 0.136739373f, -0.0553432815f, 0.00509059429f,
    -0.0531726517f, -0.105176017f, 0.0968863815f, 0.0587889552f, -0.0797886252f, 0.0230839532f, 0.0511797555f, -0.0908536389f,
    -0.111603498f, -0.00393620552f, 0.0897941217f, 0.0691648871f, -0.0548237525f, 0.0612026118f, -0.0719565898f, -0.0114833005f,
    -0.0704433769f, -0.0891749337f, 0.0107832272f, -0.0428328216f, 0.0241682231f, 0.028873723f, 0.0261194855f, -0.0462283343f,
    0.0246557016f, 0.0582316369f, -0.0781103075f, -0.0184256788f, 0.0468179286f, -0.151521146f, 0.00456212228f, -0.0134929121f,
    -0.10848444f, 0.117625162f, -0.150080621f, -0.0756606758f, -0.0290831812f, 0.0164699424f, -0.0305134002f, -0.0939507484f,
    -0.112676643f, 0.105683088f, -0.0678867102f, -0.0832471922f, 0.0360630378f, -0.0109225791f, -0.162467793f, -0.0398253873f,
    -0.13313666f, 0.0928072035f, -0.052251704f, -0.114870347f, 0.10916508f, 0.0939881206f, 0.0713120103f, 0.0741802603f,
    0.0691361651f, -0.152437449f, -0.102848358f, -0.143639132f, -0.192959577f, -0.120120153f, -0.0772986636f, -0.00130192027f,
    -0.103892311f, 0.0340071693f, -0.0569405667f, 0.0549440607f, -0.0836828724f, 0.0804173872f, 0.132159233f, 0.0820376649f,
    0.0735570788f, -0.112115033f, 0.0745808408f, 0.0288009886f, -0.0853638574f, -0.122030303f, -0.0974186063f, 0.0557259396f,
    -0.0993112102f, 0.0149928154f, -0.0992833003f, 0.121535778f, -0.0395050235f, -0.104446054f, -0.0482672267f, 0.0228264015f,
    0.0246183127f, -0.0381607004f, 0.0537913255f, 0.137239337f, 0.0906106457f, 0.143577531f, -0.0842287168f, 0.111613125f,
    0.0455117635f, -0.0207786541f, 0.0242811758f, -0.00293261139f, 0.0240350105f, -0.00227008737f, 0.0488219447f, -0.115021214f,
    0.0434568413f, -0.0381284356f, 0.142824635f, -0.124000773f, 0.0435583368f, -0.00852247048f, 0.0309359562f, 0.0372230746f,
    -0.075021103f, -0.130254909f, -0.0158740859f, -0.0915914252f, 0.0848287567f, 0.082876198f, -0.0634593144f, 0.0342413373f,
    0.0617919602f, 0.0358792357f, -0.0705125928f, -0.0287394244f, -0.0791236386f, 0.0333834253f, -0.00283168885f, 0.0974010378f,
    0.0793723613f, -0.166498587f, -0.01963499f, -0.00529389316f, -0.0127639677f, 0.106108941f, 0.00103877042f, 0.133826882f,
};

static const float CONV2D_1_BIASES[] = {
    0.0602052212f, -0.124314658f, -0.134578705f, -0.165530309f, -0.0917782113f, -0.0330019705f, -0.0660947263f, 0.0628666505f,
    -0.022479808f, -0.0894814059f, -0.0540334061f, 0.0268220622f, -0.123965792f, -0.0467719883f, 0.0395163372f, -0.0902328044f,
    0.0157657713f, 0.0286537986f, -0.0261530597f, -0.0643308386f, -0.0689723641f, -0.156033337f, -0.122929201f, -0.00262816413f,
};

static const int CONV2D_1_KERNEL_K = 3;
static const int CONV2D_1_KERNEL_W = 3;
static const int CONV2D_1_IN_CH = 12;
static const int CONV2D_1_OUT_CH = 24;

static const float BATCH_NORMALIZATION_1_GAMMA[] = {
    0.968919873f, 1.01271117f, 0.999903679f, 0.989002168f, 1.013713f, 0.987767994f, 0.962813199f, 0.95260936f,
    0.968924046f, 1.02143347f, 0.998844862f, 0.962609589f, 0.9823578f, 1.02276301f, 0.987573385f, 1.070961f,
    1.0023042f, 1.00675285f, 0.997099459f, 0.985540569f, 1.01196969f, 0.994589508f, 1.11134779f, 0.975861549f,
};

static const float BATCH_NORMALIZATION_1_BETA[] = {
    0.147813916f, -0.0252326485f, -0.0430529267f, 0.0605841689f, -0.0438556299f, 0.126880854f, 0.0146282958f, 0.046089571f,
    0.00744944345f, 0.0868817121f, -0.0829284266f, 0.157625735f, -0.0653248206f, 0.0879697278f, 0.022781888f, 0.158127323f,
    0.0928025767f, -0.00273034465f, 0.0913603678f, -0.0295866262f, 0.145089567f, 0.0260161553f, -0.0260081105f, 0.112321958f,
};

static const float BATCH_NORMALIZATION_1_MOVING_MEAN[] = {
    0.292640954f, 0.0964289755f, 0.158627361f, 0.127545267f, 0.115265608f, 0.41477561f, 0.0832097456f, 0.294205934f,
    0.0835706219f, 0.221235037f, 0.143657029f, 0.215285972f, 0.221036926f, 0.241890013f, 0.27193138f, 0.119225055f,
    0.392137229f, 0.22287491f, 0.221861601f, 0.394135416f, 0.247924984f, 0.200498983f, 0.029479567f, 0.237380072f,
};

static const float BATCH_NORMALIZATION_1_MOVING_VARIANCE[] = {
    0.174710706f, 0.0590792671f, 0.14365238f, 0.0326291919f, 0.0832080394f, 0.614425302f, 0.0337885879f, 0.108341657f,
    0.0592954084f, 0.157364637f, 0.0973272175f, 0.108627297f, 0.116495088f, 0.20134607f, 0.187840059f, 0.128046036f,
    0.234641522f, 0.0661372095f, 0.0866523832f, 0.266343296f, 0.10809736f, 0.0813492462f, 0.0177417453f, 0.126317531f,
};

static const float BATCH_NORMALIZATION_1_EPSILON = 0.001f;

// CONV2D_2 kernel shape (3, 3, 24, 48)
static const float CONV2D_2_KERNEL[] = {
    -0.125490159f, 0.0522534549f, 0.00720779784f, 0.0648283362f, -0.0689129978f, 0.0511934422f, 0.0421582758f, 0.10296043f,
    0.0158587787f, -0.0404476076f, 0.0847367942f, 0.0249898229f, 0.0464874804f, 0.010648964f, 0.0284945127f, -0.00398643361f,
    -0.0682714432f, -0.0708041042f, -0.0494447611f, -0.0915187597f, 0.0507888496f, 0.0166231189f, -0.0124201784f, -0.116848081f,
    0.0610948652f, -0.0398826115f, -0.047626242f, -0.0309727043f, 0.0630556494f, -0.0447012074f, 0.0157518014f, -0.121940129f,
    -0.0249893684f, -0.0519779213f, -0.0469326451f, 0.0107363388f, -0.0548979416f, -0.0364274643f, 0.0210458748f, -0.00288748764f,
    0.0667784736f, -0.102157302f, -0.112309739f, -0.0385269858f, -0.00909313839f, -0.0516578332f, -0.0642209649f, 0.0366471149f,
    0.0139138112f, -0.035270866f, -0.0719109699f, -0.0606014542f, -0.0192504115f, -0.00396351842f, 0.0211592466f, -0.0414157249f,
    0.0777054355f, -0.0201313142f, -0.0699243844f, -0.0147947343f, -0.105401583f, 0.0717439353f, -0.0637121275f, -0.0201423261f,
    0.0145845078f, 0.0401389413f, -0.0289737955f, -0.112725966f, -0.0978267714f, -0.0931485221f, 0.0308724698f, -0.0174514204f,
    0.0444310345f, -0.0192338321f, 0.033846125f, -0.11460676f, 0.0232014153f, 0.0689865872f, 0.0296981074f, -0.0970061347f,
    -0.0384402201f, 0.021873787f, -0.0879726559f, 0.0324850827f, -0.0176090561f, -0.034235727f, -0.0110355662f, -0.124362223f,
    -0.117509574f, 0.0618043505f, 0.00816794019f, -0.0200974457f, -0.0381627344f, -0.0638390481f, 0.0163948648f, -0.0804878548f,
    -0.0376465395f, -0.161571696f, -0.00526255509f, -0.00503447605f, 0.0152580598f, -0.0332738012f, 0.0214406457f, -0.00272574741f,
    -0.038146887f, 0.0639809072f, -0.0171342362f, -0.0495229773f, -0.0171843339f, 0.104201332f, -0.0594240539f, 0.00436508004f,
    0.00782483723f, 0.135148346f, -0.0628034025f, -0.0418353975f, 0.00384403602f, 0.0585090145f, -0.0325428396f, -0.0262174457f,
    0.0685226321f, 0.0306767821f, 0.000304128829f, 0.0237527043f, -0.029189188f, -0.0521611609f, 0.028453365f, -0.0358585343f,
    -0.0296053197f, -0.0580476075f, -0.0229852833f, -0.0816917941f, -0.0465929136f, -0.0595048964f, -0.0363758951f, -0.0770790726f,
    0.0758287385f, -0.0199954808f, -0.044753328f, -0.0135334451f, -0.031421911f, 0.0312780589f, 0.0837374553f, 0.0761166513f,
    -0.0591079406f, 0.0426836647f, 0.00662137475f, -0.0502300337f, 0.0220964514f, -0.0135705527f, -0.0320822299f, 0.139633223f,
    -0.0424695201f, 0.00712083979f, 0.0235677604f, -0.00593219977f, -0.0730627254f, -0.0309351422f, -0.0437761098f, 0.0315927565f,
    0.0247447994f, -0.0524012186f, 0.057624232f, 0.0528127663f, 0.011044506f, 0.0191863682f, 0.00201812503f, 0.0671252906f,
    -0.0105430586f, 0.0346800163f, -0.0969018266f, 0.0860442072f, 0.0570838936f, 0.0948831141f, 0.0689164996f, -0.0122469086f,
    0.0346346833f, -0.0748885721f, -0.0957662538f, 0.0191431623f, -0.03454962f, -0.012738293f, -0.171572849f, -0.0619055927f,
    0.00451328931f, -0.0173493586f, -0.149444625f, -0.110583827f, 0.0655293167f, 0.0620798171f, -0.0297807045f, 0.0363572016f,
    0.0692248642f, 0.0395976081f, -0.0510553978f, 0.013588964f, 0.0867420062f, 0.0322671495f, -0.0160412733f, 0.0418264791f,
    0.00605902588f, -0.105057403f, 0.0288094655f, 0.0148460912f, -0.0268626809f, 0.0282859597f, -0.0792246163f, -0.0725126266f,
    0.0888065398f, -0.0210721437f, 0.00502116466f, -0.0457054228f, 0.0503158197f, 0.00821417943f, -0.00273432862f, -0.0779516771f,
    -0.053653162f, -0.00927370507f, 0.074747026f, 0.0474492721f, -0.0703351498f, -0.0819969028f, 0.0123953596f, -0.0244962815f,
    -0.0698555037f, 0.01284815f, 0.0814648569f, -0.0975876302f, 0.0546379536f, 0.0640987083f, 0.0199866015f, 0.0189780947f,
    -0.0985970944f, -0.0186006948f, 0.0665192306f, 0.0256896727f, -0.00675191078f, -0.0751553625f, -0.0626403242f, -0.0289175007f,
    -0.0388811529f, -0.0924399942f, 0.0602458864f, 0.0669167265f, -0.0451140329f, -0.0360473916f, 0.0365405008f, 0.0135284355f,
    0.0372602493f, -0.113178618f, -0.0573499985f, -0.0889532715f, 0.0513738319f, 0.00663527614f, -0.0168220066f, 0.0106327115f,
    0.0930988491f, -0.0362129845f, 0.0381602496f, -0.0629800111f, -0.0479882248f, 0.00132457423f, 0.0149044404f, -0.0511357673f,
    -0.00347156124f, -0.0392768197f, 0.0764226988f, -0.0387517661f, 0.0518906228f, -0.0595497191f, -0.0464170128f, -0.0489824563f,
    -0.00558860647f, -0.133824766f, -0.0787651464f, -0.00222140108f, 0.0333044045f, 0.0716904402f, -0.0660311058f, 0.0284034498f,
    -0.0857009217f, -0.0115176979f, 0.00774007291f, -0.0122725097f, 0.0529551096f, -0.0610193722f, 0.00239865482f, -0.0842047557f,
    0.00572179304f, -0.0426442958f, 0.0204033609f, -0.0656521916f, 0.000476860907f, 0.0207164567f, 0.013633145f, -0.0662469715f,
    -0.0522545539f, -0.0848576501f, 0.0059851734f, 0.00350964861f, -0.00391441025f, -0.0805198103f, -0.0126665067f, 0.00759040378f,
    0.0594136566f, -0.0432762578f, -0.00810469314f, 0.0048874002f, -0.0920236036f, -0.0384300984f, -0.0252701491f, -0.015516405f,
    0.00152794085f, -0.0482215993f, 0.0731186867f, 0.0282351188f, -0.00229754765f, 0.0421701074f, 0.0349787697f, -0.000381486316f,
    0.0319666751f, -0.0248492919f, 0.0435087271f, 0.0073674405f, -0.0234480202f, 0.014249838f, -0.0535002463f, -0.0893541425f,
    -0.083901532f, -0.0148043279f, 0.0625503585f, -0.0324526429f, -0.0237733256f, -0.0184617322f, 0.0122089703f, 0.0156545192f,
    -0.0449314043f, 0.0832588822f, -0.0554340929f, 0.0239059106f, -0.101974532f, -0.0138056697f, 0.0914308429f, 0.112678058f,
    -0.0579966754f, -0.0594693087f, 0.0664526373f, -0.0435327217f, -0.059544526f, -0.0833694935f, 0.0189152379f, 0.0533780754f,
    -0.0901739821f, 0.0195583906f, 0.0263964124f, 0.144773737f, -0.039000567f, -0.0402484909f, -0.047539033f, -0.0907137468f,
    -0.0128045874f, 0.0518504716f, 0.0571480058f, -0.0786537454f, 0.00998722017f, -0.0750328153f, 0.0787020624f, -0.0479286574f,
    -0.0355004519f, -0.0183141436f, -0.0257875416f, 0.00749182701f, -0.0160182193f, -0.0116144558f, -0.023140166f, -0.0365915447f,
    -0.00406665308f, 0.139398068f, 0.0167946108f, 0.00611830177f, -0.0272868555f, 0.099577114f, -0.204884231f, -0.0997502953f,
    0.012014498f, -0.0667324141f, 0.0395211987f, -0.0765480623f, 0.0100926505f, 0.0178446565f, -0.00588396611f, -0.0123210493f,
    -0.0609440692f, 0.0931043625f, 0.00198768754f, 0.00293668429f, -0.0165958535f, 0.056643758f, 0.0970273688f, 0.154130831f,
    -0.106758609f, 0.0720582679f, -0.0698891357f, 0.00938709918f, 0.0702787414f, 0.112837911f, 0.0055568791f, 0.0305767655f,
    -0.0223008003f, -0.0219027679f, -0.0581448302f, 0.0983842611f, -0.0245160181f, -0.0861328617f, 0.00509919971f, 0.145275146f,
    -0.00376415811f, -0.0578078367f, -0.0168923642f, 0.04542749f, -0.0625307113f, -0.00515749166f, 0.025731694f, 0.0507529937f,
    0.0861877948f, 0.00293265027f, -0.0165523104f, 0.0855092853f, 0.0129020391f, 0.0265604705f, -0.0165161956f, 0.0501059517f,
    0.0494920351f, 0.0198430121f, 0.033574529f, -0.0571476594f, -0.047421705f, -0.125810146f, -0.0706030875f, 0.00583095057f,
    0.0015038586f, 0.015107885f, -0.0166194383f, -0.0165340547f, -0.0903851539f, -0.0733176917f, 0.146181554f, 0.0715785772f,
    -0.0183134917f, -0.0328649357f, 0.00452488102f, -0.0485082008f, -0.0230418444f, 0.123045072f, -0.0650270283f, 0.0287776217f,
    -0.0456437916f, -0.00147654105f, 0.0103193484f, 0.207671076f, -0.109537348f, -0.0471267961f, 0.063204512f, 0.030154828f,
    0.0575653315f, -0.122830197f, 0.0353471562f, 0.0557813719f, -0.00252804859f, -0.0326036662f, 0.0829684436f, 0.0362875424f,
    -0.059664458f, -0.0171653554f, 0.0801125988f, 0.0594555885f, 0.00643276656f, 0.103151701f, -0.178330019f, -0.0174520649f,
    -0.0507120714f, 0.00625525974f, 0.00513544492f, 0.0189674925f, -0.0389010757f, 0.100883462f, -0.00417416496f, -0.00212509511f,
    -0.00948383193f, -0.00590019301f, 0.0325407684f, -0.0289118867f, 0.0133378021f, -0.0667174608f, 0.108926252f, -0.0307248291f,
    0.0347306542f, 0.00454152236f, -0.0217682756f, -0.00342814974f, 0.0693304241f, 0.118819267f, -0.0494422466f, -0.0127081852f,
    0.0918477252f, -0.037091352f, -0.128370628f, 0.0142033659f, 0.0322987065f, -0.0354675613f, -0.0466507114f, 0.0629463419f,
    0.0110503267f, -0.0193903912f, -0.0508222766f, -0.000875720114f, -0.0701285005f, 0.0762324557f, -0.0625274032f, 0.014091284f,
    0.00971727166f, -0.0253668558f, -0.106930606f, -0.0130449338f, 0.0183048975f, 0.0506911129f, -0.0159160085f, 0.0309746824f,
    -0.0844887719f, 0.0440364704f, -0.0384485498f, -0.0053167711f, 0.0640861541f, -0.038093809f, 0.0352677144f, 0.0661599487f,
    0.0527042411f, 0.0571107231f, -0.00445771823f, 0.00622577593f, -0.0275218356f, -0.0982587412f, -0.0609161444f, 0.00879544392f,
    -0.00907600205f, 0.0515772104f, 0.0815214962f, -0.0254707355f, -0.00716870045f, -0.0190146286f, 0.0350137725f, 0.0563303269f,
    0.00134293933f, -0.0658549815f, -0.102459773f, -0.0862993672f, -0.0166811682f, 0.0582198799f, 0.00589640671f, -0.00402422203f,
    0.0406564251f, 0.0794649273f, -0.112181023f, -0.0797161162f, 0.0508821197f, -0.0851503909f, -0.130030245f, -0.0413477384f,
    -0.0505058765f, -0.0339368433f, -0.118135579f, -0.0177469216f, -0.0355897099f, -0.0355214551f, -0.00326358271f, 0.00665728049f,
    -0.0218516197f, -0.0250038914f, -0.0512467101f, -0.0378929041f, 0.0163812023f, -0.0536774173f, -0.0110491822f, 0.0808076859f,
    -0.0706838816f, 0.0720273778f, -0.00267631561f, 0.109677739f, -0.109764948f, -0.0126888221f, -0.0111635905f, 0.121292792f,
    -0.114545427f, 0.133687958f, 0.000732342247f, -0.0883696526f, 0.0195020922f, 0.0102748135f, 0.0238738582f, 0.132706538f,
    0.0566992052f, -0.0537075028f, -0.0283565838f, 0.0167486109f, 0.0549774617f, -0.00351128494f, 0.136928022f, 0.112413205f,
    0.161623001f, -0.00527808722f, 0.050158266f, 0.0459394194f, -0.0073869382f, -0.0577885583f, 0.0424727835f, -0.046430327f,
    -0.0336164385f, -0.0957374871f, -0.0851398259f, -0.0152560147f, 0.0132373841f, -0.102786899f, -0.025257824f, -0.0507571213f,
    -0.0720189288f, 0.0839591697f, 0.0375248045f, 0.0532808229f, -0.0300474949f, 0.0410407893f, -0.0371577628f, -0.0293690432f,
    -0.107834019f, -0.0228003021f, 0.0624344535f, 0.0284826104f, -0.0161603503f, -0.0589303784f, -0.0809125081f, -0.0478277728f,
    -0.0274957865f, -0.0274648964f, 0.0480957814f, 0.111754499f, -0.0137686869f, -0.0201840475f, 0.0736791417f, -0.0849946216f,
    0.02295742f, 0.0812502056f, 0.0273693092f, -0.0421149656f, 0.0323058926f, 0.080785349f, 0.00729735382f, -0.114500269f,
    0.0647649318f, 0.0356768854f, -0.0796814263f, -0.0812708214f, -0.0653683245f, -0.0374111272f, -0.0729272962f, -0.00307802088f,
    -0.032707721f, 0.0915535316f, -0.061019823f, -0.0620029867f, 0.00417138962f, 0.00941361673f, -0.00620605983f, -0.103334315f,
    0.0153101357f, 0.0677447692f, -0.0493241437f, -0.0945480466f, 0.121399149f, 0.10792429f, -0.0886214003f, 0.0488777161f,
    -0.0107919807f, 0.0211796537f, -0.0388375074f, -0.0114445789f, -0.0955621526f, 0.0112332702f, 0.0164622702f, -0.00684082787f,
    0.0134459166f, -0.0208359938f, 0.0224749614f, 0.107868329f, 0.0549829975f, 0.0611432083f, -0.0759585947f, 0.0740486234f,
    0.0850986466f, -0.0131531563f, 0.00461907033f, 0.0884816349f, -0.0423291698f, 0.0641620159f, 0.0506533645f, 0.0527071394f,
    0.0657299012f, 0.0590868108f, 0.0691331923f, -0.0237263665f, -0.100967631f, 0.0981914625f, 0.112428054f, 0.00473210914f,
    -0.0474865399f, 0.0869039521f, 0.0791141391f, 0.0723366067f, -0.0100211026f, 0.0245705694f, 0.0423585437f, 0.0132513167f,
    0.00768120633f, 0.147529706f, 0.0483025089f, -0.0877282321f, -0.00983997341f, -0.133978203f, -0.0631947368f, -0.0635550693f,
    -0.0480917469f, -0.138307437f, -0.066592887f, -0.0476960838f, 0.063389264f, -0.0353069529f, 0.0777411833f, -0.00850611273f,
    0.0716511607f, -0.109338522f, 0.019942021f, -0.0265297107f, -0.00277836015f, -0.059975002f, -0.0300745871f, -0.0934840739f,
    -0.0393542424f, 0.00714230258f, -0.0158546325f, 0.012477302f, -0.127826184f, 0.0162452515f, -0.0311108045f, 0.00483651087f,
    -0.0534614362f, -0.00502242241f, 0.0105362814f, 0.101124734f, 0.0525334254f, -0.0865401551f, 0.00293902564f, 0.0718938112f,
    0.00223415159f, -0.0981067941f, 0.00206084573f, -0.0223608967f, 0.0416070521f, 0.0787422732f, -0.0308251046f, 0.0572137162f,
    -0.0347709991f, -0.0402105339f, -0.0343469754f, -0.0254248157f, -0.12089555f, -0.0523294359f, -0.053477142f, -0.00196091784f,
    0.0228842944f, 0.0797254965f, -0.0638254955f, -0.0176173188f, -0.0434554443f, -0.032187786f, 0.048580423f, -0.0626051575f,
    -0.0838745162f, 0.0826029852f, 0.0464182831f, -0.0131796701f, -0.0113855591f, 0.0182445366f, -0.0675889999f, -0.000171597625f,
    0.151556894f, 0.0252136718f, -0.00991128013f, -0.0151158497f, 0.0563100614f, 0.00856697932f, -0.0355991721f, 0.0803796053f,
    -0.0229997803f, -0.0173937138f, -0.139485016f, 0.0674539283f, 0.0520852916f, -0.179375798f, -0.0931106284f, 0.00787167437f,
    -7.17118601e-05f, -0.127633229f, -0.0312201437f, -0.0777419731f, 0.0783372968f, -0.0479527488f, -0.044942338f, -0.0131668095f,
    0.00210902677f, -0.0829292834f, -0.0176173393f, -0.0357669182f, 0.0290270299f, -0.112654172f, -0.116855174f, 0.0374322757f,
    0.068706274f, 0.0106090112f, -0.0447090045f, 0.0754184648f, -0.16869922f, 0.00615353137f, -0.0316563547f, 0.00107227149f,
    0.104676627f, 0.0366216414f, 0.0255845487f, 0.0816969946f, -0.0105079589f, -0.0621314496f, 0.108486608f, 0.0408435203f,
    0.0405416004f, 0.118281811f, 0.116129316f, -0.0159286112f, -0.0106215551f, 0.0476514734f, 0.0557218157f, 0.0369127691f,
    0.00659101177f, 0.00488893129f, -0.0871765912f, -0.0695463195f, -0.0418053083f, -0.11095047f, 0.0243563652f, -0.00288837124f,
    -0.105800644f, -0.0680641979f, 0.0315888412f, -0.07619901f, -0.0632407218f, -0.0499662384f, 0.0713750497f, -0.107135147f,
    0.079554446f, -0.0666049272f, 0.0635209233f, -0.0878059715f, -0.0297076125f, -0.0503178239f, -0.121739f, -0.0405718721f,
    -0.039996285f, -0.0841991529f, -0.074644126f, -0.0411318205f, 0.0631789789f, -0.0460311882f, -0.0334592424f, -0.0118210521f,
    0.0669475123f, 0.0417864658f, 0.00555455312f, -0.0131375687f, 0.0253987666f, -0.00703581562f, -0.0371118039f, -0.0931753144f,
    -0.00351122534f, 0.0959556177f, 0.0268973932f, -0.0675420314f, 0.0141019002f, -0.032032989f, -0.0264654756f, 0.0297281928f,
    -0.068675831f, -0.0280085728f, 0.12844722f, -0.00442019803f, 0.0741695017f, -0.0172022004f, 0.00886500441f, 0.00520158885f,
    -0.0150091127f, -0.0883800238f, 0.0420393422f, 0.0415587127f, -0.0148135358f, 0.0296645667f, -0.0527499728f, -0.000241562462f,
    0.065022409f, -0.0295369849f, 0.00380583922f, -0.055815842f, 0.0809374154f, -0.0179721713f, 0.00742761744f, -0.00298805069f,
    -0.00886036549f, -0.071956411f, 0.0156098939f, -0.0745944157f, 0.0172525793f, 0.00098536117f, 0.0297590159f, 0.0403607376f,
    -0.0554485656f, -0.0879502669f, 0.021351954f, -0.124204464f, -0.135253876f, -0.0389682874f, -0.106849037f, -0.115697496f,
    -0.0619461536f, -0.0286976844f, 0.1169286f, 0.0785997212f, -0.100680679f, 0.0429575145f, -0.129211381f, 0.0685469508f,
    -0.049505692f, 0.0134081785f, 0.0711067766f, 0.0446356423f, -0.124135315f, -0.0023535199f, 0.0519311279f, -0.0462107472f,
    0.0397240147f, -0.0691125765f, 0.0265395846f, 0.100869939f, -0.059788499f, 0.0518612154f, 0.0350518972f, 0.126261294f,
    0.0610698462f, 0.016193727f, -0.0609459467f, 0.0630614236f, 0.0478597879f, 0.106488906f, -0.0175922289f, 0.0596855283f,
    -0.0411330126f, 0.0650930703f, 0.0587408282f, -0.131055534f, 0.0848174915f, -0.0440269075f, -0.143789768f, -0.120812669f,
    0.0892925188f, -0.063586764f, 0.0618385822f, 0.00795451645f, -0.147954762f, -0.0573527254f, 0.0535944067f, -0.108237222f,
    0.0521598943f, 0.0274825096f, -0.0883197784f, -0.109652072f, 0.0675406903f, -0.118009776f, -0.056427341f, -0.0683665499f,
    0.0346285924f, -0.00767786196f, 0.114271626f, -0.101267964f, -0.0796615332f, 0.0243617129f, 0.0381650515f, 0.00428775838f,
    0.00724986522f, -0.0210951604f, 0.100436777f, 0.0329735912f, 0.0966282338f, 0.097221598f, 0.00718523376f, -0.00550737418f,
    0.049996689f, -0.0566248521f, 0.0222854894f, 0.0326414071f, -0.0315110385f, 0.0449885093f, 0.0849586353f, 0.0415312946f,
    -0.087223351f, -0.0900421664f, -0.0809969679f, 0.0605794005f, 0.0590499826f, 0.00738056749f, 0.0793743059f, -0.0298097115f,
    -0.0290422104f, 0.0273557771f, -0.00606385199f, -0.0815073252f, 0.0662381351f, 0.0130750705f, 0.0515539795f, -0.0640332475f,
    -0.0518094972f, -0.122136302f, -0.0269056298f, 0.00272130943f, 0.0655605271f, 0.0245548245f, -0.0351464301f, -0.076164335f,
    -0.00738876918f, -0.0131442826f, 0.0249588825f, 0.00238378788f, -0.10368491f, 0.0940413475f, 0.0652187839f, 0.0112039791f,
    -0.0138964653f, -0.0647125542f, -0.023996694f, -0.0401992165f, -0.06503883f, -0.0136698447f, -0.0230528042f, 0.0254156962f,
    -0.0380126387f, 0.012005684f, -0.099172093f, 0.0965784937f, 0.0912169516f, 0.0829563886f, 0.122380607f, 0.121695541f,
    0.0203842781f, -0.0757586733f, 0.150098786f, 0.121762246f, -0.0395437069f, -0.0746395737f, -0.0276579205f, -0.0931782722f,
    -0.0971382633f, -0.137610003f, 0.0856788754f, 0.0563978106f, -0.00640972937f, -0.0613536015f, -0.0308714584f, -0.034025427f,
    0.0545000173f, -0.0136593143f, -0.0391134061f, -0.124088079f, -0.0915238038f, 0.0278194156f, 0.0687532499f, -0.148415223f,
    0.11375542f, 0.0954815149f, 0.0335305743f, -0.107636608f, -0.00429727789f, 0.0437488854f, 0.00441308133f, -0.0552036203f,
    -0.0430507585f, 0.0349843912f, 0.000843993505f, -0.0957152843f, -0.0886718035f, -0.0546227433f, 0.105306186f, -0.0191488955f,
    -0.0467939526f, 0.0146837058f, -0.06591212f, 0.0491455831f, -0.0318996496f, -0.0852621868f, 0.0701729283f, -0.104416892f,
    0.115202792f, 0.0398022197f, -0.0602578521f, -0.02084684f, -0.0571645051f, 0.0164674576f, -0.0311520491f, 0.00290364982f,
    -0.0300239623f, 0.103902057f, 0.0381311402f, 0.0300749764f, -0.0163818263f, 0.0308794193f, -0.0144089572f, 0.0448233299f,
    -0.0622866452f, -0.019491246f, 0.0480690971f, -0.0114701735f, 0.0404317826f, -0.0232880879f, -0.0682345107f, 0.000506458629f,
    0.0355648175f, 0.00319584762f, -0.0671545193f, 0.00326967426f, -0.0203779787f, 0.0478590429f, -0.0884469822f, -0.066173248f,
    0.00781028438f, -0.0879022405f, -0.100065365f, -0.106332913f, -0.0494716316f, -0.106693022f, 0.0474232547f, -0.0221577324f,
    0.0285028853f, -0.0435985699f, 0.0325957313f, -0.0191991962f, -0.12968418f, 0.0735415593f, 0.0406623669f, 0.0312232096f,
    -0.0348524079f, -0.0693757981f, -0.0139333792f, 0.0134919677f, 0.105425358f, 0.0185516831f, 0.012325516f, -0.00229240768f,
    -0.0414604358f, -0.0139806643f, -0.0831432194f, -0.158169493f, -0.0145780882f, -0.0554706119f, -0.12980482f, -0.00702495873f,
    -0.0336976461f, -0.0699404553f, -0.0923363566f, -0.167529047f, -0.0630495846f, -0.00796631724f, 0.0413688496f, -0.130881771f,
    0.0113386018f, -0.00844400376f, -0.0554048158f, 0.0057063275f, 0.00409009121f, -0.0491624437f, -0.0232574157f, -0.0120027987f,
    0.0808152258f, -0.0640376881f, 0.00546969939f, -0.0460475348f, 0.0454835258f, 0.00504961889f, -0.0806811973f, -0.0360290371f,
    -0.0258495528f, -0.144890562f, -0.102671295f, -0.0240600388f, -0.0106389644f, 0.00346565992f, -0.0264006872f, -0.0636801645f,
    0.0262750089f, 0.0265803989f, -0.0129670966f, 0.0668394789f, 0.0610393994f, 0.0877239555f, -0.0239565372f, -0.0500118621f,
    0.135454312f, -0.0213140622f, 0.0223454889f, -0.0415190868f, -0.0449507833f, -0.0286314078f, 0.109788366f, 0.045828715f,
    -0.0502056777f, 0.0196112152f, -0.0248242263f, -0.101173438f, 0.0923034772f, 0.0099996971f, -0.0605908781f, 0.0630197152f,
    0.00070746307f, 0.0366748497f, 0.0114938365f, -0.0184514113f, -0.10093192f, 0.00152530801f, 0.0189393051f, -0.17434141f,
    -0.0310779549f, -0.0809753612f, 0.0366417319f, 0.0260110516f, -0.00743051339f, -0.0567031801f, 0.0551689267f, -0.0752112418f,
    -0.0247496534f, -0.126099765f, -0.0782256797f, -0.0826456323f, -0.0154620614f, -0.062051367f, 0.0583212599f, -0.00782709382f,
    0.088135086f, -0.0334755294f, -0.00218688766f, 0.0189597383f, 0.0496775657f, 0.015141001f, 0.045433905f, -0.00749751134f,
    -0.0716843978f, 0.0859580487f, -0.0212042741f, -0.0434706435f, 0.0218051486f, -0.0208699051f, -0.0256269276f, 0.063135244f,
    -0.0640909448f, 0.0265170652f, -0.0291579887f, -0.0271769464f, 0.0174719002f, -0.0655944124f, 0.0678283125f, -0.0348493718f,
    0.0564231128f, 0.0532346591f, -0.0602683462f, -0.0439576581f, -0.0265922863f, -0.051407367f, -0.038947463f, -0.120935515f,
    0.0452406816f, 0.0424057543f, 0.00230162148f, -0.0721443221f, 0.085203059f, 0.0405100733f, 0.0243705716f, 0.121136382f,
    -0.0743013248f, 0.0136024421f, 0.0237827841f, 0.0104548875f, 0.00892587192f, -0.0616351441f, 0.0305581279f, 0.176414534f,
    0.0116690518f, 0.0364699513f, -0.0543587431f, -0.00179200503f, 0.0670084283f, -0.108526781f, 0.0422052704f, 0.0561967902f,
    -0.0208493341f, 0.016572617f, 0.0649129599f, -0.0123218521f, 0.0613529123f, 0.0400201753f, -0.0181198772f, -0.0115185315f,
    -0.038923718f, -0.0858530626f, 0.0278172288f, -0.0133066168f, 0.110973902f, -0.0585209876f, 0.0668143034f, -0.0550838299f,
    0.0710023493f, -0.0107988091f, -0.0897158682f, -0.00819465332f, 0.00688087288f, -0.0377820097f, -0.131250784f, -0.0831843913f,
    -0.0224010032f, -0.0557644218f, -0.142140999f, -0.0676667914f, 0.0727213845f, 0.0630188733f, -0.0619272441f, -0.0395421498f,
    0.075747624f, 0.0326355137f, -0.102178849f, 0.0502289981f, 0.0794670358f, 0.00665089116f, -0.0741090626f, -0.115695797f,
    0.0219112709f, -0.0920909792f, -0.00206809933f, 0.0637925118f, 0.0208569057f, 0.0927255228f, 0.0137193315f, -0.00715427753f,
    -0.00395009853f, -0.00879514031f, -0.0620857701f, 0.0525376759f, -0.0512399748f, -0.0662625432f, -0.0394175909f, 0.0507908799f,
    0.0120106498f, 0.0354270078f, 0.102259025f, 0.0352383591f, 0.0831207857f, 0.00760308374f, 0.0212797485f, 0.0320228301f,
    0.017154675f, -0.000357638433f, 0.0742164999f, 0.0017395576f, -0.0342359021f, 0.0515063144f, 0.110977754f, -0.00963697303f,
    0.00167599809f, -0.00160587044f, 0.125401393f, 0.0274710283f, 0.0833118558f, -0.102439739f, -0.0372279324f, -0.0315228999f,
    0.0312423874f, 0.0230954811f, 0.0995330065f, 0.0600613207f, -0.0296267346f, -0.105000861f, -0.0154733201f, 0.00476528658f,
    -0.0242820717f, 0.00209813006f, -0.0751026645f, -0.00606521219f, -0.0486456715f, 0.100538798f, -0.0887532756f, -0.0412670113f,
    0.0161385313f, -0.0468440466f, -0.0631747246f, 0.0277807042f, 0.0292488225f, -0.0558618233f, 0.0220646188f, -0.0332615972f,
    -0.0361016616f, -0.0212107226f, -0.0255103055f, -0.0703761354f, 0.030729292f, -0.0971150473f, 0.0191402473f, -0.0662292019f,
    0.0420016982f, -0.0655394867f, -0.0313451737f, -0.0132973231f, 0.026349267f, 0.0828863233f, -0.0922548249f, 0.0410148799f,
    0.0307858437f, 0.069571428f, -0.00650343485f, -0.0866173059f, 0.000908604299f, -0.0563125499f, 0.0237577539f, -0.0794706494f,
    0.0403716229f, -0.045278687f, -0.123435125f, -0.0463214517f, 0.0392309651f, -0.127810463f, -0.0605747104f, -0.0972197503f,
    0.047108423f, -0.041050408f, -0.0465200581f, 0.0160521027f, -0.0917266756f, -0.0705056563f, -0.0599073879f, -0.0630364642f,
    -0.00696322368f, -0.0120922932f, 0.0588234104f, -0.0380732827f, -0.0948047414f, -0.12763451f, 0.00176948798f, 0.0309904777f,
    0.0256567206f, 0.0522207655f, 0.00134720199f, -0.0704764053f, -0.0580606163f, 0.0721550435f, -0.0442711003f, -0.00483652763f,
    0.00799977314f, -0.00674278615f, 0.0105528971f, -0.0755420476f, -0.0285234805f, 0.0419248752f, 0.0612691641f, -0.0738287568f,
    -0.0550251901f, 0.0299506094f, -0.00262398412f, 0.0465510599f, -0.0431442112f, -0.0532585494f, 0.099786438f, 0.0631633699f,
    0.0104473997f, 0.0120977536f, -0.107639648f, 0.0457307994f, -0.0539090373f, -0.0282389745f, 0.100459814f, 0.0822596475f,
    -0.0705901459f, 0.00756018888f, 0.0722877607f, -0.0710013509f, 0.0666958168f, -0.0745743141f, 0.0191738382f, -0.0353990458f,
    -0.0744119585f, -0.0798059925f, 0.0139584458f, 0.0399668887f, 0.0148679717f, -0.0411931612f, 0.0262183733f, -0.066428706f,
    -0.0564718582f, -0.006913397f, 0.00301518477f, -0.0650897697f, -0.0335050672f, 0.0377861299f, 0.00984375831f, -0.015812695f,
    -0.034877535f, -0.101287723f, 0.025166912f, 0.0549659282f, -0.0194165818f, 0.0696008131f, 0.00102510909f, 0.015682688f,
    -0.0136566544f, 0.110028915f, 0.0901414901f, -0.017533442f, -0.0885880142f, 0.0106080379f, -0.0424379967f, -0.0389205217f,
    -0.043172814f, 0.0434022956f, -0.000495711225f, -0.103378572f, 0.0110631455f, -0.0598578826f, -0.0466636829f, 0.0025221773f,
    -0.106212534f, -0.0213226788f, -0.06444031f, 0.0165715218f, -0.0341285877f, -0.00927952863f, 0.103228047f, 0.0254689865f,
    -0.0186100975f, 0.0116671296f, -0.007082575f, -0.0724110156f, 0.037455786f, 0.0496868677f, -0.0669605061f, -0.00834930688f,
    -0.063904345f, -0.00178456481f, -0.0667267516f, 0.0905760601f, -0.0777920559f, -0.100053228f, -0.0524613038f, 0.0753653795f,
    -0.0423452556f, 0.0598064102f, -0.0203035045f, 0.0569786988f, -0.00868521444f, -0.0343009867f, -0.0146147618f, 0.0220063981f,
    0.0338354185f, -0.100832328f, -0.043287795f, 0.0609886162f, -0.0105773909f, 0.0511276312f, -0.0718591809f, 0.076895766f,
    0.044557441f, 0.0108840782f, -0.00899705384f, -0.0540556386f, 0.0256646015f, -0.0223411974f, -0.0289356764f, 0.00518724276f,
    -0.121885531f, 0.0252358895f, -0.0281435382f, -0.0292147342f, 0.0282679964f, -0.130733758f, 0.097001642f, 0.121760607f,
    0.016979441f, 0.0120358774f, -0.00656119687f, -0.0749161318f, -0.00440561539f, 0.102500148f, -0.0708221048f, 0.0692779422f,
    -0.0744416788f, -0.0202451479f, 0.0630360097f, 0.10386093f, 0.038750764f, 0.0248760115f, 0.00473008072f, 0.0260557663f,
    0.0138070444f, -0.0776572675f, 0.012664088f, -0.0123774884f, 0.0469561927f, 0.0613107085f, 0.131102577f, -0.080537729f,
    0.0288145524f, 0.0428583175f, -0.013655534f, 0.0982519537f, -0.0821408778f, -0.0153090442f, -0.137004018f, 0.00197750912f,
    -0.0402028486f, 0.0728423148f, -0.0961711928f, -0.0163655337f, -0.0624990873f, 0.0345675386f, 0.0210225638f, 0.0444748923f,
    -0.0297735352f, 0.0177160166f, 0.0118555408f, 0.129481837f, -0.0172836799f, -0.00690971222f, 0.0113286721f, 0.0188967381f,
    -0.00952801108f, 0.0140142953f, 0.0296308231f, 0.0164942406f, 0.028372325f, 0.0569034964f, 0.0241615772f, 7.36421061e-05f,
    0.00278291549f, -0.0679276213f, -0.0436774157f, 0.0945658386f, 0.00479341531f, 0.00652822386f, -0.0730063766f, 0.0796853006f,
    -0.0646005794f, -0.0272925477f, 0.00717177987f, 0.0920336768f, -0.062129803f, -0.0547920689f, 0.0209896546f, -0.0757235512f,
    0.0196245089f, 0.0261957832f, -0.0689134076f, 0.00830350164f, -0.0614581555f, 0.0756471008f, -0.0253085829f, 0.0825252607f,
    -0.0815748423f, 0.0529126972f, -0.0204956308f, 0.037285991f, -0.0374361947f, 0.00388238393f, 0.000614517194f, 0.0461873785f,
    0.0777387619f, 0.0242855549f, -0.0668290928f, -0.0539955981f, -0.0238739178f, -0.0568871573f, -0.0556117967f, -0.0319811851f,
    -0.0561825857f, -0.00477792509f, -0.0104308929f, 0.0454774089f, -0.0333624184f, -0.0487504639f, -0.00152243546f, 0.0245115347f,
    0.0381665677f, -0.0139134377f, -0.0366481952f, -0.0737449452f, 0.131356001f, 0.0357471034f, -0.0396216027f, 0.0240458567f,
    0.0464083552f, 0.015520229f, -0.0657110959f, -0.0286744349f, -0.0613572113f, -0.0885109752f, -0.102631398f, -0.065901503f,
    -0.0102617852f, -0.0284063928f, -0.097573407f, -0.0987966582f, -0.0790983811f, -0.0632673949f, -0.0107284831f, -0.0634091124f,
    0.00975984801f, -0.0236925315f, -0.118576944f, 0.00413870579f, 0.00631958945f, -0.04792808f, -0.0479665883f, -0.00865733903f,
    0.0604939125f, 0.0820119753f, 0.0432755612f, 0.0392294712f, -0.0839446411f, 0.0174567811f, 0.069972828f, 0.0203861464f,
    -0.0800209343f, 0.109509923f, -0.0296676345f, 0.0204947386f, -0.0469917357f, 0.0997020677f, -0.0509873927f, 0.175701544f,
    0.00130244403f, 0.0754655749f, -0.0738589466f, 0.0905154794f, 0.0598283149f, -0.0113033913f, 0.0998657867f, 0.116342366f,
    0.123513177f, 0.0558717884f, 0.0957461745f, 0.036706347f, 0.00132530148f, 0.0105071878f, 0.0397528261f, -0.109298222f,
    -0.0540925749f, -0.124816231f, 0.0270692762f, 0.00855236035f, -0.0244297218f, -0.0926438272f, -0.0216464587f, -0.0898455828f,
    -0.0305825677f, 0.0606518909f, -0.0187788457f, 0.0606214963f, -0.0278711058f, -0.00341714546f, 0.0136662498f, 0.0622575805f,
    0.00769353705f, -0.0453439914f, 0.0169093125f, -0.0219453238f, 0.0561542735f, 0.0173218641f, -0.104362562f, -0.0165521111f,
    -0.047727149f, -0.061793711f, 0.119482845f, -0.008644755f, -0.096183151f, 0.00115993584f, 0.0400227495f, -0.0148927644f,
    -0.0170369949f, -0.0495010242f, -0.0147404112f, 0.00329068699f, 0.0141193857f, -0.0202785786f, 0.0673329309f, -0.153304785f,
    -0.0134963281f, -0.0450667776f, -0.0494983047f, -0.0596049018f, -0.0730052888f, 0.0686125457f, -0.00277119759f, 0.108569331f,
    -0.124268204f, 0.0960763097f, -0.0909824222f, -0.0440635942f, -0.00330624846f, 0.019832056f, 0.00820378214f, -0.0706217811f,
    0.115601674f, -0.00325793936f, -0.0711514801f, 0.0246365666f, -0.0419533029f, 0.0424269065f, -0.103227161f, -0.0874626637f,
    -0.031876307f, -0.0622503608f, 0.0259241089f, 0.00868490338f, -0.0833708048f, -0.0511912368f, 0.0613560267f, 0.00336815743f,
    0.0238193199f, -0.0917447731f, 0.0421061441f, 0.0835573152f, 0.0232539121f, -0.0756664351f, -0.0631714463f, -0.0654979274f,
    -0.0761437342f, -0.0788874999f, -0.000897255493f, 0.0224406086f, 0.0833711773f, -0.0185897257f, -0.0333765149f, 0.0700104609f,
    0.0311952345f, -0.0523090847f, 0.073747538f, 0.0469008759f, -0.0343038701f, 0.0141391596f, 0.0292016119f, 0.0842880979f,
    0.0252008922f, -0.0718443841f, 0.073081784f, 0.0381649807f, -0.0231673717f, 0.0141977705f, 0.0699669123f, -0.0537374802f,
    0.0379864573f, 0.0669228584f, 0.0322233438f, -0.0869421139f, -0.113871656f, -0.0696243122f, -0.0648742318f, -0.0162166264f,
    -0.0920337141f, -0.110515155f, -0.026353078f, -0.0129790651f, 0.0879502296f, 0.0448498465f, 0.0692790151f, 0.0102689257f,
    0.0259531438f, -0.123882338f, 0.069489494f, 0.0620182343f, 0.0831557587f, 0.0128698032f, 0.0445005484f, -0.120213091f,
    -0.0988390446f, -0.0132279573f, -0.00088767847f, -0.0361354575f, 0.0194486193f, -0.1479799f, -0.0269034095f, -0.0545809865f,
    -0.0886996165f, -0.105602697f, -0.113553002f, -0.00285548414f, -0.0120147439f, -0.088435106f, -0.0668258667f, 0.074099198f,
    0.0414622091f, 0.00771822734f, -0.024132425f, 0.0375636853f, 0.102345861f, 0.057554394f, -0.0344409682f, 0.0257079732f,
    -0.0510430336f, -0.0594650991f, -0.0428321362f, -0.0681526065f, -0.0284893028f, -0.0270916801f, -0.0789281055f, -0.0540358126f,
    0.0226636026f, 0.0273182131f, 0.00750939222f, 0.0233250931f, 0.0938328877f, 0.0195977539f, 0.0267147813f, 0.0835923254f,
    0.0484710597f, -0.00896944571f, -0.098990351f, -0.0503024012f, -0.0196883343f, 0.00601050118f, -0.159559891f, 0.0462897718f,
    0.0331370793f, 0.0041658259f, -0.0913833827f, -0.0271825437f, -0.0382182002f, -0.100104325f, 0.013757525f, -0.0219303407f,
    -0.0304503907f, -0.0309679639f, 0.0329504982f, 0.0779438987f, 0.0943358392f, -0.0185046326f, 0.0121678896f, -0.146897569f,
    0.0996199623f, -0.140868723f, -0.0494286008f, -0.00424465071f, 0.0128025692f, -0.0340526514f, 0.0217525866f, 0.0404543541f,
    -0.0126614003f, -0.0431947857f, -0.109691843f, -0.0820321143f, 0.00504341302f, 0.00167753315f, -0.0350894295f, 0.0393389016f,
    0.0570624918f, 0.0895904303f, -0.0110954661f, 0.0277686156f, -0.0241163429f, -0.00108074804f, 0.0754119605f, 0.0289020389f,
    0.107911244f, 0.0447423458f, -0.00885624439f, -0.0382479653f, -0.077340655f, 0.0544893406f, -0.012269184f, -0.0274035726f,
    0.0731719136f, 0.0886583254f, 0.0488194898f, 0.0107723577f, 0.0357425734f, -0.0479387008f, 0.045013722f, 0.0369039699f,
    -0.0235744808f, -0.0484545454f, -0.0636561662f, -0.0411879495f, 0.0728372559f, -0.0598166473f, -0.0871489346f, 0.0502531268f,
    -0.0814708993f, -0.0131305186f, 0.0242068116f, -0.0878145024f, -0.141204581f, -0.0375126898f, 0.0741111338f, -0.0560875647f,
    -0.0197908748f, -0.0255210269f, 0.0983391926f, -0.077241838f, -0.00841785036f, -0.0542355478f, -0.131495506f, -0.00818584859f,
    -0.0842724964f, 0.0547797047f, -0.120409451f, -0.0529085621f, 0.0250187088f, 0.0917651206f, 0.0342882536f, 0.00906788465f,
    0.00086913316f, 0.0222384278f, -0.0783863962f, -0.0408938713f, 0.00757938949f, 0.0113037163f, -0.00710287364f, -0.00962338597f,
    0.0520979799f, 0.102419034f, -0.0679673627f, 0.0101088379f, -0.0316608436f, 0.0112738619f, -0.00397747057f, 0.0438476019f,
    -0.0693127438f, -0.00199373253f, -0.0040176739f, 0.0971571654f, 0.0291669704f, -0.0536371954f, 0.063786611f, 0.000233816012f,
    0.0577758215f, -0.0393820517f, 0.00325018377f, 0.0217366312f, 0.0981531516f, -0.00586350542f, -0.0451372638f, 0.12141674f,
    0.0210365318f, -0.0516823418f, 0.00748560159f, 0.0448299721f, -0.00855832361f, 0.0571316034f, -0.0217520073f, -0.0177579764f,
    -0.0664138794f, 0.0628998056f, -0.00590046542f, -0.123940364f, -0.0411903784f, 0.0335015506f, -0.0922965854f, 0.00436564442f,
    0.0655063167f, -0.0252972227f, -0.0700763017f, -0.062349733f, -0.0229551829f, -0.0986013412f, 0.04328591f, -0.0746540874f,
    -0.108975023f, 0.012709192f, 0.102488622f, 0.113074064f, -0.00101339421f, -0.0715061203f, -0.0196265336f, -0.024398338f,
    -0.0141059663f, 0.0202150717f, 0.0219631158f, -0.0599450096f, -0.0746722519f, -0.00374601875f, 0.0897487327f, -0.148652077f,
    0.0214826744f, -0.0532836504f, 0.0355124101f, 0.0807157382f, 0.011873032f, 0.0270304922f, -0.0595323369f, 0.0024139767f,
    0.0857398212f, 0.0174533743f, 0.0017184061f, 0.0316968635f, -0.000470740808f, -0.0683985278f, -0.0466938205f, -0.0599418283f,
    -0.107802384f, 0.0034358853f, -0.0484279841f, -0.139904037f, -0.0110844588f, 0.0553818718f, -0.085184902f, -0.0496509708f,
    -0.0060699f, -0.0424242392f, 0.0266555585f, 0.0505053475f, -0.0656972602f, -0.0465612859f, -0.041241955f, -0.0240272917f,
    -0.0727205202f, -0.0787767246f, -0.0787299499f, -0.00196633348f, -0.0401950814f, -0.083336845f, -0.0504336171f, 0.0293845106f,
    -0.00635633478f, -0.0721191019f, 0.0108404877f, 0.0445011817f, -0.00100095314f, -0.0281770788f, 0.0236461498f, 0.0102699501f,
    -0.00945008919f, 0.0593251623f, 0.0874168947f, -0.0236272719f, 0.0591126718f, 0.0745196044f, -0.00200970075f, 0.0482363999f,
    0.00376782683f, -0.0759866014f, 0.0554486588f, 0.0392506979f, 0.0348495394f, 0.0605008341f, 0.0102533596f, -0.0757595673f,
    0.0201718062f, -0.0154772885f, 0.0167671684f, -0.0158498194f, -0.0316065699f, -0.0800495073f, 0.102574959f, -0.0826136172f,
    0.0212502964f, 0.0213233326f, -0.141257346f, -0.104073755f, 0.0287484955f, 0.070629634f, 0.0262965504f, 0.0940405279f,
    0.0165028386f, -0.0809992328f, 0.0779869482f, -0.0323296599f, 0.00462137116f, -0.0311233774f, -0.0696083233f, -0.0696369559f,
    -0.119061098f, -0.101652548f, -0.0591771603f, -0.135495603f, -0.0808815584f, -0.000616643229f, -0.00727694435f, 0.0966397449f,
    -0.0442848504f, 0.0249487255f, -0.104452364f, -0.0505466908f, 0.0106645944f, -0.00291391974f, 0.0169038996f, 0.0342612788f,
    0.00544680888f, 0.0128008621f, 0.0189343188f, 0.100494288f, 0.107574485f, 0.107181333f, 0.0948579982f, 0.104216911f,
    0.103573158f, 0.035722781f, 0.120652221f, 0.0393445119f, -0.0634175315f, -0.105975792f, 0.00908831134f, 0.0267162491f,
    -0.0326119103f, 0.017396044f, 0.0953724533f, 0.0432026349f, 0.0131598404f, -0.0256419759f, 0.0261231158f, 0.0337131806f,
    0.146531418f, -0.0458638296f, -0.0451344624f, -0.016672425f, 0.0881011039f, -0.0633547232f, 0.0620306842f, -0.0400097221f,
    0.128466174f, 0.10304293f, -0.0164688285f, 0.00309474696f, -0.078689009f, 0.0543034114f, -0.00948990788f, -0.0286769886f,
    -0.0631270409f, 0.021027796f, 0.00148167007f, -0.0416121744f, -0.0471668243f, -0.0449350998f, 0.0831301287f, -0.0405200608f,
    -0.102832004f, -0.0826467574f, -0.0291650482f, 0.0585543253f, -0.0190836117f, 0.0685587972f, 0.0326367132f, 0.0307767056f,
    -0.0293014273f, -0.0346571095f, -0.0740565583f, -0.0284415819f, -0.00236093509f, 0.0819888189f, 0.0245570019f, -0.058600273f,
    -0.0563692078f, -0.0279738232f, 0.0669176728f, 0.0363704376f, 0.00455426751f, 0.0280905515f, 0.0255166013f, 0.00192374305f,
    -0.0565467365f, -0.0100149559f, -0.0774710923f, -0.0693796799f, -0.0819616988f, -0.0483932756f, -0.0400775969f, -0.0126035931f,
    -0.0599969812f, -0.0374534428f, -0.0708582699f, -0.0516598336f, 0.0656876713f, -0.0146367764f, -0.0291145612f, -0.126543358f,
    -0.0503261462f, -0.00700669643f, -0.0709988028f, -0.134497404f, -0.0309035219f, -0.0912115648f, 0.0247130692f, -0.0405853987f,
    -0.108510114f, -0.0604103506f, -0.0100501888f, 0.105811857f, -0.00208540238f, 0.0970094725f, -0.0292834509f, -0.00493517052f,
    0.0687454864f, 0.0228329953f, -0.0245951265f, -0.0320779718f, 0.102819011f, 0.0813642368f, -0.0732089803f, 0.00478563132f,
    -0.0231192261f, 0.0866277292f, -0.0405561216f, -0.0384423397f, 0.00420945929f, 0.042582579f, -0.141900912f, -0.0657861084f,
    0.0108853756f, -0.00188022084f, -0.0235637631f, -0.104827851f, -0.0350965075f, 0.000344131025f, 0.0821057707f, -0.0626752824f,
    -0.0665563866f, -0.0649743304f, 0.100284614f, -0.0310988743f, 0.0289579593f, -0.0268939957f, -0.0178004988f, 0.0209137555f,
    0.0551828928f, -0.0397773609f, 0.00278145587f, -0.0879999921f, 0.0425240137f, 0.00457012421f, 0.0712865666f, -0.0286357589f,
    0.0827390105f, -0.0439966246f, -0.0364365391f, 0.0168132689f, 0.00471753208f, 0.00480427872f, -0.0659624115f, 0.0421649888f,
    0.0717063099f, 0.0871006399f, 0.0291778613f, -0.0353659205f, 0.0210053381f, -0.0372440629f, -0.0672930181f, 0.077940315f,
    0.0920404717f, -0.0458885729f, -0.0681805462f, 0.0251050442f, -0.041970659f, -0.0583050027f, -0.015644474f, 0.0670010149f,
    0.041389212f, -0.10032507f, 0.0507006273f, -0.0608890094f, 0.0563745238f, -0.0322198309f, -0.0386697203f, 0.0348536186f,
    -0.00448600668f, 0.0498280786f, 0.0849433616f, -0.00928862952f, -0.130014583f, -0.00300269062f, 0.0988567472f, -0.0301142447f,
    -0.00123984017f, -0.0732222944f, 0.0572736189f, 0.0677099451f, 0.0249176379f, -0.0975157842f, 0.0245897602f, 0.033363048f,
    0.015073169f, -0.0194649827f, -0.126464367f, 0.0843852386f, 0.0882166848f, 0.109449454f, 0.0537508614f, 0.0632100105f,
    0.0780929402f, -0.037468344f, 0.0395498723f, 0.13367793f, 0.0738677904f, 0.0452501215f, 0.0257030111f, 0.0340835601f,
    0.0512996949f, -0.0489839502f, 0.0120738596f, -0.0577713251f, 0.0815909877f, 0.101909041f, 0.000289615622f, 0.00573762041f,
    -0.0852815732f, 0.0948691964f, -0.0483024269f, -0.00366498437f, 0.00284341816f, 0.00335287885f, 0.0763079748f, -0.01516122f,
    0.0532371178f, -0.0181817934f, 0.0689282492f, 0.135669798f, -0.0807351992f, 0.0518229827f, 0.019267166f, -0.00534564909f,
    0.136391208f, -0.0620582588f, 0.00747357821f, -0.020055173f, 0.0879432261f, -0.0793289021f, 0.117792994f, 0.0103010898f,
    -0.0933607966f, 0.0341373198f, -0.11556536f, -0.0763392821f, 0.0539030097f, 0.0966442823f, -0.0538600981f, 0.0451177396f,
    0.0319318287f, -0.063275829f, -0.0339372046f, 0.0237940159f, 0.0256381109f, 0.0354358889f, 0.0287088566f, -0.048170004f,
    0.0169237256f, -0.0442957506f, 0.0523967966f, 0.0661486387f, 0.0426517017f, -0.0025265005f, -0.0720578134f, -0.0319191329f,
    0.0286879744f, -0.00171207055f, -0.011719591f, 0.0480625033f, -0.0382746905f, -0.06897185f, 0.0611886643f, 0.0378923677f,
    0.0281793177f, -0.0461644419f, -0.0729505122f, -0.0217427146f, 0.0370313227f, -0.0349477008f, -0.0416640565f, -0.045331195f,
    0.0915227681f, 0.0261960421f, -0.05880877f, -0.0570145771f, 0.0267599914f, 0.0230297577f, -0.0235867519f, 0.0755958259f,
    0.12233115f, -0.0992886424f, -0.151401713f, -0.0584436357f, 0.0794182867f, -0.0452658385f, -0.0340059772f, -0.0750047341f,
    -0.0135266017f, -0.0146152889f, 0.0379853323f, -0.00461564818f, -0.0651526004f, 0.124159388f, -0.0786473602f, -0.00809761789f,
    0.0863473713f, 0.0123575618f, -0.0378038473f, -0.0491792262f, -0.0211274698f, -0.0553207733f, -0.0221407227f, 0.0650248975f,
    -0.00708894385f, -0.00196026568f, 0.143549085f, 0.0709235147f, -0.0568174087f, 0.0470283926f, 0.00461754901f, -0.0597061515f,
    0.00401778426f, -0.0661354735f, 0.139967367f, 0.0432667434f, 0.00294853677f, -0.0154968388f, 0.120485574f, 0.0504403114f,
    -0.0167611409f, -0.0633230656f, 0.14595452f, 0.0234251283f, -0.0382920727f, -0.0772016943f, 0.050534904f, 0.073494561f,
    0.0263509806f, 0.0603369698f, 0.0620743893f, 0.0447269157f, 0.0424988791f, -0.0753896609f, -0.0355936214f, -0.0742145926f,
    -0.0143273184f, 0.0577717125f, 0.0281462558f, -0.102987871f, 0.103163436f, 0.0376199111f, -0.131920293f, -0.102262944f,
    -0.000878017221f, -0.0640885904f, -0.115270488f, 0.0352345109f, -0.0561610311f, -0.0168207772f, 0.102763139f, 0.0660465583f,
    0.0520697571f, -0.0587176904f, 0.0588660799f, 0.0268159639f, -0.0205313377f, 0.10672798f, 0.0447529107f, -0.0952573493f,
    0.0666129887f, -0.0754392445f, -0.0272271596f, -0.0398810655f, -0.0281376019f, 0.0899526104f, 0.0789816603f, 0.0611697771f,
    0.0572152883f, -0.0308874957f, 0.0713291466f, -0.0575653426f, 0.111696675f, -0.00527789118f, -0.00224042311f, 0.00286968984f,
    0.0331072733f, 0.00802501943f, -0.104529202f, 0.0331764556f, -0.00198988896f, -0.0514464304f, 0.0185379144f, -0.0505972393f,
    0.0566424802f, -0.00613285415f, -0.0272819009f, 0.015073318f, -0.0680077747f, -0.0699355975f, -0.0828757659f, -0.0200621225f,
    0.0451298431f, 0.0348679572f, 0.0909459963f, 0.076543048f, -0.0108958827f, -0.0371586047f, -0.0835450739f, 0.0259426795f,
    -0.0310983919f, -0.0315055326f, -0.0807887167f, -0.0196238104f, -0.000911073759f, -0.0306759626f, -0.0108358702f, -0.0085175354f,
    0.105939552f, 0.00176588923f, -0.107514568f, -0.0348078832f, -0.00145402958f, 0.0359787308f, -0.100792706f, 0.0314686373f,
    -0.0488979332f, -0.0820516869f, -0.0125371702f, -0.0205715541f, -0.0192616079f, -0.0527238883f, -0.0666872263f, 0.0533836186f,
    -0.0102582313f, 0.106035545f, 0.0149876261f, -0.0200560857f, -0.125217557f, 0.0237036161f, 0.0889092311f, 0.0570564754f,
    -0.142379254f, -0.0796616524f, -0.00536816288f, 0.00568263792f, -0.0643144399f, -0.00429520244f, -0.0106254518f, -0.0401272438f,
    -0.0551236086f, -0.0761602297f, 0.0542065501f, -0.00421109796f, 0.017836934f, -0.00616161339f, -0.020420447f, -0.0568233244f,
    -0.0688592941f, -0.0474523418f, -0.044176314f, -0.00216259737f, -0.0672233477f, 0.0131684383f, -0.0256123208f, -0.0770269036f,
    0.0435486175f, -0.0730618462f, -0.033525113f, -0.0296028871f, -0.0232237745f, 0.0430768766f, -0.0745877698f, 0.0187940709f,
    -0.0149229001f, 0.0238164142f, 0.0523748994f, 0.0379893705f, -0.0119508104f, 0.0472791493f, -0.158861727f, -0.0704403147f,
    -0.00712574646f, -0.00831376016f, 0.0233293679f, -0.0592794493f, -0.0157687962f, -0.117217779f, -0.0397989005f, 0.0342565253f,
    -0.0863371864f, 0.00978496391f, -0.108161502f, -0.0170797855f, -0.00218749675f, -0.0818545222f, 0.104781449f, 0.0692566186f,
    -0.0902843475f, -0.0120482985f, -0.0476238206f, -0.0597161949f, -0.00765709812f, 0.113865659f, -0.102658942f, -0.019641934f,
    0.0157543197f, -0.0198733043f, -0.0308247395f, 0.0593878143f, 0.0415698364f, -0.0319744684f, -0.00600338029f, 0.00180994556f,
    0.0317320712f, 0.00569046941f, -0.0196711812f, 0.0896720588f, 0.0171729159f, 0.0220405348f, -0.0785098821f, 0.0339818113f,
    0.00717392331f, -0.0953809023f, -0.0438886993f, 0.0971045047f, -0.0368547812f, 0.0806048661f, -0.0488855615f, 0.0104602333f,
    0.0773839727f, -0.0373462774f, 0.0643677786f, -0.0876276642f, -0.0870212913f, -0.0690097511f, -0.0774246156f, 0.054430183f,
    -0.102728464f, 0.00838300865f, -0.032150995f, -0.0551485494f, -0.00720713334f, -0.0785520226f, 0.132269144f, -0.00314040389f,
    -0.019080624f, -0.0537685454f, -0.0450408831f, 0.0220167767f, -0.043671079f, 0.0929190591f, -0.0535179488f, 0.0321478061f,
    0.0380441323f, -0.0403464064f, -0.0242965966f, 0.0590085611f, -0.096226722f, 0.0427913517f, -0.020592222f, -0.0272409692f,
    -0.0144162951f, -0.0214553103f, 0.0649463311f, -0.021762345f, -0.00490386318f, 0.0408508927f, 0.101695418f, -0.0436604656f,
    -0.144955412f, -0.0221340209f, 0.0410703979f, 0.0193453692f, -0.0824904665f, -0.00678446237f, -0.152568415f, -0.0876365155f,
    -0.0308009703f, -0.0662191138f, -0.0769718736f, 0.0591755398f, 0.16092068f, 0.0626581013f, 0.0647163466f, 0.084441036f,
    0.0519996844f, 0.0475604907f, 0.0765655562f, 0.0525114052f, -0.0751272961f, 0.0373198055f, -0.0138327181f, 0.0207888149f,
    0.0258400086f, -0.0754844025f, -0.016216306f, -0.0779250711f, 0.149343506f, 0.0312406048f, 0.0470437482f, -0.0695067272f,
    -0.0336096846f, -0.0483446158f, -0.0580937676f, 0.066698648f, -0.0703215599f, 0.0861023664f, 0.0140660154f, 0.0508460812f,
    0.0380300991f, 0.0676126927f, 0.0212248787f, 0.0109245451f, -0.0999773294f, 0.0328148603f, -0.029916143f, -0.00828384049f,
    0.0446298346f, 0.045575045f, -0.0488378517f, 0.0277928486f, 0.0713529065f, 0.0660155639f, 0.109242335f, -0.0426564999f,
    -0.0733921602f, -0.0146736111f, -0.00673520984f, -0.0731495768f, 0.019690359f, -0.0901900232f, 0.0182663314f, 0.0265655629f,
    -0.0510660149f, 0.0455234647f, -0.0565298796f, 0.019392591f, -0.0469669029f, -0.0359525494f, 0.0195156578f, -0.0468241423f,
    -0.086688228f, -0.0507782251f, 0.00247841817f, -0.0294505209f, -0.0929134861f, -0.0286456812f, 0.0351352841f, -0.0382960886f,
    0.0767931268f, 0.0387609527f, -0.0341422558f, -0.06160108f, 0.0376746692f, -0.0272259731f, -0.0620822124f, -0.000871391385f,
    -0.0177195184f, -0.0176257268f, -0.0516486503f, 0.0169888865f, -0.0657466426f, -0.124466971f, -0.0657610148f, -0.127307549f,
    -0.0446254164f, 0.0255135782f, -0.115107991f, -0.108293302f, -0.0410965122f, 0.0690742731f, 0.0275078006f, -0.0379672274f,
    -0.0261073112f, -0.0908980668f, -0.0177278779f, -0.0271908026f, 0.0490294211f, 0.039179001f, -0.0553375296f, 0.0413112491f,
    0.0135870883f, 0.0878803805f, -0.0112868585f, 0.0133920982f, -0.0325546674f, -0.0690596253f, -0.0355832651f, 0.073013179f,
    0.0554939695f, 0.0247187559f, 0.0888116062f, -0.0968322754f, 0.0225475281f, 0.0214677639f, -0.0148353567f, 0.0671506673f,
    -0.035970889f, -0.0073755444f, 0.0223934166f, -0.0109860525f, -0.0495201163f, 0.0211802088f, 0.115491085f, 0.0588238239f,
    0.0937627405f, -0.0205091722f, 0.0737827346f, -0.0207606982f, 0.0713125244f, -0.0552318618f, 0.0877448767f, -0.0365919843f,
    0.0132561969f, -0.0604683533f, -0.0167315193f, 0.0386674777f, -0.0548979007f, -0.0696540773f, 0.00203476404f, 0.0260594338f,
    -0.0292423833f, -0.0399718732f, -0.0267211422f, 0.0668802038f, -0.0293675829f, -0.0565125607f, 0.0162579175f, -0.0833968371f,
    0.0331777595f, -0.013937356f, -0.00451582065f, -0.0621274449f, 0.0175046846f, -0.0563934036f, -0.0140402718f, -0.0578855015f,
    -0.0318781696f, -0.152326241f, 0.0914053917f, 0.0924021602f, -0.0764754042f, -0.0735248476f, -0.0330018736f, -0.0931921601f,
    -0.127764508f, 0.00627864245f, 0.0547794066f, -0.00286601367f, -0.0980089977f, 0.0147844665f, 0.0288799182f, -0.127169654f,
    -0.0622332878f, 0.00316661759f, -0.0532445014f, -0.0416793264f, -0.0783212632f, 0.0459021516f, -0.0133432448f, 0.0185484514f,
    -0.0814805105f, 0.0675301552f, -0.0514471605f, -0.0223872345f, -0.00753103057f, -0.0437214859f, 0.0551554076f, 0.00275740493f,
    0.0266400613f, -0.05199131f, -0.112472184f, 0.0458600484f, 0.0627192631f, -0.0173488688f, -0.0636753291f, 0.0509673059f,
    -0.025534166f, 0.0329283141f, 0.00994720031f, -0.0263910219f, -0.0442183949f, 0.00153826713f, 0.0656617507f, 0.0101120695f,
    0.0364960246f, -0.0761489868f, -0.00578165799f, 0.0342576392f, 0.0360958278f, -0.012786895f, -0.124929979f, -0.0446850844f,
    0.0313341692f, -0.0118159205f, 0.0365040638f, 0.100481085f, -0.00710416725f, 0.00416216766f, -0.0336646922f, -0.0595281385f,
    -0.011117111f, -0.00704131369f, 0.0129092196f, -0.00966759585f, 0.0167628825f, 0.0438967794f, 0.0314649232f, 0.045243971f,
    -0.0254040789f, -0.00927862152f, 0.0654813349f, 0.0837341025f, -0.0865487084f, 0.0146386037f, -0.0810936913f, -0.0395549089f,
    -0.00353861204f, 0.123775944f, 0.121465266f, -0.129840806f, -0.0688207448f, -0.0958059728f, -0.0602470301f, -0.0742428303f,
    -0.134221464f, -0.123756401f, -0.119090565f, -0.0346742868f, 0.0454785414f, 0.0190117005f, 0.0171531681f, -0.0258986298f,
    0.0557834767f, -0.122651234f, 0.0511752665f, 0.154822052f, 0.0364983641f, -0.0424131788f, -0.166985095f, -0.147448137f,
    -0.0296095908f, -0.0351896808f, -0.0114837317f, 0.0289942157f, -0.0797332376f, -0.0548968986f, -0.0772713423f, -0.067692861f,
    -0.211037889f, -0.102446347f, -0.078702651f, -0.0113144116f, 0.0357463732f, -0.116309352f, -0.0012188754f, 0.0468193702f,
    0.0644604042f, -0.015934458f, -0.0411212631f, 0.0287760738f, 0.0332152136f, 0.0688195825f, -0.0334780514f, 0.0182041544f,
    -0.00904903375f, 0.0487980135f, -0.0576198585f, -0.00766410865f, 0.0560818985f, -0.0028419327f, -0.130946666f, -0.0181395877f,
    0.0411321595f, 0.139563888f, -0.0701563954f, 0.0690695643f, -0.0471849516f, 0.0247744918f, 0.0228611175f, 0.0508640297f,
    0.0157132186f, 0.043796733f, -0.0781014413f, -0.0885143355f, -0.0230107866f, 0.0587070324f, 0.0213702153f, 0.0622116476f,
    -0.0547080003f, 0.111757763f, -0.0191893782f, 0.0519085899f, 0.0802619904f, 0.00533562573f, -0.0107929586f, 0.0749431029f,
    -0.0357622579f, -0.0160864405f, 0.0130213294f, -0.0516352504f, 0.0323295929f, -0.0644513369f, 0.00530609721f, 0.0458261631f,
    -0.0311300922f, -0.0730546787f, 0.0339592099f, 0.0100201163f, 0.0354638435f, -0.00781365577f, -0.054918617f, 0.112244248f,
    0.0403569527f, -0.0110162636f, -0.112755775f, -0.00294108246f, -0.00530325994f, -0.101128727f, -0.0916525647f, 0.0345991217f,
    0.0789064541f, -0.0772483945f, -0.00618724478f, 0.0490328409f, -0.0325495377f, 0.00847614743f, 0.0118798949f, -0.0704845488f,
    -0.070491381f, 0.0389805064f, 0.0445945077f, -0.0581379421f, -0.099426128f, -0.0855559036f, 0.0899655968f, 0.0711641237f,
    0.0538018383f, -0.0219229814f, 0.0127147138f, 0.00974663161f, -0.0431183167f, 0.0946451277f, -0.00395267131f, -0.00800253171f,
    -0.0122270053f, -0.0597762242f, 0.0197380837f, -0.113529488f, -0.0720233619f, -0.0511848815f, -0.0907322019f, -0.0539762713f,
    -0.0396376364f, 0.0789097995f, -0.0410997421f, -0.0106993923f, -0.0494621657f, 0.0054958188f, 0.00806270912f, -0.0197011307f,
    0.0915588588f, 0.0640212893f, 0.0100622186f, -0.00169573771f, -0.0559791513f, -0.0864168331f, -0.104508772f, -0.0820530653f,
    -0.079525575f, 0.0169015732f, 0.000296983606f, -0.104902878f, 0.0550900176f, 0.0298795458f, -0.0599548817f, -0.0159042329f,
    0.0723168775f, -0.0502337813f, 0.000895364676f, -0.0150880488f, 0.0277757477f, -0.00705347117f, -0.0854419321f, -0.0551329143f,
    0.101525478f, -0.0281772241f, -0.0322063677f, 0.0391789824f, -0.0335448086f, -0.0964358002f, -0.131322563f, 0.139814034f,
    -0.0828212723f, -0.126402959f, 0.0223560557f, 0.101200245f, 0.0237719063f, -0.015449319f, -0.0136788096f, 0.0568643175f,
    0.0852568448f, -0.0864755362f, 0.0342665054f, 0.0412050001f, 0.0806821957f, 0.0734182447f, -0.0634162948f, 0.0613868311f,
    0.0946642682f, 0.0311630219f, 0.0378981307f, -0.0245117564f, 0.0533946604f, -0.0335489921f, -0.0845049545f, -0.0500834286f,
    -0.0342576355f, -0.0794555023f, -0.0577530898f, -0.148673743f, 0.00642136019f, -0.0100857243f, -0.0692421868f, -0.105292179f,
    0.0209791977f, -0.0110760322f, 0.0336799324f, -0.0170866046f, 0.0069689271f, -0.0889360309f, -0.0335598476f, -0.013592856f,
    -0.11155951f, 0.0725774243f, 0.033034306f, 0.0333910026f, -0.0509205647f, -0.0552711338f, -0.0197958108f, -0.0123447701f,
    0.0123172551f, -0.0379695445f, 0.141769677f, -0.00959897973f, -0.0400234684f, 0.0382241271f, 0.19445312f, -0.173332661f,
    0.00966376904f, -0.00376945129f, 0.177991286f, 0.0334615521f, 0.063967675f, -0.0528951362f, 0.073257938f, 0.026679663f,
    0.0866228789f, 0.0121590365f, 0.0364105664f, 0.0722103938f, 0.0233497489f, -0.001389193f, -0.0141640529f, -0.00280617434f,
    -0.00981808081f, 0.0508476868f, 0.0889527053f, -0.100328825f, 0.0440378711f, 0.0322162844f, -0.00225126441f, -0.0168170035f,
    0.012994647f, 0.0939323306f, 0.0116134258f, 0.0156647637f, -0.0544585772f, -0.0709108114f, -0.0256393924f, -0.111203328f,
    -0.0929602236f, 0.05815221f, 0.0287811607f, -0.047445111f, -0.115451738f, 0.023698343f, -0.112793297f, 0.00577094499f,
    -0.0747840032f, 0.0746210143f, -0.0132501647f, -0.0313743204f, 0.0506317951f, 0.0960713401f, 0.026908936f, -0.11024759f,
    -0.00960770808f, 0.0976599306f, -0.0327052213f, -0.0130860126f, -0.0290834941f, 0.0353661738f, 0.095137015f, -0.0120681589f,
    -0.0575076863f, 0.0573064461f, 0.0308169723f, -0.0637571588f, 0.0785815343f, 0.102710679f, -0.0600718744f, -0.0578821041f,
    0.0820106938f, 0.0429436229f, -0.00369481137f, 0.0921940207f, 0.0215101019f, -0.0489921346f, -0.00827297755f, 0.0248415526f,
