// Auto-generated weights header
#pragma once
#include <cstddef>

// CONV2D conv kernel shape (3,3,1,12)
static const float CONV2D_KERNEL[] = {
    -1.11798987e-01f, 5.09171724e-01f, 1.36993051e+00f, 1.55059397e+00f, 1.10498476e+00f, 9.08254564e-01f, -1.30089891e+00f, 5.74330688e-01f,
    1.03530817e-01f, -2.17108145e-01f, 9.72768247e-01f, 1.15852249e+00f, 4.49002177e-01f, 3.15925193e+00f, 3.93868774e-01f, -4.46406566e-02f,
    2.06263497e-01f, -7.99252868e-01f, 1.48083627e+00f, -2.20356703e+00f, -1.10983181e+00f, 1.05459273e+00f, 5.32230064e-02f, -1.27794933e+00f,
    1.30114317e+00f, -2.44638753e+00f, -7.32916221e-02f, 1.47348273e+00f, -3.56382996e-01f, 6.98345661e-01f, -2.57955521e-01f, -1.74593425e+00f,
    1.80432528e-01f, 1.37876427e+00f, -6.04757369e-01f, 1.73507071e+00f, 1.70805621e+00f, 7.45269537e-01f, 8.99170160e-01f, -9.88957733e-02f,
    -3.59469920e-01f, -5.32047391e-01f, -1.90642327e-01f, 2.44752932e+00f, -1.77952576e+00f, 8.20472121e-01f, 9.33643937e-01f, 1.40515220e+00f,
    -1.68201327e+00f, 2.96425295e+00f, -5.89205086e-01f, -9.15056586e-01f, -1.05202782e+00f, -4.06497449e-01f, 1.35273993e-01f, 2.58719683e+00f,
    9.30925190e-01f, -5.10772586e-01f, 4.80057389e-01f, -1.45260358e+00f, -1.08574188e+00f, -2.69587708e+00f, -3.80882561e-01f, -7.26077676e-01f,
    1.89975664e-01f, -1.20736217e+00f, 9.96428907e-01f, 8.15536201e-01f, -1.76655710e+00f, 4.53891098e-01f, -1.12556362e+00f, -3.48499447e-01f,
    -2.99494267e-01f, 2.07498264e+00f, 6.87591672e-01f, -1.82182384e+00f, -4.50920105e-01f, -7.68028021e-01f, 3.98594975e-01f, -1.42129660e+00f,
    1.86560678e+00f, 5.18793523e-01f, 1.00083542e+00f, -1.26676869e+00f, -1.21465015e+00f, -3.14979696e+00f, 1.57736287e-01f, 1.01221383e-01f,
    -7.23262668e-01f, -1.13314971e-01f, 7.61163592e-01f, -1.51555586e+00f, 7.05281198e-01f, -1.47592217e-01f, -1.67777747e-04f, -1.35649705e+00f,
    -2.42051944e-01f, 2.96182066e-01f, -9.37639102e-02f, 1.43049288e+00f, -2.04090431e-01f, 5.89445591e-01f, -4.07100506e-02f, 1.90876639e+00f,
    3.14230108e+00f, -1.18199265e+00f, 3.69025141e-01f, 2.55520761e-01f
};
static const int CONV2D_KERNEL_K = 3;
static const int CONV2D_KERNEL_W = 3;
static const int CONV2D_IN_CH = 1;
static const int CONV2D_OUT_CH = 12;

static const float CONV2D_BIASES[] = {
    -3.10394526e-01f, -1.01022065e+00f, -1.46201515e+00f, -2.76214749e-01f, -7.55881250e-01f, -7.69740760e-01f, -1.07689238e+00f, -6.73451364e-01f,
    -1.57051265e+00f, -1.40004325e+00f, -1.08687949e+00f, -4.05337095e-01f
};

// CONV2D_1 conv kernel shape (3,3,12,24)
static const float CONV2D_1_KERNEL[] = {
    3.08339521e-02f, -1.68524519e-01f, 8.08990151e-02f, 4.36459094e-01f, 4.84209716e-01f, -8.43508765e-02f, 1.33487312e-02f, 7.12189525e-02f,
    -7.18332350e-01f, -1.36259049e-01f, -1.84825540e-01f, 3.81726563e-01f, -2.57835597e-01f, 6.27712235e-02f, -9.92295146e-02f, -1.13883182e-01f,
    1.13084085e-01f, 1.58082202e-01f, 1.78292215e-01f, 1.04653940e-01f, 3.82140070e-01f, -4.43647236e-01f, -8.01760495e-01f, -3.64484280e-01f,
    9.37900841e-02f, -4.30756450e-01f, -1.81626245e-01f, 7.92327940e-01f, -3.87056649e-01f, -4.79442105e-02f, -4.16113585e-01f, 1.69299424e-01f,
    -4.33536559e-01f, -1.89099953e-01f, -1.43906847e-01f, -2.40421876e-01f, 3.28831792e-01f, -2.50858456e-01f, 1.35674670e-01f, -5.00920177e-01f,
    -8.58258903e-02f, 1.58943072e-01f, 1.00664318e-01f, 6.24783672e-02f, 2.60613710e-01f, -4.50730383e-01f, -1.10979366e+00f, -5.93728840e-01f,
    7.52177015e-02f, 3.92235488e-01f, -7.82991424e-02f, -4.61801827e-01f, -4.79595095e-01f, 7.76454806e-02f, 2.67420441e-01f, -2.26648420e-01f,
    -2.56680757e-01f, 4.03069466e-01f, -7.96138421e-02f, -1.62897050e-01f, 4.10992891e-01f, -7.04113692e-02f, -1.64034367e-01f, -3.09157312e-01f,
    -9.32028741e-02f, -2.11474877e-02f, -7.55886808e-02f, 1.21585794e-01f, 1.96609527e-01f, -3.52515727e-01f, -1.04489291e+00f, -3.56322736e-01f,
    2.96056092e-01f, -3.16400677e-01f, -3.11544716e-01f, -5.66849075e-02f, 2.45671555e-01f, 2.74855942e-02f, 2.13359833e-01f, -2.78587908e-01f,
    -4.44516242e-01f, -2.05503590e-02f, 1.12616099e-01f, 2.24244475e-01f, 1.61086947e-01f, 1.55694336e-01f, -2.07065120e-01f, 8.66303369e-02f,
    -2.78755277e-01f, -3.64230305e-01f, 3.51461053e-01f, 1.84258427e-02f, -1.64761901e-01f, 5.85464202e-02f, -4.97631967e-01f, 1.09794565e-01f,
    -1.47367448e-01f, -2.05614448e-01f, -2.38658041e-02f, 3.61423522e-01f, -4.12370801e-01f, 1.44128636e-01f, -6.32980227e-01f, -1.44575715e-01f,
    -3.65643837e-02f, 2.47184649e-01f, -3.47886384e-01f, 2.86150157e-01f, 2.29338437e-01f, 3.39169800e-02f, -2.10291773e-01f, 3.30220699e-01f,
    2.58036852e-01f, -3.11564714e-01f, -2.44885460e-01f, -2.01831628e-02f, 4.19316024e-01f, -2.33717665e-01f, -9.77808982e-02f, 1.97810501e-01f,
    -1.58218354e-01f, -1.92880094e-01f, 2.32589930e-01f, 1.67000771e-01f, 9.75570455e-02f, -7.26335496e-02f, 3.04756820e-01f, -9.89805683e-02f,
    -6.81982040e-02f, 2.33356971e-02f, -1.16893932e-01f, 2.86648106e-02f, -2.26819217e-01f, 2.40005165e-01f, -4.65444505e-01f, -2.61625826e-01f,
    2.44599022e-02f, -6.19103052e-02f, -7.86044523e-02f, 2.08071530e-01f, 2.63348341e-01f, -2.87979662e-01f, 8.06158960e-01f, -1.53408602e-01f,
    1.08482741e-01f, 2.78889716e-01f, -6.87628016e-02f, 6.29795194e-01f, 2.75077939e-01f, 2.41751652e-02f, -5.94288290e-01f, -5.01074176e-03f,
    -4.82045263e-01f, -1.12858571e-01f, -6.93117380e-02f, 2.87416726e-01f, -4.22285497e-02f, 2.80749351e-01f, 2.58205920e-01f, 3.09268117e-01f,
    1.66520268e-01f, -3.58414322e-01f, 3.30788881e-01f, -2.20811725e-01f, -3.72344434e-01f, 2.24095196e-01f, -3.45409065e-01f, 4.05125171e-01f,
    -2.31781858e-03f, -2.22137496e-01f, 6.27893731e-02f, -8.56002927e-01f, -6.07797623e-01f, 1.17714182e-02f, 2.22388774e-01f, -2.79070199e-01f,
    -4.71787781e-01f, -2.86354637e-03f, -2.54991293e-01f, 9.64147225e-02f, -4.10663933e-02f, 1.63955465e-01f, -8.28952417e-02f, -4.34249431e-01f,
    -3.77598517e-02f, -4.33881462e-01f, 1.23922244e-01f, -8.66562650e-02f, -1.18753009e-01f, 2.93653399e-01f, -1.20896959e+00f, 1.25365064e-01f,
    1.57977678e-02f, 2.85033714e-02f, 2.00898647e-01f, -3.21149737e-01f, -2.77310699e-01f, -1.45350367e-01f, 2.56640494e-01f, -1.01754479e-02f,
    -2.66960561e-01f, 2.59821117e-02f, 1.37917772e-01f, -6.19541258e-02f, 3.36772919e-01f, -1.01830930e-01f, 2.83411503e-01f, 2.09271550e-01f,
    1.62725851e-01f, -3.91667724e-01f, -3.72137487e-01f, -1.65337220e-01f, 2.28530928e-01f, -6.43214509e-02f, 1.69927105e-01f, 5.11486113e-01f,
    2.75056034e-01f, 1.80718511e-01f, 2.09978372e-01f, -3.59013945e-01f, 1.76767096e-01f, -2.59986129e-02f, -9.38899517e-01f, 2.09798291e-02f,
    4.84661162e-01f, -3.53356861e-02f, -1.07528433e-01f, -2.03831308e-02f, -2.78406918e-01f, 1.61092803e-01f, 5.82390651e-02f, -4.35331762e-02f,
    -1.12149455e-01f, -2.75882244e-01f, -1.90248992e-02f, 7.95898139e-02f, -1.68270677e-01f, 7.39609748e-02f, -4.86043394e-01f, 1.76383346e-01f,
    -1.24353403e-02f, -2.62390554e-01f, -9.08672139e-02f, 3.45783412e-01f, 2.65766710e-01f, 8.45076814e-02f, -6.44567907e-01f, 3.43240201e-01f,
    -2.32956693e-01f, -8.64998102e-02f, -2.96574056e-01f, -3.13419074e-01f, 7.78843164e-02f, 2.12473720e-01f, 7.88316429e-02f, -3.64265412e-01f,
    3.42645526e-01f, -3.07699114e-01f, -4.29104239e-01f, 3.01897135e-02f, -2.77100861e-01f, -4.00201917e-01f, -4.36319679e-01f, 7.10334703e-02f,
    1.78546861e-01f, 4.01802659e-01f, -1.14665441e-01f, -3.55237216e-01f, -2.88276315e-01f, 6.22434355e-02f, -6.36541128e-01f, 7.07573891e-02f,
    -3.87635946e-01f, -1.46528110e-01f, 1.06604807e-01f, 2.40961716e-01f, 2.22490773e-01f, 9.02285948e-02f, 2.25955963e-01f, 1.32618561e-01f,
    -1.01523243e-01f, 4.25259650e-01f, 1.17496692e-01f, 7.21416175e-02f, -5.31554483e-02f, -4.01761502e-01f, -8.93223226e-01f, 2.35580847e-01f,
    -1.25714913e-01f, 1.95474073e-01f, -3.22559804e-01f, -4.08745050e-01f, 3.92287791e-01f, -1.53521061e-01f, 7.18405783e-01f, -4.38611349e-03f,
    -7.35789165e-02f, -3.46543223e-01f, 1.73706532e-04f, -2.33773962e-01f, -2.02718779e-01f, -2.73682982e-01f, -2.07928270e-01f, 3.24038900e-02f,
    -7.62450472e-02f, 2.27337390e-01f, -3.14770877e-01f, 2.37287566e-01f, 5.88356256e-02f, 2.59659976e-01f, -6.61611199e-01f, -1.63861632e-01f,
    3.67649913e-01f, -3.81516814e-01f, -4.35411155e-01f, 4.13000584e-01f, -1.78204700e-02f, 1.05441816e-01f, -9.09645781e-02f, 2.22400770e-01f,
    1.69077903e-01f, -2.67588526e-01f, 5.88314235e-01f, 7.75766373e-02f, -2.99454555e-02f, -1.77624390e-01f, -1.08113378e-01f, -2.83413351e-01f,
    -3.02914560e-01f, 1.53647840e-01f, 1.27779916e-01f, 1.73511297e-01f, 9.07812193e-02f, -1.99573725e-01f, 5.56252539e-01f, -7.16281608e-02f,
    -2.75288280e-02f, 1.99387729e-01f, -5.39012440e-02f, -4.89023566e-01f, -5.45205891e-01f, 1.93392739e-01f, 6.19993269e-01f, 2.78216153e-01f,
    5.44083655e-01f, -1.15583085e-01f, 2.20935494e-01f, 2.54339367e-01f, -4.46181148e-02f, -2.52825543e-02f, -1.70925707e-01f, 5.55624515e-02f,
    -1.79691240e-01f, 5.51596642e-01f, 1.33643061e-01f, 1.61162689e-01f, -2.87570983e-01f, -1.14218839e-01f, -2.37660512e-01f, -4.10265177e-01f,
    2.62623996e-01f, 1.04679470e-03f, -2.12397933e-01f, -3.66417110e-01f, -5.17808735e-01f, -4.01975811e-02f, 6.06601685e-02f, -4.00859296e-01f,
    -6.16880395e-02f, 1.02400981e-01f, -1.28175095e-01f, -1.12293199e-01f, 5.86464489e-03f, -2.95262188e-01f, -9.26474109e-02f, -1.94330990e-01f,
    2.27881642e-03f, -1.00277185e-01f, -5.41011207e-02f, 1.11045465e-01f, -2.91895211e-01f, 2.42179692e-01f, 3.72022122e-01f, -3.31844300e-01f,
    5.56854047e-02f, 5.14716089e-01f, -6.42215461e-02f, -2.16930974e-02f, -3.32502246e-01f, 1.12045687e-02f, -1.34170622e-01f, 2.08149567e-01f,
    -3.37668180e-01f, -1.01701908e-01f, -2.19627663e-01f, -3.75419766e-01f, 2.84156412e-01f, -1.49962947e-01f, -2.11358219e-01f, 3.51110138e-02f,
    -2.52920717e-01f, 3.28750908e-01f, -4.25580829e-01f, -1.23924166e-01f, 1.54862851e-01f, -1.46224394e-01f, 1.04552245e+00f, -5.89832217e-02f,
    -2.57153094e-01f, -4.88662541e-01f, 1.27700910e-01f, -3.31343412e-01f, 5.20165563e-01f, 1.13356270e-01f, -3.40481311e-01f, 2.67095655e-01f,
    4.73616064e-01f, 7.86282942e-02f, -1.18866354e-01f, -1.57313362e-01f, 1.34114891e-01f, -2.51150161e-01f, -3.64528388e-01f, -8.31793621e-02f,
    -7.91600570e-02f, 4.57924873e-01f, -4.61123437e-01f, -3.50417644e-02f, -2.30076745e-01f, 1.87068265e-02f, 2.72430867e-01f, 6.00382350e-02f,
    -2.77916938e-01f, 4.79808748e-01f, 1.22396192e-02f, -9.29650515e-02f, 5.30269027e-01f, 2.07106307e-01f, -4.27084267e-01f, 1.11479737e-01f,
    -3.14871036e-02f, -1.42148882e-01f, 8.56560990e-02f, -4.65121180e-01f, -3.15126181e-01f, 2.14563429e-01f, -8.31499472e-02f, 2.16894463e-01f,
    2.34097704e-01f, 4.59284008e-01f, 3.14558804e-01f, 1.57133818e-01f, -1.27441391e-01f, 6.79485314e-03f, 3.96819830e-01f, 3.76957327e-01f,
    1.40359387e-01f, 3.21407229e-01f, 4.00047377e-02f, 1.80113778e-01f, -1.37613773e-01f, -4.76538055e-02f, 4.21304137e-01f, -1.38861492e-01f,
    -1.76465977e-02f, 8.15711077e-03f, -3.53884816e-01f, 1.22067913e-01f, -3.28556746e-02f, -3.96922417e-02f, -1.84032544e-01f, 2.76899803e-03f,
    6.86535332e-03f, 4.01794493e-01f, -3.72026920e-01f, 1.57381251e-01f, 6.82016741e-03f, -7.28355423e-02f, -4.94402170e-01f, -1.45669267e-01f,
    1.77481994e-01f, -1.37358919e-01f, 5.16799428e-02f, 4.24825788e-01f, -5.91821849e-01f, -1.88529938e-01f, 3.77952218e-01f, -7.01161623e-02f,
    -1.93658203e-01f, 6.48788512e-02f, 1.65011212e-01f, -1.35183288e-02f, 5.19335596e-03f, 2.81627506e-01f, 1.17875807e-01f, -3.94703209e-01f,
    1.65995315e-01f, 3.63206834e-01f, -6.00025773e-01f, 6.93315417e-02f, 4.91304219e-01f, -4.06241529e-02f, -1.11556955e-01f, 1.79320082e-01f,
    2.65353099e-02f, -1.20599018e-02f, -5.01696527e-01f, 5.45179963e-01f, 5.14852226e-01f, 1.44146815e-01f, 5.06813765e-01f, -1.57262966e-01f,
    5.43656766e-01f, 1.72182366e-01f, -9.76023972e-02f, 1.24262571e-01f, -7.06959292e-02f, -1.72028020e-01f, -1.49821341e-01f, 2.71291465e-01f,
    -1.88212901e-01f, 1.54461175e-01f, 1.25339851e-01f, 5.91906272e-02f, 1.73313141e-01f, -9.78075415e-02f, 2.65013367e-01f, 1.35115460e-01f,
    -1.68601006e-01f, -1.39350116e-01f, -7.31107593e-02f, -1.06730647e-01f, 2.50312835e-01f, 1.51586518e-01f, 1.99284926e-01f, 4.26004045e-02f,
    -4.58083861e-02f, 3.04555625e-01f, -3.03925186e-01f, -2.28296872e-02f, -1.88386172e-01f, 1.37674332e-01f, 2.56558090e-01f, 2.33122453e-01f,
    9.50266700e-03f, 2.38989070e-01f, -6.66015744e-02f, -7.44360546e-03f, 5.19707620e-01f, -2.87252486e-01f, -2.59357601e-01f, 1.78268582e-01f,
    -2.10724622e-02f, 4.63852704e-01f, -2.74546027e-01f, 4.31909472e-01f, -3.73615950e-01f, -8.55719596e-02f, 6.81321323e-01f, 2.28380486e-01f,
    -1.58794895e-01f, 2.06398979e-01f, -2.52797399e-02f, 7.84030482e-02f, 3.35494637e-01f, 1.86951816e-01f, -1.79134220e-01f, 3.11046809e-01f,
    2.11389780e-01f, 4.33155000e-01f, 3.07115704e-01f, 2.57470280e-01f, 3.33066255e-01f, 1.43289372e-01f, -1.06248808e+00f, 2.35421062e-01f,
    1.90466359e-01f, -2.07852677e-01f, 3.48315626e-01f, 3.33457828e-01f, 4.80304658e-02f, 2.83760503e-02f, 2.28035554e-01f, 1.57430634e-01f,
    -6.26067668e-02f, -1.66708842e-01f, -2.00154632e-01f, -2.10884750e-01f, 2.48031020e-01f, 6.97810426e-02f, -2.58191168e-01f, -1.61180794e-01f,
    -1.97142452e-01f, 1.23049527e-01f, -1.04953013e-01f, 9.29741934e-02f, -3.70511472e-01f, 1.92966834e-01f, 2.57033080e-01f, -2.08953857e-01f,
    6.86260834e-02f, -9.90424678e-03f, -3.35066736e-01f, 2.86858171e-01f, 8.00210610e-02f, 3.75506654e-02f, -6.35644495e-02f, -1.37922585e-01f,
    2.97092497e-01f, 2.04007495e-02f, -2.39883170e-01f, -2.72258490e-01f, 9.06969048e-03f, 7.01324269e-02f, 3.14004309e-02f, 1.43419281e-01f,
    -2.17979968e-01f, 4.81293619e-01f, 5.24311811e-02f, -7.06949905e-02f, -3.29736918e-01f, -3.36572915e-01f, 5.27989209e-01f, -2.44592875e-01f,
    3.94539803e-01f, 3.22258025e-01f, -3.26037481e-02f, 5.52792788e-01f, 3.71469736e-01f, 1.42086625e-01f, 2.73964971e-01f, -2.00024992e-02f,
    5.17091990e-01f, -3.21640462e-01f, 4.21316534e-01f, -2.25547135e-01f, -4.12878469e-02f, 3.35510850e-01f, -3.65103543e-01f, 1.15962371e-01f,
    7.18645602e-02f, 4.01169695e-02f, -3.51292551e-01f, 2.49391142e-02f, 3.28171074e-01f, 7.94518217e-02f, -3.45360994e-01f, -1.68051809e-01f,
    2.70366132e-01f, -4.97871518e-01f, -1.36528909e-01f, -2.53975719e-01f, 2.45561153e-01f, -1.08031295e-01f, -7.91579783e-02f, 1.70703083e-01f,
    1.50316581e-01f, -6.76928833e-02f, 4.36461233e-02f, 9.22643766e-02f, -9.63182226e-02f, -2.01057777e-01f, -3.03556085e-01f, 2.40227133e-01f,
    1.94039360e-01f, -5.19888103e-01f, -2.62491375e-01f, -1.76039994e-01f, -5.31256013e-02f, -4.64976639e-01f, 4.26508129e-01f, -1.08796500e-01f,
    -2.66060770e-01f, 8.82675350e-02f, 2.32845441e-01f, -4.17448223e-01f, -3.34140956e-01f, -7.74613023e-02f, 1.69226795e-01f, 6.73432052e-02f,
    -2.57397711e-01f, 2.17929110e-01f, 3.00806481e-02f, 3.25724296e-02f, -2.51185089e-01f, 7.43748946e-03f, -6.29857481e-02f, 2.52896696e-01f,
    2.33230725e-01f, -3.67755175e-01f, 3.47785324e-01f, 1.86763644e-01f, -6.55867830e-02f, -4.82932210e-01f, -6.62655652e-01f, 3.28089446e-01f,
    -3.63481253e-01f, -1.34834260e-01f, 1.86562032e-01f, -8.87576759e-01f, 1.23950735e-01f, -4.30304296e-02f, -4.73234743e-01f, -2.07711846e-01f,
    -3.63080859e-01f, -1.09080739e-01f, 3.46386164e-01f, 1.00681260e-01f, -2.55256087e-01f, 3.50285396e-02f, -3.02453399e-01f, -2.47160003e-01f,
    2.52148956e-01f, 2.54621893e-01f, 7.97533169e-02f, -2.19706237e-01f, 3.37074429e-01f, -3.41747969e-01f, 6.91768825e-01f, -2.48130813e-01f,
    -9.31247845e-02f, -5.97307272e-02f, 3.80206779e-02f, 3.88489038e-01f, -2.89210975e-01f, -1.09449349e-01f, -6.39732420e-01f, 3.12472552e-01f,
    4.01784688e-01f, -1.80748433e-01f, 2.14594796e-01f, 2.32293367e-01f, 3.42868388e-01f, 1.57378867e-01f, -3.23011905e-01f, -9.81033742e-02f,
    1.71095207e-01f, -3.24111074e-01f, -3.23866159e-01f, -8.14215466e-02f, -2.27321059e-01f, -6.17700405e-02f, 1.33147097e+00f, 4.21658546e-01f,
    -9.19992030e-02f, -7.03750029e-02f, 1.26957655e-01f, -4.32883471e-01f, 4.03935969e-01f, -9.96229574e-02f, 8.47709328e-02f, 2.91105121e-01f,
    4.77186382e-01f, 1.15714788e-01f, -2.03959927e-01f, 3.66905302e-01f, -2.49008462e-01f, -1.93638802e-02f, -2.31875107e-01f, 1.63027182e-01f,
    2.52226025e-01f, -5.55009902e-01f, -4.22985137e-01f, -2.54222355e-03f, -6.28437195e-03f, -2.11079895e-01f, 3.58273983e-02f, -2.04859972e-01f,
    -2.30161920e-01f, 1.02815414e-02f, 1.61688313e-01f, -7.25367208e-05f, 6.03005290e-01f, 6.62907809e-02f, -7.98973888e-02f, 2.75955915e-01f,
    1.60047770e-01f, 1.89899847e-01f, -2.13113129e-01f, -3.53778899e-01f, 4.32134241e-01f, -1.59290165e-01f, -3.85143235e-02f, 3.00596029e-01f,
    1.63650483e-01f, -2.94761747e-01f, -5.80720127e-01f, -5.42371385e-02f, 5.55607796e-01f, -2.24507570e-01f, 2.28201002e-01f, 3.70656848e-01f,
    -1.62964195e-01f, 8.29462782e-02f, -1.06758982e-01f, 4.85038459e-01f, -1.03495151e-01f, 9.60856229e-02f, -4.07992691e-01f, -1.97041765e-01f,
    3.38237077e-01f, 3.22293751e-02f, -7.91605562e-02f, -2.33244717e-01f, 1.87700599e-01f, 1.66870698e-01f, -1.19502708e-01f, -2.99996048e-01f,
    -1.06011368e-01f, -4.75029737e-01f, 1.07488155e-01f, -1.74996201e-02f, -1.13000475e-01f, -4.41762269e-01f, 5.98788261e-01f, 1.49450526e-01f,
    2.80364752e-01f, -2.80822068e-01f, -3.49965617e-02f, -4.61501867e-01f, 2.87006289e-01f, -8.66173506e-02f, -6.67209566e-01f, 1.68925688e-01f,
    -1.93827655e-02f, 1.84060037e-02f, 2.51580924e-01f, 2.29281694e-01f, -2.64380842e-01f, -2.06280693e-01f, -5.33571541e-02f, 2.45518938e-01f,
    -3.56778726e-02f, 4.96743560e-01f, -4.71142173e-01f, 2.22042128e-01f, -1.46666020e-01f, 5.84286824e-02f, 1.69983312e-01f, 8.03483650e-02f,
    -1.15541324e-01f, -4.63430524e-01f, -1.34799585e-01f, 2.28811905e-01f, -3.29546750e-01f, 1.45849749e-01f, 5.65516911e-02f, -2.23231941e-01f,
    4.37584311e-01f, 1.18168555e-01f, 2.19835844e-02f, -1.88676134e-01f, -8.23244080e-03f, 1.37954101e-01f, -2.54755735e-01f, -2.02972770e-01f,
    1.65813014e-01f, 1.25726804e-01f, -5.10745287e-01f, 7.89379999e-02f, 3.73135239e-01f, 2.32818976e-01f, -4.83976722e-01f, 2.18450967e-02f,
    -3.54908437e-01f, 1.84042856e-01f, -3.53068054e-01f, 4.71906364e-01f, 6.32262528e-02f, -7.35152587e-02f, 7.71929622e-01f, 3.05390179e-01f,
    -2.54191548e-01f, 1.28360197e-01f, -1.00950025e-01f, 2.04464540e-01f, 1.88937068e-01f, -1.27120048e-01f, 7.53993839e-02f, 1.23150304e-01f,
    -4.38785329e-02f, -2.08038520e-02f, 4.37706411e-01f, 1.27803370e-01f, 1.65414333e-01f, -6.03744201e-02f, -1.67191803e-01f, 3.79055366e-02f,
    1.69554595e-02f, -1.77474990e-01f, -9.43954363e-02f, -5.09281039e-01f, -3.31824906e-02f, -2.56970339e-02f, 4.45740819e-01f, 1.65758759e-01f,
    -6.03206456e-01f, 8.77487361e-02f, 2.57779658e-01f, -9.63780843e-03f, -2.12796777e-02f, -2.31990606e-01f, -1.01266362e-01f, -3.24063003e-01f,
    2.91791521e-02f, 9.19715986e-02f, -2.24609062e-01f, 7.12697804e-02f, 1.64388180e-01f, 1.66788682e-01f, -7.52411485e-01f, 4.06190246e-01f,
    -1.22415714e-01f, 8.26102346e-02f, 2.60238022e-01f, -1.43889293e-01f, -1.86464982e-03f, 2.08282135e-02f, -5.86671412e-01f, -2.22418699e-02f,
    -9.61981043e-02f, -1.83335394e-01f, -6.36605680e-01f, -3.44047338e-01f, -1.98990591e-02f, -1.52979732e-01f, 2.90082783e-01f, -3.48529041e-01f,
    6.73248246e-02f, -5.26042759e-01f, 1.63388342e-01f, -3.69342789e-02f, -4.30849046e-02f, -1.47084683e-01f, 2.54540622e-01f, -1.44030914e-01f,
    1.47195697e-01f, 3.76352668e-01f, 1.58517554e-01f, -5.78105271e-01f, -1.89028561e-01f, -1.24486927e-02f, -3.15679878e-01f, 1.46019474e-01f,
    -1.79123878e-03f, 4.47835736e-02f, -2.54743963e-01f, 2.54455414e-02f, 3.22484016e-01f, 2.32811436e-01f, 2.25821659e-01f, 1.73456408e-02f,
    -7.28757679e-02f, -5.19161411e-02f, -2.17255563e-01f, -1.41228437e-01f, -5.69958203e-02f, 2.89168537e-01f, -1.17383540e+00f, -2.28230748e-02f,
    -1.37448441e-02f, -1.63026065e-01f, -3.08439970e-01f, 5.00758886e-01f, 1.46841958e-01f, -8.08847100e-02f, 3.00561618e-02f, -2.41435751e-01f,
    -4.87901628e-01f, 4.35705036e-01f, -3.60905558e-01f, 2.86522329e-01f, -2.10391786e-02f, 3.61471102e-02f, -1.25576526e-01f, 9.04203877e-02f,
    -1.33688182e-01f, 2.74075836e-01f, -3.17287803e-01f, 1.96420982e-01f, 3.91679227e-01f, -2.39413336e-01f, 1.36489663e-02f, -2.59457469e-01f,
    -2.81562239e-01f, -3.97082597e-01f, 1.88206702e-01f, 4.98864390e-02f, 2.86666095e-01f, 1.16079524e-01f, -1.19419709e-01f, -2.53299922e-01f,
    -2.45098621e-01f, -3.51793505e-02f, 3.76573473e-01f, -7.70739764e-02f, 8.25170204e-02f, -1.60309508e-01f, 8.65083784e-02f, 2.47589260e-01f,
    5.01921438e-02f, 3.42899472e-01f, -4.22679067e-01f, 1.89481936e-02f, -3.54619443e-01f, -5.81975095e-02f, -2.94543784e-02f, 7.81195313e-02f,
    -2.60624975e-01f, 1.49146840e-01f, 2.30733290e-01f, 1.37817800e-01f, 1.54090852e-01f, -1.22680761e-01f, -2.30812609e-01f, -1.48941666e-01f,
    -3.54589194e-01f, -8.24102908e-02f, -1.31872296e-02f, -1.94804892e-01f, -2.12509096e-01f, 2.60337949e-01f, -1.12582512e-01f, 1.79865360e-01f,
    7.72039965e-02f, -1.89682677e-01f, 2.01742738e-01f, -1.79638773e-01f, -1.35448024e-01f, 4.31419164e-01f, -1.23775944e-01f, 7.72078782e-02f,
    5.74361905e-02f, 2.86293607e-02f, 1.27684951e-01f, -3.02528083e-01f, 2.52933204e-01f, -1.18480206e-01f, 4.92761806e-02f, 1.55323654e-01f,
    -1.04094185e-01f, 2.50246942e-01f, 3.00553069e-03f, 1.11106388e-01f, 4.09205183e-02f, 1.63090199e-01f, -1.25596859e-02f, -4.44079340e-02f,
    7.12918192e-02f, 5.43031871e-01f, 3.02826792e-01f, -1.58002704e-01f, 1.77809358e-01f, -1.01071328e-01f, 4.74670029e-04f, 7.53087550e-02f,
    -2.27752611e-01f, -2.46935591e-01f, 7.34990165e-02f, -2.16227815e-01f, 1.10086925e-01f, 6.29544482e-02f, -3.57424080e-01f, -7.31454268e-02f,
    4.20118608e-02f, 4.55731988e-01f, 2.41670355e-01f, -2.73639530e-01f, -2.18900651e-01f, 1.66510604e-02f, 8.76191407e-02f, -1.29993170e-01f,
    1.57006904e-01f, -2.16595501e-01f, 2.73844093e-01f, 7.12804422e-02f, -2.22371712e-01f, -2.42791355e-01f, 1.18095636e+00f, -1.05161496e-01f,
    1.02622047e-01f, -3.81627023e-01f, -8.70819017e-02f, -7.65740633e-01f, 5.65465502e-02f, 1.44421712e-01f, -6.41034544e-02f, -2.61913210e-01f,
    3.48573953e-01f, 1.69136941e-01f, 1.75293908e-01f, 3.55873741e-02f, -3.07414010e-02f, 2.08899215e-01f, -9.33178738e-02f, 2.40417898e-01f,
    -9.95505676e-02f, -1.62109822e-01f, -1.37278900e-01f, -1.79699078e-01f, 8.67561176e-02f, -4.39208329e-01f, 1.07691050e+00f, 1.99520394e-01f,
    -1.11910470e-01f, -7.12677613e-02f, -1.07644781e-01f, 1.57402366e-01f, 1.75319448e-01f, -9.99862999e-02f, -2.49978304e-01f, 3.24147761e-01f,
    -1.66319549e-01f, 1.84787720e-01f, 2.18748048e-01f, -3.37951243e-01f, 1.12642586e-01f, -4.18526009e-02f, -1.77307829e-01f, -3.61191422e-01f,
    -1.01492897e-01f, 8.75533372e-02f, -3.27217311e-01f, 2.55133063e-01f, -5.55768721e-02f, -8.75382032e-03f, -6.33144140e-01f, -2.55550183e-02f,
    -3.44028503e-01f, 1.37155846e-01f, -3.18143237e-03f, -3.39092493e-01f, 4.16509837e-01f, -5.52045107e-02f, 8.86582807e-02f, -1.79865524e-01f,
    1.48137033e-01f, -2.13060379e-01f, 2.13564739e-01f, 4.16610330e-01f, 1.61039487e-01f, -1.34297580e-01f, 2.02712655e-01f, -5.10195971e-01f,
    8.79272744e-02f, -1.85965911e-01f, 4.36897874e-01f, -2.56849490e-02f, 1.91266805e-01f, 3.45223695e-01f, 7.33649433e-02f, 4.65536211e-03f,
    1.04827173e-01f, -3.50439101e-01f, -1.23894349e-01f, 4.09719676e-01f, 4.44842607e-01f, 3.31475511e-02f, -6.22127414e-01f, -3.69579613e-01f,
    -3.62478703e-01f, -2.53644139e-01f, -1.96047887e-01f, 2.13567868e-01f, -1.13253392e-01f, -1.46237820e-01f, 5.30254953e-02f, -2.09333748e-02f,
    -2.27644682e-01f, -1.62346214e-01f, 2.92074800e-01f, 1.34775981e-01f, 2.59897202e-01f, -3.46554458e-01f, -1.13064003e+00f, 1.88066751e-01f,
    -1.54372200e-01f, -3.24021220e-01f, -3.06227673e-02f, -4.01292205e-01f, 4.90971863e-01f, -3.97921018e-02f, 1.21524930e-01f, -2.04760715e-01f,
    -2.05228925e-01f, 9.69825429e-04f, -2.30487615e-01f, -4.78987306e-01f, 5.76054538e-03f, 3.02830786e-01f, -1.13841102e-01f, -5.23403645e-01f,
    9.32579562e-02f, 2.16633305e-01f, -2.31886003e-02f, 2.23803725e-02f, 2.28500605e-01f, -4.13815230e-01f, 5.21020889e-01f, -1.98397607e-01f,
    -2.41913050e-01f, -6.87638372e-02f, 2.26444259e-01f, -3.43535021e-02f, 1.09759346e-01f, 1.18168831e-01f, 7.04865018e-03f, -4.48967576e-01f,
    -2.36854494e-01f, 1.75388202e-01f, 2.33581647e-01f, 4.36690152e-01f, 3.37604105e-01f, -1.78372368e-01f, 2.16949701e-01f, -1.22789182e-01f,
    -6.11112192e-02f, 4.52759802e-01f, -7.36733750e-02f, 2.03316525e-01f, 2.10756093e-01f, 2.74149776e-01f, 9.84810948e-01f, -1.60507888e-01f,
    -1.98047638e-01f, -4.08455461e-01f, -1.81266740e-02f, -1.85675979e-01f, -2.73279816e-01f, -1.48760334e-01f, 1.18795574e-01f, -2.77733356e-01f,
    4.50295061e-01f, 2.87959039e-01f, 1.46012411e-01f, 1.59161374e-01f, 2.32512027e-01f, -1.76368758e-01f, 1.83169633e-01f, 2.39734307e-01f,
    5.79194818e-03f, -5.53762853e-01f, -1.74815089e-01f, 1.64406672e-01f, 3.78602445e-01f, 4.06479746e-01f, -2.53141910e-01f, -5.76234199e-02f,
    5.81199154e-02f, -3.57191443e-01f, 3.02607596e-01f, -6.40104935e-02f, -1.95043996e-01f, 5.93108907e-02f, -4.20616925e-01f, -3.87842208e-02f,
    3.33451420e-01f, 7.48879984e-02f, -3.57326679e-02f, 1.01880766e-01f, -6.82703704e-02f, 1.25197843e-01f, -7.37616792e-02f, 1.95055589e-01f,
    -2.44330972e-01f, -4.21862125e-01f, -2.16799572e-01f, 2.47584611e-01f, -1.66288704e-01f, -2.96765149e-01f, 9.33554411e-01f, 1.84724219e-02f,
    1.88562304e-01f, 3.58526498e-01f, 2.76891947e-01f, 3.21182072e-01f, -1.16675429e-01f, -7.70132616e-02f, -6.00112453e-02f, 2.77202398e-01f,
    -4.06165153e-01f, 2.70165861e-01f, 1.13762747e-02f, -2.28796065e-01f, -8.25328529e-02f, 7.20298514e-02f, 2.76798736e-02f, -1.61914378e-01f,
    -2.10730303e-02f, -4.21757512e-02f, 1.61419854e-01f, 4.54387665e-02f, -3.81073356e-01f, 4.28200155e-01f, -8.31941366e-02f, 1.30670026e-01f,
    1.44084945e-01f, -4.57813703e-02f, 8.24091360e-02f, -5.91920391e-02f, 4.13423032e-01f, 1.61719829e-01f, -2.14554399e-01f, -4.23207313e-01f,
    3.84115219e-01f, -3.18532407e-01f, 1.36195526e-01f, -3.01530719e-01f, -1.64372504e-01f, 2.47071177e-01f, -8.64202082e-02f, 2.08058074e-01f,
    1.29286155e-01f, 2.81531751e-01f, 1.51081026e-01f, -2.36063879e-02f, 1.69068028e-03f, 2.35601604e-01f, 7.19249249e-01f, 1.31608143e-01f,
    -1.28126070e-01f, -5.39874807e-02f, 1.16118670e-01f, -4.28797305e-01f, -5.12601912e-01f, 3.33641842e-02f, 2.39389986e-01f, -3.61730248e-01f,
    -1.67598531e-01f, -6.42575184e-03f, -3.73627171e-02f, 1.44880608e-01f, -5.03349267e-02f, -2.79519022e-01f, -1.48447588e-01f, 2.57425576e-01f,
    3.13450575e-01f, 5.34534991e-01f, -1.67469218e-01f, 1.03830919e-01f, -4.13713217e-01f, -3.62513602e-01f, -6.93484604e-01f, 1.60552524e-02f,
    1.53202653e-01f, 3.52729887e-01f, 2.12042004e-01f, 6.18471801e-01f, 2.33083636e-01f, -5.15411757e-02f, -3.85414809e-01f, 2.32586250e-01f,
    -3.29449475e-01f, 7.86518976e-02f, 3.47107649e-01f, 1.59484893e-01f, -3.91062587e-01f, 1.59333885e-01f, -7.35914633e-02f, -3.08830030e-02f,
    -2.64247835e-01f, 2.68474221e-01f, 1.41256377e-02f, 1.36470243e-01f, 3.13343763e-01f, -2.02105641e-01f, -5.50059438e-01f, 2.49612983e-02f,
    -1.12692863e-01f, -1.32606491e-01f, -2.46916980e-01f, -5.81559658e-01f, -2.66557425e-01f, -7.55489022e-02f, -4.74390715e-01f, -1.70582995e-01f,
    -3.75543982e-01f, 1.45977467e-01f, 4.33037370e-01f, 1.49378300e-01f, 1.49868101e-01f, -2.95739353e-01f, -3.55540425e-01f, 2.47901008e-01f,
    1.31804243e-01f, 2.96321511e-01f, 3.55545044e-01f, -6.79509938e-02f, -1.37524396e-01f, 1.57312617e-01f, 1.21964730e-01f, 1.60235614e-01f,
    -9.04772896e-03f, 2.67904609e-01f, 1.84023261e-01f, -7.80102983e-02f, -4.18086141e-01f, 1.52739361e-01f, 9.34977233e-02f, -4.46385026e-01f,
    -5.99393388e-03f, 3.32736731e-01f, -4.46306802e-02f, 3.85549814e-01f, 1.93071306e-01f, -3.96261103e-02f, -4.43158485e-02f, -2.90823579e-01f,
    -9.94520113e-02f, -4.04640704e-01f, 7.33045721e-03f, 2.93173846e-02f, -2.06769124e-01f, 3.12593907e-01f, -2.51636475e-01f, 6.27434105e-02f,
    1.10708654e-01f, -1.10380895e-01f, 2.10572943e-01f, -5.46058238e-01f, 4.06614952e-02f, -9.81345177e-02f, 5.24364829e-01f, 8.93842578e-02f,
    5.49360812e-01f, -2.15617463e-01f, 2.73283720e-02f, 1.74954429e-01f, 1.73249036e-01f, -2.82300621e-01f, -1.66504130e-01f, 1.03506275e-01f,
    -8.79487991e-02f, -1.39118686e-01f, 1.71673998e-01f, -2.10194886e-01f, 3.08720529e-01f, 5.10455333e-02f, 3.72805983e-01f, 3.30891818e-01f,
    -9.76130646e-03f, 5.89354992e-01f, -1.87370732e-01f, -4.00870621e-01f, -2.59584427e-01f, -2.93833688e-02f, -5.55229187e-01f, 1.35004381e-03f,
    3.30205411e-01f, 2.83520948e-02f, -7.00613335e-02f, 7.40961358e-02f, -1.08132467e-01f, 2.43465707e-01f, -3.82572375e-02f, -3.54833722e-01f,
    1.75166517e-01f, -2.04008464e-02f, 1.95107728e-01f, -1.21262275e-01f, 1.21298671e-01f, -1.05526619e-01f, 3.15805554e-01f, 1.67449847e-01f,
    -2.72791296e-01f, -3.73685151e-01f, -2.99001008e-01f, 5.81772029e-01f, 1.31047666e-01f, -6.53570816e-02f, -3.81001055e-01f, -2.36358553e-01f,
    3.99803996e-01f, -1.46750018e-01f, 1.14528708e-01f, -2.73717731e-01f, -1.99462667e-01f, -1.08661085e-01f, 2.19589740e-01f, 1.90936193e-01f,
    1.00538887e-01f, -1.42088354e-01f, 2.61771113e-01f, -1.65874898e-01f, -1.68674931e-01f, -1.64181411e-01f, 3.27861488e-01f, 7.11172307e-03f,
    1.95042148e-01f, 5.49299493e-02f, 2.90175617e-01f, -1.74739975e-02f, -6.13862788e-03f, 5.19880056e-02f, 4.97926056e-01f, -1.40596479e-01f,
    -1.93595499e-01f, -1.35732263e-01f, 2.19837040e-01f, -1.86428130e-01f, -2.03624323e-01f, -2.16841578e-01f, -7.14010745e-02f, -3.08258086e-02f,
    1.28851607e-01f, 2.02488005e-01f, -2.27509048e-02f, 2.18723118e-01f, 2.44616985e-01f, -2.36656770e-01f, -6.60115600e-01f, -2.49767914e-01f,
    2.41501912e-01f, 6.50079668e-01f, -2.12443233e-01f, -3.47363530e-03f, 1.74640566e-01f, -1.77233011e-01f, -1.17527306e-01f, 3.64148527e-01f,
    -1.15727499e-01f, 3.03108215e-01f, 2.17383429e-01f, -2.05100495e-02f, 1.10085905e-01f, -2.82885283e-01f, 1.65487751e-01f, 4.13715541e-01f,
    3.72562371e-02f, 2.89739799e-02f, 1.86669722e-01f, -1.75490171e-01f, -2.96084769e-02f, -3.61745566e-01f, 4.80770797e-01f, -2.88598061e-01f,
    1.44816697e-01f, 5.04184365e-01f, -1.93459123e-01f, -7.57302165e-01f, -1.24715663e-01f, -4.22106050e-02f, 3.89823616e-01f, 3.49357456e-01f,
    1.95065111e-01f, -1.29736245e-01f, -1.20512776e-01f, -1.03737175e-01f, -4.68271613e-01f, 6.14400371e-04f, 1.79688826e-01f, 3.74959588e-01f,
    2.59638369e-01f, -4.49938118e-01f, 2.08415419e-01f, -5.65264560e-02f, -2.21802622e-01f, 1.75585434e-01f, 6.01846576e-01f, -2.04766840e-01f,
    2.96041891e-02f, 5.64638555e-01f, 3.19395185e-01f, 4.70813036e-01f, -2.65300099e-04f, -5.03885187e-03f, -3.20772767e-01f, 2.88784921e-01f,
    4.18171585e-01f, -1.66895702e-01f, 3.16689134e-01f, 7.30699897e-02f, -3.71574581e-01f, -1.86080068e-01f, -2.74758488e-01f, -2.69049048e-01f,
    2.13112742e-01f, 3.46111447e-01f, 4.41244274e-01f, -9.59034562e-02f, 1.77383348e-01f, -1.60926506e-01f, 8.45616639e-01f, -1.50993735e-01f,
    -2.76221156e-01f, 4.17598218e-01f, 3.60235214e-01f, -2.73393214e-01f, 7.98601732e-02f, -1.59637675e-01f, -1.42380863e-01f, 4.16961163e-02f,
    1.19587682e-01f, -2.08352461e-01f, 4.50764550e-03f, 1.38375923e-01f, 2.21770167e-01f, 3.00300511e-04f, -3.30185354e-01f, 2.29616195e-01f,
    1.34437650e-01f, -8.81308019e-02f, 1.25086039e-01f, 1.24177858e-01f, 6.31927177e-02f, -9.66835245e-02f, -8.29196870e-02f, 2.97312051e-01f,
    -1.65321380e-01f, 2.56878555e-01f, -9.51932743e-02f, -4.07936990e-01f, -4.09695715e-01f, -1.03175148e-01f, -3.19770873e-01f, 8.05407315e-02f,
    -6.80945337e-01f, -3.80733818e-01f, 1.13637835e-01f, 2.25946251e-02f, 1.69157222e-01f, 7.48991147e-02f, -2.62843579e-01f, -2.09727380e-02f,
    1.81783393e-01f, -2.07522124e-01f, -3.08722824e-01f, 2.31555328e-01f, -2.54588991e-01f, -4.32515174e-01f, -4.54975784e-01f, 1.43640503e-01f,
    -2.79772133e-01f, -5.71401045e-02f, 3.96524966e-01f, 1.20556220e-01f, -3.36234987e-01f, -1.74773648e-01f, -3.84359628e-01f, -9.51414332e-02f,
    -3.81307721e-01f, -3.10789019e-01f, -2.83829868e-01f, 2.36210018e-01f, -4.28569883e-01f, 2.59325713e-01f, -4.76968363e-02f, -2.67363638e-01f,
    -4.85929400e-02f, -5.24889827e-01f, -3.53021413e-01f, 1.94178745e-01f, -1.25702962e-01f, -4.67925936e-01f, -8.42750788e-01f, 6.30928725e-02f,
    -2.37745687e-01f, -2.41977394e-01f, 3.41002524e-01f, -1.04830645e-01f, 2.31621359e-02f, 1.24179937e-01f, 5.76716781e-01f, -1.39603764e-01f,
    9.97700915e-02f, -2.39395633e-01f, -1.98925287e-01f, 2.23019570e-01f, 4.09049243e-01f, 4.16703112e-02f, 4.82882187e-02f, 3.10527176e-01f,
    -1.07802011e-01f, -6.61308095e-02f, -3.98933440e-01f, 1.79615945e-01f, -6.08259887e-02f, 3.95560563e-02f, -9.01811942e-02f, 1.38790607e-01f,
    -2.62293577e-01f, 2.12079227e-01f, 2.69392848e-01f, 5.94482541e-01f, 5.56179360e-02f, 1.46975845e-01f, 1.66008830e-01f, -3.05740148e-01f,
    -9.87542793e-02f, -3.07310551e-01f, 4.15279806e-01f, 5.87668046e-02f, -2.07548633e-01f, -1.46277249e-01f, -2.01644287e-01f, -3.06566656e-02f,
    1.49267698e-02f, 1.29629865e-01f, -2.94362515e-01f, 1.20654076e-01f, -1.89422950e-01f, -3.10941786e-01f, 6.74726427e-01f, -1.76627368e-01f,
    -1.48775697e-01f, -4.71344560e-01f, 1.43851817e-01f, 1.10372677e-01f, 3.56022492e-02f, -3.52549623e-03f, -7.19612241e-01f, 2.79917449e-01f,
    -2.10663930e-01f, -3.62564057e-01f, -4.24695373e-01f, 2.15092041e-02f, -1.66435689e-01f, -9.91119966e-02f, 6.08302802e-02f, -2.09023148e-01f,
    7.78680965e-02f, -1.90494969e-01f, 2.19235495e-01f, -1.43280774e-01f, -4.17138636e-01f, -2.27017954e-01f, -4.81137246e-01f, 1.28989756e-01f,
    2.58417487e-01f, 1.66697383e-01f, -3.73922810e-02f, -1.20323785e-02f, 3.17835361e-02f, 4.92863823e-03f, -2.94909209e-01f, -1.51417151e-01f,
    -4.22511637e-01f, 1.00309926e-03f, -3.44469011e-01f, -1.58698574e-01f, -2.73928106e-01f, -3.15278471e-02f, 7.24870525e-03f, -9.42168850e-03f,
    1.57443672e-01f, -9.28033888e-02f, 1.89695090e-01f, 1.38761863e-01f, 4.40244153e-02f, -3.66255969e-01f, -1.11083841e+00f, -9.52331051e-02f,
    1.45764872e-01f, -1.15274623e-01f, -2.22596023e-02f, -3.43305022e-01f, -1.75457716e-01f, 4.15877663e-02f, -2.78102309e-01f, 3.29155028e-01f,
    1.50171161e-01f, 1.01631224e-01f, 6.26757920e-01f, 1.88527331e-01f, -3.59721690e-01f, -2.94242322e-01f, 4.83239722e-03f, -5.09903170e-02f,
    1.09919325e-01f, -7.62731656e-02f, 2.76910335e-01f, -1.74909636e-01f, -2.21215591e-01f, 6.37152791e-02f, 1.28359151e+00f, 7.10969046e-02f,
    3.71302180e-02f, 6.43109918e-01f, -3.15084457e-01f, -2.17868999e-01f, -1.03711456e-01f, -7.69716352e-02f, -1.69445559e-01f, 4.05232608e-01f,
    3.12879890e-01f, 2.70546675e-01f, -4.90078032e-02f, 3.10098499e-01f, -7.51271844e-02f, -1.44203499e-01f, -1.98774591e-01f, 5.03144041e-02f,
    2.05847487e-01f, -5.46008706e-01f, -3.13798398e-01f, -1.39907420e-01f, 4.25683558e-01f, 4.80107814e-01f, 3.57721478e-01f, 5.69801629e-02f,
    2.59349257e-01f, -5.39492220e-02f, -1.90801710e-01f, 6.39538646e-01f, -1.18986882e-01f, 3.85988243e-02f, 1.64571360e-01f, -2.93020993e-01f,
    -5.58973610e-01f, 2.03000754e-01f, -3.37538987e-01f, 6.45535439e-02f, 2.69251883e-01f, 3.08274567e-01f, 1.33220270e-01f, 1.67550221e-01f,
    -1.74882382e-01f, -4.35912728e-01f, -2.22665910e-02f, -2.26824075e-01f, -7.62973800e-02f, 2.69528866e-01f, 2.48043332e-02f, -2.03199044e-01f,
    2.65992045e-01f, -3.54542673e-01f, -2.16965660e-01f, -1.45535752e-01f, -1.73894092e-01f, 1.46842552e-02f, 5.91701448e-01f, -3.66906136e-01f,
    -2.67921895e-01f, 1.42919168e-01f, -1.54256374e-01f, -1.26899779e-01f, -4.03478712e-01f, 1.45473570e-01f, 3.25070143e-01f, -2.97798008e-01f,
    -2.07821459e-01f, -1.96890399e-01f, 3.34505886e-01f, 2.89315015e-01f, -5.59649840e-02f, -4.05519694e-01f, -9.23522189e-02f, 2.42719188e-01f,
    4.82845791e-02f, -5.07894516e-01f, 3.61932099e-01f, -3.79893929e-01f, 8.48260820e-02f, 1.23309851e-01f, 4.94646996e-01f, 3.37577313e-01f,
    3.45445246e-01f, 7.70850852e-02f, -9.95547175e-02f, 7.98744485e-02f, -2.77139693e-02f, -1.16485301e-02f, 6.41572177e-02f, -4.29005735e-02f,
    1.52043536e-01f, -3.16361457e-01f, -6.23589233e-02f, -6.55256137e-02f, 1.86996646e-02f, 5.12699522e-02f, 4.56925705e-02f, 1.72634989e-01f,
    -6.06682561e-02f, 7.49991775e-01f, 2.50796705e-01f, -5.72604775e-01f, 2.31787130e-01f, -1.20553851e-01f, -4.01620477e-01f, 8.15455616e-02f,
    -1.62870690e-01f, -2.28675544e-01f, 3.86135042e-01f, -3.15073729e-01f, 2.85256147e-01f, 1.84508190e-01f, -3.48167634e-03f, 8.18486288e-02f,
    2.59386957e-01f, -4.86574680e-01f, 1.34196475e-01f, 1.95908725e-01f, -3.84457596e-02f, -3.54540557e-01f, 1.03880394e+00f, 2.92601883e-01f,
    -2.81916350e-01f, 2.50078112e-01f, -2.53175162e-02f, 1.58157155e-01f, -3.48471940e-01f, -6.21337593e-02f, 5.40166199e-01f, 1.66099206e-01f,
    -4.38750505e-01f, 1.14091009e-01f, -4.27879423e-01f, 2.45347202e-01f, -5.33368774e-02f, -2.83374786e-02f, -3.05409394e-02f, -1.68174520e-01f,
    -1.34410158e-01f, 3.83686870e-02f, -7.75013193e-02f, -1.42114937e-01f, -5.03346026e-01f, 5.15846349e-02f, -6.35142326e-01f, -1.16719373e-01f,
    -4.40162681e-02f, -1.86103418e-01f, -3.09087038e-01f, 1.05432153e-01f, 1.40310198e-01f, -1.70502588e-01f, -8.19841564e-01f, 5.47104776e-02f,
    -5.56753613e-02f, 3.62030193e-02f, 3.53201717e-01f, -2.03012183e-01f, 1.31303012e-01f, 1.09549753e-01f, -3.48326921e-01f, -3.86277497e-01f,
    -3.06664675e-01f, 6.94250613e-02f, 2.75618523e-01f, -1.22171588e-01f, -5.08565485e-01f, 4.35892865e-02f, -5.58790267e-02f, -1.98707998e-01f,
    2.14067519e-01f, 6.26487851e-01f, 1.21780910e-01f, 4.00660902e-01f, 4.08974141e-01f, 8.00012890e-03f, -4.43732589e-02f, -2.67025381e-01f,
    -2.69088000e-01f, 3.07163209e-01f, -1.15462556e-01f, 3.57204974e-02f, -3.14108938e-01f, -2.96780705e-01f, 1.69119269e-01f, -2.13777944e-01f,
    1.55195534e-01f, -9.42971706e-02f, -5.39060272e-02f, -1.05144620e-01f, 2.64719754e-01f, -2.52073765e-01f, -1.77260965e-01f, 1.86287642e-01f,
    1.51566148e-01f, -2.33286530e-01f, 1.44026270e-02f, -2.64360726e-01f, 1.43398225e-01f, 3.83339487e-02f, 1.95282310e-01f, -2.80193239e-01f,
    2.17765272e-01f, 3.89445782e-01f, -3.60001057e-01f, -1.31769091e-01f, 1.71460554e-01f, -4.09101620e-02f, 2.08643287e-01f, -2.60056049e-01f,
    2.78033942e-01f, -3.94457847e-01f, -2.40262687e-01f, -1.64768040e-01f, 9.57004959e-04f, -4.57641155e-01f, 5.30299604e-01f, -2.79324889e-01f,
    -3.70851085e-02f, -6.22497387e-02f, 7.89462030e-03f, -4.75094691e-02f, 7.02620372e-02f, 8.57354030e-02f, -2.83400029e-01f, 2.62203425e-01f,
    4.70049024e-01f, 2.85462707e-01f, 3.68389457e-01f, -3.84881496e-01f, -2.65504748e-01f, 3.22358668e-01f, -4.97130454e-02f, -1.29864529e-01f,
    6.42131716e-02f, 3.38741571e-01f, -1.79447889e-01f, 2.68535316e-01f, -3.66608143e-01f, -1.47755310e-01f, -1.82662997e-02f, 6.65060878e-02f,
    -9.12817419e-02f, 4.55047995e-01f, -3.39365065e-01f, 1.32670403e-01f, -5.07756531e-01f, 5.95644563e-02f, -1.87733442e-01f, 1.51547730e-01f,
    -2.30555609e-01f, -3.19441199e-01f, 5.08540981e-02f, -2.69650608e-01f, 5.19774929e-02f, -2.25231662e-01f, 4.73344103e-02f, -1.90929040e-01f,
    2.85616904e-01f, -2.78715372e-01f, -1.84045151e-01f, 2.26538226e-01f, 2.07414642e-01f, -8.84383544e-02f, 7.63359189e-01f, 1.79947481e-01f,
    -1.09904766e-01f, -3.16532314e-01f, 1.76113218e-01f, -1.36110079e+00f, 2.21970066e-01f, 1.03894509e-01f, 4.41343725e-01f, 1.66825801e-01f,
    4.16227698e-01f, 2.80854076e-01f, -2.46758871e-02f, -3.59895259e-01f, 1.13106363e-01f, 3.77561092e-01f, 1.26758605e-01f, -6.76388890e-02f,
    -3.33920956e-01f, -2.24015519e-01f, -7.02411458e-02f, 7.84940422e-02f, 4.57237661e-01f, -1.21820062e-01f, -4.01637435e-01f, -3.50866407e-01f,
    -2.19610214e-01f, -4.94065940e-01f, 1.47223726e-01f, 3.24441344e-01f, 1.15181878e-01f, 1.67097390e-01f, 1.35884807e-01f, -1.20997773e-02f,
    -1.63108930e-01f, 5.36845103e-02f, 1.33257866e-01f, -2.90659130e-01f, 3.70638311e-01f, -1.21966191e-02f, -1.36196569e-01f, -3.04965138e-01f,
    -1.38723284e-01f, -5.40199220e-01f, 1.14292510e-01f, 1.23315044e-01f, 2.03230888e-01f, -2.36720845e-01f, 7.41996646e-01f, -3.02841723e-01f,
    -3.07432413e-01f, 2.83656538e-01f, 8.29863474e-02f, -1.50796399e-02f, 3.12420666e-01f, 9.15033519e-02f, -5.92119157e-01f, 2.32249260e-01f,
    -5.69183342e-02f, -4.55568917e-02f, -4.33700174e-01f, -3.53153527e-01f, -4.86515611e-01f, -3.13079268e-01f, -1.31726786e-01f, -1.57281324e-01f,
    1.45381212e-01f, 4.37649012e-01f, -4.80580986e-01f, -1.51768580e-01f, 6.31330535e-03f, 3.39714549e-02f, -1.85813591e-01f, -1.81473732e-01f,
    -7.97102079e-02f, 4.79546607e-01f, -2.54854411e-01f, 5.30304253e-01f, -1.84175715e-01f, 2.27489565e-02f, -6.81741357e-01f, -3.25919956e-01f,
    -1.52300104e-01f, -1.97621077e-01f, 4.56666946e-01f, -3.73982459e-01f, 1.18026361e-01f, -2.47673020e-02f, -1.59699142e-01f, 1.22003034e-01f,
    2.58895248e-01f, 2.10185349e-01f, 1.04068466e-01f, 4.86600809e-02f, -3.87959667e-02f, -9.40332264e-02f, -5.18593371e-01f, -3.22389930e-01f,
    -1.85575649e-01f, 4.72913712e-01f, 1.12264343e-01f, 5.79472780e-01f, -1.16403542e-01f, -2.79519223e-02f, 3.88078392e-01f, 1.83168892e-02f,
    -3.12384427e-01f, -1.19271211e-01f, 1.41432822e-01f, -3.45918417e-01f, 2.47005429e-02f, 4.71292362e-02f, -2.15773389e-01f, -3.83822829e-01f,
    1.35035347e-02f, -2.46480137e-01f, 3.94172259e-02f, -2.47085211e-03f, -1.02910422e-01f, 1.58056021e-01f, -3.16615015e-01f, 8.28497112e-02f,
    1.36081398e-01f, 2.78548479e-01f, -9.92972180e-02f, -7.75275171e-01f, 8.75870734e-02f, -4.95019257e-02f, 4.69807804e-01f, 9.00905207e-02f,
    2.47077763e-01f, -9.69762355e-02f, -3.44422787e-01f, -2.33608708e-01f, -3.96700591e-01f, 8.29637125e-02f, -2.02547714e-01f, 2.59326339e-01f,
    2.70395666e-01f, 1.32165076e-02f, 4.88151044e-01f, 1.03670016e-01f, 1.05567999e-01f, -1.93361208e-01f, -1.30774871e-01f, -5.59325442e-02f,
    -2.07246542e-01f, -4.12652105e-01f, -7.11966082e-02f, -9.76510718e-02f, -3.98992002e-01f, 1.16358340e-01f, 9.76713449e-02f, -1.99607700e-01f,
    -3.30877811e-01f, -3.80845554e-02f, -1.26871139e-01f, 2.78603315e-01f, -7.83584490e-02f, -5.62301558e-03f, 3.49332094e-01f, 1.26885056e-01f,
    -2.56997913e-01f, 1.12679675e-01f, 1.99620500e-01f, 1.17448665e-01f, -4.58976686e-01f, -2.74716020e-02f, -9.02934372e-02f, -2.72177368e-01f,
    1.27307490e-01f, 1.05457090e-01f, 2.63683468e-01f, -4.52491015e-01f, 2.41646394e-01f, 9.98283774e-02f, 4.63489085e-01f, 2.10006572e-02f,
    1.74789175e-01f, -9.80291441e-02f, 1.80202186e-01f, -2.42424771e-01f, 4.01095254e-03f, 2.67546400e-02f, -9.75204483e-02f, 3.43357414e-01f,
    6.61691427e-02f, 2.73168504e-01f, 4.63809103e-01f, 1.33035138e-01f, 1.92779943e-01f, -2.16922104e-01f, -1.95318411e-04f, -2.30405539e-01f,
    1.07535012e-01f, -1.17601156e-01f, 1.27474666e-01f, -6.18819773e-01f, 2.03923851e-01f, 1.50166899e-01f, -3.64378721e-01f, 1.69413146e-02f,
    -2.64787644e-01f, 9.67351347e-03f, 4.40928221e-01f, 1.91187441e-01f, 2.17284665e-01f, 2.70754188e-01f, 1.57551244e-02f, 3.65992695e-01f,
    1.47362575e-02f, 3.27149212e-01f, 3.15090209e-01f, 2.36709744e-01f, 5.89807890e-02f, -3.68056059e-01f, 6.78474545e-01f, 2.30979789e-02f,
    -3.83705832e-02f, 1.91875622e-01f, -3.96006435e-01f, 1.00715980e-01f, -4.43952471e-01f, 1.29263118e-01f, -1.48405030e-01f, 1.75756767e-01f,
    -5.06357923e-02f, -1.72323465e-01f, 1.94396630e-01f, 1.46086931e-01f, 5.41427918e-02f, 1.51513532e-01f, 1.43722951e-01f, -9.82794166e-02f,
    3.37746181e-02f, -6.03505909e-01f, 5.48580408e-01f, -1.61352500e-01f, -2.13626567e-02f, 5.51587529e-02f, 4.64044482e-01f, 1.69676006e-01f,
    -1.77369505e-01f, -1.30457118e-01f, -3.86731356e-01f, -6.84294581e-01f, 3.25645834e-01f, -1.64370588e-03f, -6.60878897e-01f, 3.26756477e-01f,
    -3.13820302e-01f, -3.66749652e-02f, -6.30556373e-03f, 9.78260264e-02f, 1.99842304e-01f, 1.98520958e-01f, 1.76838368e-01f, 5.51794916e-02f,
    2.42914557e-01f, -2.47412905e-01f, -2.25709200e-01f, 1.39468238e-01f, 2.18280390e-01f, 3.07226062e-01f, 3.34950864e-01f, -2.32401744e-01f,
    -2.68241554e-01f, -8.13028887e-02f, -9.28220376e-02f, -7.71844909e-02f, -8.00094455e-02f, 5.14956377e-02f, -3.39568883e-01f, -2.27739334e-01f,
    -1.36682972e-01f, -2.33639538e-01f, 1.09330386e-01f, -2.28819743e-01f, 2.34466538e-01f, 3.10721070e-01f, 9.83253121e-02f, 2.96009511e-01f,
    8.16050731e-03f, -3.14507633e-01f, -9.36484616e-03f, -4.02950197e-02f, -2.83116132e-01f, 2.31712591e-02f, -1.14888823e+00f, 1.59343198e-01f,
    2.41863638e-01f, -2.23120712e-02f, 2.70530134e-01f, 7.55731165e-01f, 6.26926199e-02f, 8.02388117e-02f, 3.68537813e-01f, 1.85090199e-01f,
    -5.12224078e-01f, -2.30052114e-01f, -3.91103089e-01f, 3.43092769e-01f, -1.16032645e-01f, 1.58496290e-01f, 2.50471503e-01f, -6.24133348e-02f,
    3.03396821e-01f, -2.84664959e-01f, 3.31758946e-01f, -2.63886191e-02f, -1.51558802e-01f, -2.28091106e-01f, -3.52962911e-01f, 2.88910437e-02f,
    2.67389029e-01f, 4.53105867e-01f, -2.73839161e-02f, 5.57254136e-01f, -7.68565834e-02f, 4.94345799e-02f, 2.87256688e-01f, 2.56579608e-01f,
    5.84925152e-02f, 4.30864915e-02f, -3.53682011e-01f, -1.21468566e-01f, -2.93766290e-01f, -9.99310240e-02f, -1.97954133e-01f, 2.62913853e-01f,
    1.06922902e-01f, 6.57220185e-02f, -2.60421634e-01f, 1.19844556e-01f, -3.15992022e-03f, -3.41475636e-01f, -4.16175514e-01f, -8.10316131e-02f,
    2.83164773e-02f, -1.31473735e-01f, -9.51748118e-02f, -8.51504505e-01f, -1.24958523e-01f, -1.46145046e-01f, 1.19239733e-01f, -3.43290567e-01f,
    1.24142654e-01f, -9.06107128e-02f, 1.76495939e-01f, 3.08554828e-01f, -1.85521141e-01f, 2.17841372e-01f, -8.20327252e-02f, 9.56666917e-02f,
    -5.23640029e-02f, 1.96443409e-01f, -2.69622236e-01f, -7.67134875e-02f, 6.59856200e-02f, -2.39073336e-01f, -2.76429445e-01f, -2.86159545e-01f,
    -2.45641470e-01f, 4.21320111e-01f, 1.00997992e-01f, -1.96313456e-01f, 2.23086569e-02f, 6.74590543e-02f, -4.23016042e-01f, -1.36518553e-01f,
    1.67655617e-01f, -1.84796482e-01f, 5.58136553e-02f, -3.21602702e-01f, -1.37858436e-01f, 2.36721307e-01f, -7.27462843e-02f, 1.69774234e-01f,
    -5.08898310e-02f, -2.98874795e-01f, -2.44386777e-01f, 1.54423201e-03f, -3.64246778e-02f, 2.87155658e-01f, -6.37741387e-02f, -2.63394671e-03f,
    1.85672566e-01f, 2.33572260e-01f, -5.68934083e-02f, -1.95502653e-03f, 3.18925858e-01f, -1.65303588e-01f, -3.52171272e-01f, -1.02924138e-01f,
    -2.98365295e-01f, 3.27648282e-01f, 2.03997999e-01f, -5.20848632e-02f, -1.63504064e-01f, -2.50668913e-01f, -1.81586415e-01f, 1.45609364e-01f,
    8.71543139e-02f, -2.22705498e-01f, -8.61050561e-02f, 4.67149429e-02f, 5.28679742e-03f, -1.70059919e-01f, 1.23216832e+00f, 2.79057652e-01f,
    -9.04995278e-02f, 2.86006153e-01f, 1.41091228e-01f, -7.95743763e-01f, 2.79872455e-02f, 1.72171339e-01f, -2.85685718e-01f, 1.46652851e-02f,
    -2.09814712e-01f, -2.69958913e-01f, 3.08619857e-01f, 1.70917511e-01f, -2.28665590e-01f, 5.24853170e-02f, 1.16310924e-01f, -2.70859241e-01f,
    -2.30436593e-01f, -1.52939269e-02f, 3.02415848e-01f, 1.31833434e-01f, -1.67969003e-01f, 2.12121174e-01f, -5.84138095e-01f, -3.14058699e-02f,
    -1.62827939e-01f, -3.68439406e-01f, 2.83494182e-02f, -2.31001988e-01f, 8.44273046e-02f, 3.63554955e-02f, 1.34830534e-01f, -1.33177325e-01f,
    9.72892791e-02f, 1.49465159e-01f, -2.48810947e-01f, -5.35690933e-02f, 1.34175137e-01f, -3.44509274e-01f, 1.03678629e-02f, -4.02260162e-02f,
    -2.23996416e-01f, 4.57026601e-01f, -5.05453527e-01f, -1.44214883e-01f, -8.91050473e-02f, 5.70829175e-02f, -2.47705460e-01f, -2.56947458e-01f,
    -2.60448992e-01f, 4.36645269e-01f, -1.78476125e-01f, -4.48961020e-01f, 1.25979692e-01f, -1.37528433e-02f, -8.38669598e-01f, -1.14731334e-01f,
    -5.25345802e-01f, 2.38211453e-01f, -1.66441500e-01f, -3.33963305e-01f, 3.12855333e-01f, 2.13698074e-01f, 1.62063420e-01f, 2.21151397e-01f,
    1.42750919e-01f, -5.92287958e-01f, -3.46380949e-01f, -2.73786902e-01f, -5.91189504e-01f, -4.16322559e-01f, -6.27504647e-01f, -3.56064341e-03f,
    -2.40144238e-01f, 1.40505642e-01f, -1.49698406e-01f, 2.96319187e-01f, -2.92330950e-01f, 1.01255178e-01f, 6.82214797e-01f, 2.36338958e-01f,
    2.90249914e-01f, -2.87769526e-01f, 2.37568259e-01f, 8.37332979e-02f, -2.44643614e-01f, -2.77456790e-01f, -2.21393168e-01f, 1.66134074e-01f,
    -2.05055729e-01f, 5.82538210e-02f, -3.34374249e-01f, 2.31656253e-01f, -1.21035486e-01f, -3.61997962e-01f, -3.91829669e-01f, 6.24283068e-02f,
    5.69045581e-02f, -1.57666564e-01f, 1.41418964e-01f, 7.40146399e-01f, 3.16531867e-01f, 1.80781409e-01f, -4.34794277e-01f, 3.21541697e-01f,
    1.79585502e-01f, -5.33332899e-02f, 7.73447528e-02f, -8.52600019e-03f, 6.88817501e-02f, -5.16143208e-03f, 1.10952571e-01f, -3.42909306e-01f,
    8.97287875e-02f, -1.48146093e-01f, 4.81016248e-01f, -2.36354709e-01f, 1.33454025e-01f, -2.95378976e-02f, 2.51135737e-01f, 1.01802006e-01f,
    -1.73409224e-01f, -5.38167357e-01f, -4.17334326e-02f, -4.93962348e-01f, 2.96333879e-01f, 1.04351118e-01f, -3.27581227e-01f, 9.86444727e-02f,
    2.43825763e-01f, 9.20924768e-02f, -2.24609345e-01f, -8.35543126e-02f, -2.26759821e-01f, 7.59029314e-02f, -6.43528579e-03f, 2.90378809e-01f,
    1.63886413e-01f, -6.46921813e-01f, -6.61282912e-02f, -1.00905551e-02f, -3.91062424e-02f, 3.67761314e-01f, 8.43265932e-03f, 3.66005361e-01f
};
static const int CONV2D_1_KERNEL_K = 3;
static const int CONV2D_1_KERNEL_W = 3;
static const int CONV2D_1_IN_CH = 12;
static const int CONV2D_1_OUT_CH = 24;

static const float CONV2D_1_BIASES[] = {
    -3.89454901e-01f, -9.37267542e-01f, -8.13900173e-01f, -1.52000368e+00f, -7.67125726e-01f, -4.36925024e-01f, -7.56091416e-01f, -6.20366275e-01f,
    -4.11016434e-01f, -7.10644960e-01f, -7.12647378e-01f, -3.90296578e-01f, -1.05406535e+00f, -5.68352759e-01f, -5.05403697e-01f, -4.66323137e-01f,
    -6.84321404e-01f, -7.57366598e-01f, -7.43923247e-01f, -9.03457463e-01f, -8.25820446e-01f, -1.20968378e+00f, -1.26325083e+00f, -5.44080555e-01f
};

// CONV2D_2 conv kernel shape (3,3,24,48)
static const float CONV2D_2_KERNEL[] = {
    -1.31207597e+00f, 1.85193822e-01f, 3.18190493e-02f, 2.49294624e-01f, -4.20576602e-01f, 2.58305013e-01f, 2.28120551e-01f, 3.06379795e-01f,
    5.44614308e-02f, -1.63907871e-01f, 3.64889383e-01f, 1.32853538e-01f, 1.42232463e-01f, 4.91389893e-02f, 1.29953131e-01f, -2.55784392e-02f,
    -5.03709614e-01f, -2.45998591e-01f, -1.47355333e-01f, -2.93355912e-01f, 3.05691332e-01f, 8.45809206e-02f, -5.57826832e-02f, -5.02340198e-01f,
    2.62661338e-01f, -1.68620318e-01f, -5.43980002e-01f, -9.68966186e-02f, 3.13091725e-01f, -3.57922524e-01f, 7.19728023e-02f, -4.12081122e-01f,
    -8.87484774e-02f, -2.69343823e-01f, -3.23096365e-01f, 6.84776157e-02f, -2.66326249e-01f, -1.83372602e-01f, 1.42825052e-01f, -2.52771284e-02f,
    4.13832068e-01f, -4.71025646e-01f, -8.34747016e-01f, -2.20449165e-01f, -3.12661454e-02f, -2.82693714e-01f, -2.76941210e-01f, 3.02954495e-01f,
    1.45477355e-01f, -1.25005066e-01f, -3.17453235e-01f, -2.33040333e-01f, -1.17485419e-01f, -1.99985914e-02f, 1.14493750e-01f, -1.23240955e-01f,
    2.66852170e-01f, -8.15791339e-02f, -3.01104933e-01f, -7.86533281e-02f, -3.22485238e-01f, 3.31057966e-01f, -2.90567875e-01f, -1.29240647e-01f,
    1.07605115e-01f, 1.39456928e-01f, -8.63477364e-02f, -3.61333877e-01f, -5.88806331e-01f, -4.73953664e-01f, 1.38657361e-01f, -7.50251934e-02f,
    1.91019580e-01f, -8.13190192e-02f, 3.86585534e-01f, -3.58541757e-01f, 1.15202546e-01f, 5.52375555e-01f, 1.35695964e-01f, -3.27819884e-01f,
    -1.36518508e-01f, 1.13347538e-01f, -6.05626345e-01f, 2.07193628e-01f, -8.54267702e-02f, -1.72339588e-01f, -7.48914182e-02f, -1.08866954e+00f,
    -7.28217125e-01f, 2.84966737e-01f, 6.07085675e-02f, -1.14996411e-01f, -1.31219998e-01f, -3.49354535e-01f, 7.06998706e-02f, -6.65377319e-01f,
    -3.93617481e-01f, -5.72633564e-01f, -2.32317131e-02f, -1.93598643e-02f, 9.31200683e-02f, -1.67888492e-01f, 1.16016410e-01f, -8.11101869e-03f,
    -1.31002143e-01f, 2.59273022e-01f, -7.37826005e-02f, -2.63279289e-01f, -5.25769517e-02f, 4.80830640e-01f, -2.71011531e-01f, 2.80079748e-02f,
    5.77319786e-02f, 4.69553322e-01f, -1.87166765e-01f, -1.34099945e-01f, 2.31367424e-02f, 2.97702640e-01f, -1.46159485e-01f, -1.12711109e-01f,
    2.94595093e-01f, 1.29698858e-01f, 3.47371539e-03f, 7.43092000e-02f, -1.44933775e-01f, -4.17654365e-01f, 1.30008519e-01f, -1.21179350e-01f,
    -1.05141796e-01f, -3.00796270e-01f, -1.58236578e-01f, -5.21039724e-01f, -2.26036087e-01f, -2.99542338e-01f, -2.46860221e-01f, -6.74751878e-01f,
    4.69917357e-01f, -9.21949223e-02f, -3.32631052e-01f, -7.74375796e-02f, -1.08042136e-01f, 1.71166897e-01f, 3.61102521e-01f, 6.29241407e-01f,
    -6.18009508e-01f, 1.51277095e-01f, 2.92302649e-02f, -1.93157479e-01f, 1.34854823e-01f, -6.84724823e-02f, -1.73598558e-01f, 4.15507197e-01f,
    -1.45846725e-01f, 2.88561359e-02f, 1.01486325e-01f, -3.15373875e-02f, -2.23541707e-01f, -1.42748311e-01f, -1.99646950e-01f, 2.02710852e-01f,
    1.82568178e-01f, -1.82060435e-01f, 1.71731800e-01f, 1.69287011e-01f, 6.64754137e-02f, 9.76231173e-02f, 9.06399451e-03f, 2.88577527e-01f,
    -4.53271158e-02f, 1.46624193e-01f, -1.10679865e+00f, 2.69185185e-01f, 2.83440024e-01f, 7.59729028e-01f, 3.14891815e-01f, -4.13868688e-02f,
    1.23003326e-01f, -3.88064265e-01f, -6.59279466e-01f, 1.22097313e-01f, -1.67610481e-01f, -6.41234294e-02f, -1.16435659e+00f, -5.41922927e-01f,
    2.79692505e-02f, -7.99942091e-02f, -1.11075366e+00f, -6.32754207e-01f, 2.25318164e-01f, 3.39727253e-01f, -1.28423870e-01f, 3.00557852e-01f,
    7.23788083e-01f, 1.40339673e-01f, -2.25385651e-01f, 5.22557870e-02f, 5.29387176e-01f, 1.62809268e-01f, -8.68001357e-02f, 1.24463238e-01f,
    2.08076071e-02f, -4.25729364e-01f, 1.24057889e-01f, 7.89263546e-02f, -8.21886882e-02f, 1.30523816e-01f, -3.61314714e-01f, -4.65267926e-01f,
    6.55218422e-01f, -7.32121095e-02f, 1.49640804e-02f, -1.46504998e-01f, 3.02844226e-01f, 4.17949781e-02f, -1.22806765e-02f, -3.35121125e-01f,
    -2.30667695e-01f, -3.92084457e-02f, 8.53749692e-01f, 1.48442775e-01f, -3.49236816e-01f, -6.56549096e-01f, 5.66366166e-02f, -8.27820599e-02f,
    -2.48088300e-01f, 6.65776879e-02f, 5.60824931e-01f, -6.22425258e-01f, 2.65064955e-01f, 3.22667181e-01f, 1.35636434e-01f, 1.66134655e-01f,
    -6.11014843e-01f, -8.57638568e-02f, 4.94407058e-01f, 1.46994799e-01f, -2.32159924e-02f, -4.11282241e-01f, -2.70125002e-01f, -2.39055306e-01f,
    -4.06526119e-01f, -3.27620745e-01f, 2.65957355e-01f, 2.57325441e-01f, -2.75331318e-01f, -1.81883112e-01f, 1.97722495e-01f, 4.02566269e-02f,
    1.27957299e-01f, -4.58639383e-01f, -2.46957719e-01f, -4.72902775e-01f, 1.57182679e-01f, 3.06180734e-02f, -7.67190680e-02f, 6.82234243e-02f,
    6.86887264e-01f, -1.25816762e-01f, 1.13725215e-01f, -2.01877281e-01f, -2.88834751e-01f, 6.73963223e-03f, 6.69402331e-02f, -2.19837159e-01f,
    -1.49250673e-02f, -1.66059092e-01f, 8.72888982e-01f, -1.21233046e-01f, 2.57653743e-01f, -4.76814538e-01f, -2.12087646e-01f, -1.65529966e-01f,
    -1.98476538e-02f, -6.93465114e-01f, -5.42239487e-01f, -1.41683538e-02f, 1.61569566e-01f, 3.60883266e-01f, -4.48111415e-01f, 2.48644412e-01f,
    -5.31096160e-01f, -5.31056635e-02f, 5.75284250e-02f, -7.02225789e-02f, 1.82082593e-01f, -3.33924055e-01f, 1.03437621e-02f, -6.96104169e-01f,
    5.98248281e-02f, -1.51137576e-01f, 9.00712758e-02f, -2.52462745e-01f, 2.91028596e-03f, 1.04528323e-01f, 7.37696365e-02f, -1.97131410e-01f,
    -1.79450005e-01f, -3.43872905e-01f, 2.57730577e-02f, 1.86583642e-02f, -1.19764758e-02f, -3.71553719e-01f, -5.77673391e-02f, 4.87028509e-02f,
    4.38356459e-01f, -1.50357082e-01f, -2.41536144e-02f, 1.56661626e-02f, -5.53877831e-01f, -1.95538104e-01f, -1.13495693e-01f, -6.67063892e-02f,
    6.56898087e-03f, -2.03876853e-01f, 8.35151017e-01f, 8.83322135e-02f, -1.14080682e-02f, 3.37656021e-01f, 1.59824267e-01f, -1.28918444e-03f,
    1.13528036e-01f, -1.28766268e-01f, 2.99525231e-01f, 4.69903909e-02f, -1.13753319e-01f, 7.17324093e-02f, -3.63072366e-01f, -7.82208085e-01f,
    -5.19945145e-01f, -6.82596117e-02f, 4.64908242e-01f, -1.85692117e-01f, -8.17429870e-02f, -1.01030476e-01f, 5.26489615e-02f, 1.29412845e-01f,
    -4.69785154e-01f, 2.95081556e-01f, -2.44715542e-01f, 9.19291675e-02f, -6.22351408e-01f, -6.96588010e-02f, 4.94736880e-01f, 3.35296601e-01f,
    -1.99169308e-01f, -2.40990460e-01f, 2.86155045e-01f, -2.31433257e-01f, -1.82181612e-01f, -3.84703398e-01f, 8.62655342e-02f, 3.42493564e-01f,
    -6.65307462e-01f, 6.79527894e-02f, 7.86666125e-02f, 4.64060396e-01f, -2.34739229e-01f, -2.04790354e-01f, -2.13511810e-01f, -3.89986366e-01f,
    -5.50499633e-02f, 2.19219431e-01f, 6.52736247e-01f, -2.46064469e-01f, 4.95897830e-02f, -6.00787699e-01f, 3.59603822e-01f, -1.61968797e-01f,
    -1.26078069e-01f, -9.49018598e-02f, -1.77528054e-01f, 4.77837436e-02f, -7.77091458e-02f, -5.84661327e-02f, -1.57037690e-01f, -3.20323169e-01f,
    -2.52014063e-02f, 6.42734945e-01f, 1.24826670e-01f, 3.50085646e-02f, -9.38240215e-02f, 5.44928491e-01f, -8.83525908e-01f, -8.24616134e-01f,
    1.25618890e-01f, -2.36509353e-01f, 1.74467564e-01f, -2.94362336e-01f, 6.15955293e-02f, 9.00381804e-02f, -3.18384357e-02f, -3.66638005e-02f,
    -2.09291101e-01f, 3.77291471e-01f, 8.55928194e-03f, 1.56123117e-02f, -5.07764444e-02f, 2.61379153e-01f, 4.42506611e-01f, 9.88960624e-01f,
    -7.87669539e-01f, 2.50355989e-01f, -2.08283678e-01f, 3.00895795e-02f, 4.22998399e-01f, 5.74136198e-01f, 2.49575824e-02f, 1.31452203e-01f,
    -9.58764404e-02f, -9.26030576e-02f, -6.64121807e-01f, 3.07790458e-01f, -1.21729970e-01f, -6.89665735e-01f, 2.32991558e-02f, 4.90938842e-01f,
    -1.33682173e-02f, -2.99553782e-01f, -1.16291367e-01f, 2.89741814e-01f, -3.03355068e-01f, -2.59623528e-02f, 1.74624756e-01f, 4.44292814e-01f,
    5.34113348e-01f, 1.35218287e-02f, -1.23025760e-01f, 4.89279121e-01f, 4.43627946e-02f, 1.45350233e-01f, -7.12230876e-02f, 4.14216071e-01f,
    5.17469347e-01f, 7.03265145e-02f, 1.48215801e-01f, -2.19758913e-01f, -2.89415061e-01f, -6.34796023e-01f, -3.82036865e-01f, 1.73511859e-02f,
    5.16447658e-03f, 6.12224378e-02f, -7.15657994e-02f, -8.79000872e-02f, -2.76541173e-01f, -3.38319987e-01f, 6.66680992e-01f, 4.59274739e-01f,
    -1.35117710e-01f, -1.14184454e-01f, 1.34850554e-02f, -1.55489072e-01f, -1.38685793e-01f, 6.26071811e-01f, -2.92055547e-01f, 1.23717532e-01f,
    -1.96233511e-01f, -6.24269107e-03f, 1.17866099e-01f, 6.49689019e-01f, -5.43888390e-01f, -3.77344221e-01f, 2.88792729e-01f, 1.01904400e-01f,
    2.04440370e-01f, -6.36492431e-01f, 2.43338883e-01f, 3.55780065e-01f, -1.22643150e-02f, -1.64123952e-01f, 5.63054442e-01f, 3.17661941e-01f,
    -3.69745880e-01f, -7.91458115e-02f, 5.95440388e-01f, 3.40201408e-01f, 2.21186355e-02f, 5.64490139e-01f, -7.69015729e-01f, -1.44272789e-01f,
    -5.30225575e-01f, 2.21695490e-02f, 2.26705819e-02f, 7.29386955e-02f, -2.37413585e-01f, 5.09024262e-01f, -2.25866158e-02f, -6.32365514e-03f,
    -3.25689055e-02f, -2.39096470e-02f, 1.40125439e-01f, -1.53704420e-01f, 4.08081561e-02f, -3.07863623e-01f, 4.96773094e-01f, -1.97141916e-01f,
    2.56244242e-01f, 1.57788601e-02f, -6.48738369e-02f, -1.09886536e-02f, 4.17290598e-01f, 6.04570270e-01f, -2.22059712e-01f, -5.46336062e-02f,
    3.94875199e-01f, -1.56819105e-01f, -1.46623075e+00f, 4.44345511e-02f, 1.60373539e-01f, -2.83988714e-01f, -2.13155448e-01f, 2.12719142e-01f,
    3.92446779e-02f, -1.00478858e-01f, -3.49873573e-01f, -5.58544463e-03f, -3.40214223e-01f, 3.83747369e-01f, -4.24333990e-01f, 1.23355404e-01f,
    6.02187850e-02f, -1.16961189e-01f, -7.94766366e-01f, -7.46423453e-02f, 6.29401654e-02f, 2.77403414e-01f, -6.86348900e-02f, 2.56061614e-01f,
    -8.83381486e-01f, 1.56071648e-01f, -1.69732317e-01f, -2.04454195e-02f, 3.91118318e-01f, -1.92208648e-01f, 1.90835372e-01f, 1.96872458e-01f,
    1.80994287e-01f, 2.31432647e-01f, -1.91956051e-02f, 3.30981277e-02f, -8.42054337e-02f, -4.53408927e-01f, -2.77816415e-01f, 5.64348325e-02f,
    -6.69631287e-02f, 1.79197535e-01f, 2.42950439e-01f, -8.16443637e-02f, -4.31474559e-02f, -9.67492834e-02f, 1.57257169e-01f, 2.42169037e-01f,
    5.77361556e-03f, -2.78429329e-01f, -1.17028069e+00f, -2.69983441e-01f, -8.28274041e-02f, 4.66166526e-01f, 2.69417372e-02f, -1.35993455e-02f,
    1.44389242e-01f, 4.11778450e-01f, -7.72282898e-01f, -5.08438647e-01f, 2.46844292e-01f, -4.28639472e-01f, -8.82433116e-01f, -3.61959010e-01f,
    -3.12989354e-01f, -1.56475589e-01f, -8.78047824e-01f, -1.01546846e-01f, -1.22372828e-01f, -1.94388568e-01f, -1.40736056e-02f, 5.50344326e-02f,
    -2.28471979e-01f, -8.86174217e-02f, -2.26230204e-01f, -1.45715564e-01f, 9.99746099e-02f, -2.70838320e-01f, -5.97876795e-02f, 2.40459785e-01f,
    -2.42739081e-01f, 2.91880161e-01f, -1.15246177e-02f, 5.83080411e-01f, -3.35835338e-01f, -5.85517883e-02f, -5.09130843e-02f, 7.78259575e-01f,
    -8.45121026e-01f, 4.64479417e-01f, 2.18252721e-03f, -2.83261716e-01f, 1.17380500e-01f, 5.22797927e-02f, 1.07224539e-01f, 5.70517063e-01f,
    2.43763357e-01f, -2.27070794e-01f, -3.23884785e-01f, 5.23972251e-02f, 2.72980899e-01f, -2.81148553e-02f, 6.25648677e-01f, 3.79886091e-01f,
    5.73995948e-01f, -2.73504630e-02f, 3.45302373e-01f, 2.93006957e-01f, -3.58362347e-02f, -2.90902436e-01f, 2.88235962e-01f, -4.06452090e-01f,
    -2.08324015e-01f, -4.41425234e-01f, -6.32805467e-01f, -8.72940198e-02f, 4.55158576e-02f, -5.62493801e-01f, -1.08919762e-01f, -4.19599146e-01f,
    -7.53001690e-01f, 2.97563493e-01f, 1.65654421e-01f, 2.04889148e-01f, -1.83380112e-01f, 2.07078129e-01f, -2.01062530e-01f, -8.73935893e-02f,
    -3.70318234e-01f, -9.23948064e-02f, 2.68852144e-01f, 1.51422262e-01f, -4.94439863e-02f, -2.71930605e-01f, -3.69012564e-01f, -3.06880742e-01f,
    -2.02865079e-01f, -9.54227969e-02f, 1.43335089e-01f, 3.58219922e-01f, -8.28718990e-02f, -1.02699459e-01f, 3.30914736e-01f, -3.65399361e-01f,
    9.86994058e-02f, 3.43519032e-01f, 3.12608272e-01f, -1.31754652e-01f, 1.60409227e-01f, 6.46848202e-01f, 3.33429165e-02f, -3.86939079e-01f,
    2.30009392e-01f, 1.84873655e-01f, -5.48547387e-01f, -5.18354714e-01f, -3.17121178e-01f, -1.88324273e-01f, -4.94911492e-01f, -2.69450620e-02f,
    -2.02692613e-01f, 4.22133923e-01f, -4.53532487e-01f, -3.54777455e-01f, 1.43430438e-02f, 5.15153296e-02f, -2.67625023e-02f, -8.54244530e-01f,
    1.60076782e-01f, 2.40097299e-01f, -2.17742980e-01f, -3.63580525e-01f, 7.40900040e-01f, 5.44549942e-01f, -4.79534864e-01f, 1.45445630e-01f,
    -3.70612852e-02f, 8.58273730e-02f, -1.67240143e-01f, -6.08428791e-02f, -2.92380661e-01f, 5.18352352e-02f, 7.50784352e-02f, -4.38932925e-02f,
    9.92045403e-02f, -7.23916367e-02f, 6.69799000e-02f, 3.45763117e-01f, 3.30935359e-01f, 3.11105818e-01f, -3.41152459e-01f, 3.18341553e-01f,
    3.65859300e-01f, -5.56104369e-02f, 5.27583510e-02f, 2.76810557e-01f, -2.10178033e-01f, 5.13745189e-01f, 2.31444299e-01f, 1.78117067e-01f,
    2.33436421e-01f, 3.06181312e-01f, 4.75930631e-01f, -1.51329517e-01f, -4.89823997e-01f, 4.94287044e-01f, 7.62978196e-01f, 4.14249860e-02f,
    -2.94278264e-01f, 4.00695682e-01f, 5.88019252e-01f, 4.13905829e-01f, -3.44568901e-02f, 1.34460643e-01f, 1.82663500e-01f, 1.09546036e-01f,
    8.03116858e-02f, 5.22866666e-01f, 2.13232934e-01f, -3.37355226e-01f, -6.00534379e-02f, -6.76009297e-01f, -3.41949910e-01f, -1.89121097e-01f,
    -1.65154293e-01f, -5.60470164e-01f, -2.86758989e-01f, -2.53566951e-01f, 1.93944916e-01f, -1.62921757e-01f, 3.54549319e-01f, -5.45783788e-02f,
    5.28645277e-01f, -3.79880846e-01f, 5.94312325e-02f, -8.50388184e-02f, -1.67225804e-02f, -3.05161804e-01f, -1.35073841e-01f, -4.01896268e-01f,
    -1.69193238e-01f, 3.01970541e-02f, -1.81089312e-01f, 3.90346423e-02f, -6.34698391e-01f, 1.30075708e-01f, -1.42150834e-01f, 1.63443722e-02f,
    -1.89865589e-01f, -2.60256361e-02f, 7.25344643e-02f, 6.44985318e-01f, 2.54855275e-01f, -4.35635418e-01f, 1.99453104e-02f, 6.29359961e-01f,
    1.38452332e-02f, -4.52349603e-01f, 1.53173255e-02f, -1.27947748e-01f, 1.43063053e-01f, 4.30911332e-01f, -1.32927641e-01f, 4.72974569e-01f,
    -3.63551944e-01f, -1.42511964e-01f, -1.51625797e-01f, -9.77700576e-02f, -7.37826526e-01f, -2.64036864e-01f, -2.89367497e-01f, -5.83511172e-03f,
    7.85881132e-02f, 3.23075622e-01f, -2.74842173e-01f, -9.36590508e-02f, -1.32955685e-01f, -1.48528561e-01f, 2.21557677e-01f, -4.01697934e-01f,
    -6.18829727e-01f, 2.86992103e-01f, 1.38335809e-01f, -4.22463566e-02f, -6.85281679e-02f, 9.28309411e-02f, -3.03562135e-01f, -7.37713301e-04f,
    6.51579142e-01f, 1.06601283e-01f, -1.13205202e-01f, -4.72892113e-02f, 2.79597700e-01f, 6.85957968e-02f, -1.62658989e-01f, 2.71632642e-01f,
    -8.16825554e-02f, -9.01322961e-02f, -9.60250616e-01f, 4.30228978e-01f, 2.52681226e-01f, -9.02961731e-01f, -6.31883025e-01f, 6.89088106e-02f,
    -4.44404694e-04f, -5.88489771e-01f, -2.32045069e-01f, -4.44835007e-01f, 2.69357532e-01f, -2.62417912e-01f, -1.93805650e-01f, -1.08847432e-01f,
    2.20511574e-02f, -2.93913424e-01f, -7.77722970e-02f, -1.37540177e-01f, 1.77152202e-01f, -5.68415344e-01f, -6.32309258e-01f, 1.11387387e-01f,
    2.35947683e-01f, 4.29914258e-02f, -1.92523703e-01f, 4.00947601e-01f, -5.16149819e-01f, 2.83950921e-02f, -1.44373149e-01f, 6.88009197e-03f,
    7.72308588e-01f, 1.27236575e-01f, 7.62470961e-02f, 2.61873037e-01f, -6.32460043e-02f, -3.16134125e-01f, 4.87245351e-01f, 1.75589889e-01f,
    1.74297974e-01f, 5.00085533e-01f, 1.32641220e+00f, -4.98318970e-02f, -5.27394637e-02f, 3.81545305e-01f, 2.54602939e-01f, 1.24742001e-01f,
    2.34076455e-02f, 2.53339000e-02f, -6.00145996e-01f, -4.43574488e-01f, -2.02809989e-01f, -5.58514774e-01f, 1.65291265e-01f, -2.52848640e-02f,
    -6.55655861e-01f, -3.13829571e-01f, 2.34785423e-01f, -4.36006278e-01f, -2.17448980e-01f, -2.73436576e-01f, 3.07791889e-01f, -8.85665238e-01f,
    8.31790149e-01f, -2.36057520e-01f, 2.80415088e-01f, -3.37654144e-01f, -1.81305811e-01f, -2.53886938e-01f, -6.58735871e-01f, -1.20729901e-01f,
    -1.37353256e-01f, -3.41204435e-01f, -3.21428835e-01f, -2.18669325e-01f, 1.93301544e-01f, -2.12408096e-01f, -1.52595460e-01f, -7.58482590e-02f,
    4.93941575e-01f, 1.45181015e-01f, 1.65536851e-02f, -4.21114042e-02f, 1.52871802e-01f, -3.57992873e-02f, -1.66680053e-01f, -4.00568873e-01f,
    -1.50955925e-02f, 4.05692279e-01f, 3.07218134e-01f, -2.11302012e-01f, 7.00205043e-02f, -2.56488115e-01f, -1.20925494e-01f, 1.00462638e-01f,
    -2.43898749e-01f, -1.45137310e-01f, 8.84263575e-01f, -2.81925369e-02f, 3.59818310e-01f, -8.65943432e-02f, 6.01611845e-02f, 4.55348231e-02f,
    -9.30127874e-02f, -4.07501549e-01f, 3.12459230e-01f, 2.37796515e-01f, -5.09353504e-02f, 1.62337169e-01f, -2.27474645e-01f, -1.99694955e-03f,
    6.79848850e-01f, -1.04683362e-01f, 1.68009959e-02f, -2.14637458e-01f, 4.93961722e-01f, -9.06815752e-02f, 4.01912108e-02f, -8.89155548e-03f,
    -3.04278284e-02f, -2.91592568e-01f, 6.72185495e-02f, -3.96566719e-01f, 5.27857542e-02f, 4.54688864e-03f, 1.35720074e-01f, 2.58969486e-01f,
    -4.09101844e-01f, -3.05570453e-01f, 6.36331141e-02f, -3.98127258e-01f, -8.14075112e-01f, -1.98276490e-01f, -4.79890525e-01f, -4.97393727e-01f,
    -2.66321242e-01f, -1.21331394e-01f, 1.33554149e+00f, 2.45895460e-01f, -4.99912173e-01f, 3.43960762e-01f, -5.90389907e-01f, 2.31645688e-01f,
    -1.75816968e-01f, 6.94796965e-02f, 4.89517272e-01f, 2.84691304e-01f, -6.02217317e-01f, -1.18474094e-02f, 3.52423757e-01f, -4.04529870e-01f,
    2.46173203e-01f, -3.18663418e-01f, 1.97256610e-01f, 5.77171862e-01f, -2.05578744e-01f, 2.83806711e-01f, 1.51154920e-01f, 1.04377735e+00f,
    6.38522387e-01f, 5.73929176e-02f, -2.69047797e-01f, 2.42500037e-01f, 2.92088687e-01f, 5.37307501e-01f, -9.51924324e-02f, 1.77606493e-01f,
    -1.41256958e-01f, 2.63779908e-01f, 2.52946854e-01f, -6.96731269e-01f, 2.59506434e-01f, -2.03159451e-01f, -6.55772924e-01f, -7.75178969e-01f,
    6.58803999e-01f, -2.20922992e-01f, 1.84291407e-01f, 2.54975539e-02f, -8.90520036e-01f, -2.91819274e-01f, 2.40708277e-01f, -4.65321332e-01f,
    2.24247783e-01f, 1.16193734e-01f, -1.00877571e+00f, -3.43041241e-01f, 3.35361391e-01f, -9.44904149e-01f, -2.57826626e-01f, -2.31036052e-01f,
    1.22981697e-01f, -3.97858284e-02f, 7.86675155e-01f, -6.45898819e-01f, -3.86461794e-01f, 1.22634687e-01f, 2.59002090e-01f, 3.75351310e-02f,
    4.49280515e-02f, -9.72653106e-02f, 7.46500671e-01f, 1.88672960e-01f, 3.32249701e-01f, 5.32038093e-01f, 3.09850127e-02f, -4.55283821e-02f,
    5.22745788e-01f, -2.00686693e-01f, 9.83799919e-02f, 1.25521153e-01f, -1.92312121e-01f, 2.26997003e-01f, 4.59715456e-01f, 1.23584859e-01f,
    -2.99538106e-01f, -3.64882380e-01f, -3.48785132e-01f, 3.22058618e-01f, 1.80668518e-01f, 3.40571739e-02f, 3.61997396e-01f, -1.91270173e-01f,
    -2.14274660e-01f, 9.50436816e-02f, -1.80714987e-02f, -2.61265069e-01f, 3.98678541e-01f, 6.65279180e-02f, 2.31544122e-01f, -2.75284559e-01f,
    -2.22741351e-01f, -5.16381979e-01f, -3.07312191e-01f, 8.51348601e-03f, 3.25529248e-01f, 1.96610451e-01f, -1.60590336e-01f, -2.57387668e-01f,
    -2.62408406e-02f, -6.81122169e-02f, 1.71823353e-01f, 1.52040757e-02f, -5.03006339e-01f, 4.73395765e-01f, 4.42598701e-01f, 9.80798751e-02f,
    -8.61176178e-02f, -2.98375875e-01f, -1.78356469e-01f, -2.30017558e-01f, -2.23631650e-01f, -7.48072267e-02f, -9.94110182e-02f, 2.10106567e-01f,
    -3.97445261e-01f, 4.25498858e-02f, -4.37798291e-01f, 3.71388525e-01f, 5.56697786e-01f, 4.18570250e-01f, 6.62207603e-01f, 3.62129956e-01f,
    7.00026751e-02f, -3.07000667e-01f, 6.46347940e-01f, 6.47325337e-01f, -1.20987386e-01f, -3.44419718e-01f, -1.26137733e-01f, -5.97866416e-01f,
    -7.16690183e-01f, -4.78105992e-01f, 2.55340278e-01f, 1.80778578e-01f, -3.85793075e-02f, -3.12176317e-01f, -1.38652816e-01f, -1.46278307e-01f,
    2.34308526e-01f, -5.77504300e-02f, -4.46747661e-01f, -3.88203591e-01f, -4.54445332e-01f, 2.22750038e-01f, 3.14145923e-01f, -5.01550317e-01f,
    4.03996646e-01f, 4.94774610e-01f, 2.30833068e-01f, -6.86518788e-01f, -2.08473727e-02f, 2.20227987e-01f, 2.99487952e-02f, -4.83253688e-01f,
    -2.66789317e-01f, 1.61305606e-01f, 6.27301820e-03f, -5.47677279e-01f, -3.04892063e-01f, -2.98918962e-01f, 4.54113752e-01f, -1.58300161e-01f,
    -4.89259243e-01f, 5.20411842e-02f, -2.90971100e-01f, 1.88987270e-01f, -1.94683820e-01f, -4.30204540e-01f, 3.79709244e-01f, -3.10713798e-01f,
    3.95623714e-01f, 1.61292523e-01f, -2.59479374e-01f, -1.10828176e-01f, -1.74899742e-01f, 7.59880692e-02f, -1.42073184e-01f, 1.86308958e-02f,
    -2.21518055e-01f, 3.60992640e-01f, 1.13638461e-01f, 9.64028835e-02f, -9.86000374e-02f, 1.57119125e-01f, -6.47148788e-02f, 1.92699432e-01f,
    -2.67785102e-01f, -8.24073479e-02f, 5.49038231e-01f, -3.58838886e-02f, 2.00756893e-01f, -1.86467692e-01f, -3.11775684e-01f, 1.71151245e-03f,
    1.26306653e-01f, 1.65605284e-02f, -4.62308913e-01f, 2.08543614e-02f, -9.88596380e-02f, 2.40918145e-01f, -6.00233793e-01f, -5.79282045e-01f,
    4.84010167e-02f, -4.05298591e-01f, -7.43740141e-01f, -6.08430684e-01f, -1.70104891e-01f, -5.83869755e-01f, 2.04504147e-01f, -1.83173627e-01f,
    2.98014998e-01f, -1.54519662e-01f, 1.43894881e-01f, -7.38296956e-02f, -7.91463614e-01f, 3.71066153e-01f, 2.20026121e-01f, 9.29110423e-02f,
    -1.19688414e-01f, -2.81135023e-01f, -5.99992275e-02f, 7.17274249e-02f, 3.22557986e-01f, 8.56055990e-02f, 5.62122054e-02f, -1.47089390e-02f,
    -3.05896848e-01f, -4.85737920e-02f, -2.47783512e-01f, -5.06999373e-01f, -8.77435729e-02f, -2.82242805e-01f, -5.82991719e-01f, -3.02009154e-02f,
    -1.44874185e-01f, -2.95702368e-01f, -1.05465245e+00f, -5.24106562e-01f, -3.13061625e-01f, -6.37862906e-02f, 1.89021677e-01f, -4.42298263e-01f,
    4.02684733e-02f, -4.37558889e-02f, -3.81420970e-01f, 3.63956206e-02f, 1.98422484e-02f, -2.47479349e-01f, -1.57833397e-01f, -1.05072759e-01f,
    5.00819027e-01f, -2.95264184e-01f, 4.06537764e-02f, -2.63481289e-01f, 1.56392053e-01f, 2.76336707e-02f, -3.47922981e-01f, -2.97844976e-01f,
    -2.70272791e-01f, -5.13513148e-01f, -4.53245640e-01f, -9.25218612e-02f, -6.49296865e-02f, 1.74865630e-02f, -1.42855451e-01f, -1.89493343e-01f,
    9.02323350e-02f, 1.07713081e-01f, -5.58382683e-02f, 3.55339110e-01f, 1.86755314e-01f, 4.04796809e-01f, -1.09257072e-01f, -3.20894688e-01f,
    9.99387622e-01f, -7.40526170e-02f, 6.65940493e-02f, -1.33086041e-01f, -2.70552784e-01f, -1.45680904e-01f, 4.93091911e-01f, 1.97021678e-01f,
    -2.15846151e-01f, 8.29145685e-02f, -2.83538699e-01f, -3.16516250e-01f, 4.58316654e-01f, 8.00675675e-02f, -2.76850581e-01f, 2.12967098e-01f,
    2.51251948e-03f, 1.90044999e-01f, 7.91265145e-02f, -1.17685243e-01f, -4.89650756e-01f, 7.67826429e-03f, 1.28529102e-01f, -1.52618849e+00f,
    -1.92592815e-01f, -3.73360217e-01f, 2.72341251e-01f, 1.48833722e-01f, -2.55493224e-02f, -3.10304016e-01f, 2.37905949e-01f, -6.21756554e-01f,
    -2.58772671e-01f, -4.46915865e-01f, -3.45329702e-01f, -3.17810297e-01f, -9.43650901e-02f, -3.13090473e-01f, 3.15579265e-01f, -2.32911184e-02f,
    3.02669138e-01f, -1.35654569e-01f, -9.41706728e-03f, 1.00795761e-01f, 1.51992798e-01f, 6.98672161e-02f, 2.07207546e-01f, -4.81068157e-02f,
    -5.28890491e-01f, 2.98648775e-01f, -6.31930009e-02f, -1.39341593e-01f, 1.31242290e-01f, -1.06189206e-01f, -1.15098089e-01f, 2.71423966e-01f,
    -2.75542200e-01f, 1.12111919e-01f, -3.33038330e-01f, -8.50217715e-02f, 8.67536440e-02f, -5.25214374e-01f, 3.09919715e-01f, -1.17769010e-01f,
    2.00383842e-01f, 2.75856107e-01f, -4.14902747e-01f, -2.80367047e-01f, -1.29007086e-01f, -2.58780092e-01f, -2.64311820e-01f, -1.05867207e+00f,
    2.80360460e-01f, 1.95523933e-01f, 1.71069019e-02f, -4.12805587e-01f, 2.92964995e-01f, 2.21688420e-01f, 1.05093651e-01f, 1.00141072e+00f,
    -7.76865542e-01f, 4.82090302e-02f, 1.04989842e-01f, 4.02038284e-02f, 5.44746704e-02f, -3.10990363e-01f, 1.65351570e-01f, 5.24957538e-01f,
    4.00732793e-02f, 1.47789001e-01f, -2.34076932e-01f, -9.52684600e-03f, 2.05018073e-01f, -5.00790179e-01f, 1.92482919e-01f, 3.60579461e-01f,
    -1.53827265e-01f, 5.75791560e-02f, 1.93453670e-01f, -3.94966900e-02f, 3.69275033e-01f, 2.03628659e-01f, -8.13817084e-02f, -4.95191813e-02f,
    -1.67342320e-01f, -3.62979531e-01f, 3.17724347e-01f, -4.16291133e-02f, 5.51021397e-01f, -4.68577504e-01f, 3.05286527e-01f, -1.86148793e-01f,
    2.52161264e-01f, -5.59582300e-02f, -6.17627025e-01f, -5.22664487e-02f, 3.33811603e-02f, -1.90191269e-01f, -8.90716195e-01f, -7.28197932e-01f,
    -1.38820976e-01f, -2.57117927e-01f, -1.05646908e+00f, -3.87185425e-01f, 2.50047594e-01f, 3.44866186e-01f, -2.67049968e-01f, -3.26887190e-01f,
    7.91987479e-01f, 1.15664996e-01f, -4.51071709e-01f, 1.93153486e-01f, 4.84987974e-01f, 3.35581750e-02f, -4.01007861e-01f, -3.44276488e-01f,
    7.52466023e-02f, -3.73184890e-01f, -8.90554674e-03f, 3.39140505e-01f, 6.38135001e-02f, 4.27876234e-01f, 6.25688881e-02f, -4.59045023e-02f,
    -2.91439928e-02f, -3.05574387e-02f, -1.85028076e-01f, 1.68405235e-01f, -3.08406591e-01f, -3.37153763e-01f, -1.77036017e-01f, 2.18354464e-01f,
    5.16366400e-02f, 1.49782404e-01f, 1.16798770e+00f, 1.10241517e-01f, 4.12721634e-01f, 6.08778857e-02f, 9.72309783e-02f, 1.08217075e-01f,
    6.09239638e-02f, -1.85324263e-03f, 5.10925412e-01f, 1.10951001e-02f, -1.66088536e-01f, 2.59278178e-01f, 7.53135920e-01f, -8.43622684e-02f,
    1.03863077e-02f, -7.40432786e-03f, 9.32051301e-01f, 1.57187611e-01f, 2.86462218e-01f, -5.60593963e-01f, -1.60538673e-01f, -2.60593623e-01f,
    3.26658159e-01f, 8.18537399e-02f, 4.39391553e-01f, 2.30963275e-01f, -1.80812210e-01f, -5.29799283e-01f, -8.37269127e-02f, 1.41800847e-02f,
    -8.33882913e-02f, 8.50235764e-03f, -3.23403358e-01f, -3.22445221e-02f, -1.48835629e-01f, 4.63930100e-01f, -4.04771477e-01f, -2.64784455e-01f,
    1.19070768e-01f, -1.62752852e-01f, -1.88273385e-01f, 8.90487805e-02f, 1.76044777e-01f, -2.84233332e-01f, 9.90987122e-02f, -1.42994538e-01f,
    -1.55209631e-01f, -8.96771476e-02f, -2.91375011e-01f, -2.20168367e-01f, 1.52580887e-01f, -7.77600110e-01f, 8.74552205e-02f, -2.23813146e-01f,
    1.49166912e-01f, -3.39618355e-01f, -2.15788215e-01f, -8.48118737e-02f, 1.27828136e-01f, 4.17242348e-01f, -6.26075208e-01f, 3.59045148e-01f,
    1.90782577e-01f, 3.20779085e-01f, -4.83370610e-02f, -4.95619148e-01f, 3.12417489e-03f, -3.08166325e-01f, 1.02450989e-01f, -6.56968236e-01f,
    4.22109872e-01f, -1.60474241e-01f, -5.44908226e-01f, -1.78127185e-01f, 2.39426911e-01f, -6.44888937e-01f, -3.27772796e-01f, -2.89297253e-01f,
    1.61777407e-01f, -1.66350618e-01f, -2.00322375e-01f, 8.53378847e-02f, -2.80645669e-01f, -3.25344026e-01f, -2.73215860e-01f, -4.04465348e-01f,
    -5.13749570e-02f, -4.20129187e-02f, 1.75305590e-01f, -1.22040801e-01f, -5.70617139e-01f, -6.49423540e-01f, 7.94729218e-03f, 1.33230790e-01f,
    1.10304341e-01f, 2.20784992e-01f, 1.53875453e-02f, -2.20482051e-01f, -2.88289756e-01f, 5.77745378e-01f, -2.02282578e-01f, -1.63444281e-02f,
    2.84107905e-02f, -3.49403694e-02f, 7.26488456e-02f, -4.81815964e-01f, -1.38375893e-01f, 2.11046085e-01f, 4.15795118e-01f, -6.46298528e-01f,
    -3.40995938e-01f, 1.38095900e-01f, -1.95028763e-02f, 2.66362429e-01f, -1.48348480e-01f, -2.91453511e-01f, 4.30310845e-01f, 5.22159159e-01f,
    1.09233923e-01f, 4.28761952e-02f, -4.75178599e-01f, 1.75855860e-01f, -3.29007298e-01f, -1.42484441e-01f, 5.43593109e-01f, 2.44780391e-01f,
    -2.42417186e-01f, 3.06365322e-02f, 3.11281979e-01f, -3.77464890e-01f, 2.04061612e-01f, -3.44118595e-01f, 8.74449164e-02f, -2.27133423e-01f,
    -5.49014568e-01f, -2.77274340e-01f, 4.15989757e-02f, 1.28110602e-01f, 8.94883424e-02f, -2.09596977e-01f, 1.17754444e-01f, -2.85582840e-01f,
    -2.42785946e-01f, -2.92292610e-02f, 3.44390050e-02f, -2.03630224e-01f, -1.66363508e-01f, 3.02553505e-01f, 4.49778959e-02f, -5.34369871e-02f,
    -1.23865806e-01f, -5.24861753e-01f, 1.73255473e-01f, 3.50579083e-01f, -9.41956118e-02f, 3.50364268e-01f, 6.95676776e-03f, 1.37286589e-01f,
    -8.46314877e-02f, 5.07319987e-01f, 6.69980526e-01f, -1.00325331e-01f, -3.04603934e-01f, 5.80517128e-02f, -1.83006138e-01f, -3.21748316e-01f,
    -4.51398045e-01f, 1.53824031e-01f, -2.18833261e-03f, -3.97537947e-01f, 6.75184652e-02f, -3.02022904e-01f, -2.52499551e-01f, 7.50525435e-03f,
    -3.64749819e-01f, -8.64069611e-02f, -2.77489662e-01f, 8.80992711e-02f, -1.04419358e-01f, -4.28198129e-02f, 4.70785648e-01f, 1.63418472e-01f,
    -1.37306079e-01f, 4.05357480e-02f, -2.11074967e-02f, -2.32107595e-01f, 2.25441396e-01f, 2.52814233e-01f, -3.00739378e-01f, -3.58944051e-02f,
    -2.74739981e-01f, -7.54498970e-03f, -7.62143254e-01f, 2.83362865e-01f, -3.86262745e-01f, -8.01126122e-01f, -2.39705086e-01f, 2.54687697e-01f,
    -1.50387034e-01f, 3.09910178e-01f, -1.39774531e-01f, 3.63416761e-01f, -4.21345569e-02f, -1.72668099e-01f, -9.91811603e-02f, 1.92644492e-01f,
    2.09681064e-01f, -4.64916468e-01f, -3.21738422e-01f, 3.48973304e-01f, -3.63696478e-02f, 2.79792219e-01f, -3.09879631e-01f, 6.35682225e-01f,
    4.65875149e-01f, 3.85747515e-02f, -3.97177748e-02f, -2.07868680e-01f, 1.56631276e-01f, -1.12726226e-01f, -1.56572402e-01f, 1.54357012e-02f,
    -4.18573260e-01f, 1.02264658e-01f, -1.21190310e-01f, -1.55314460e-01f, 8.64883736e-02f, -6.03262901e-01f, 4.42389280e-01f, 7.81261265e-01f,
    1.25275031e-01f, 4.18169126e-02f, -1.95536856e-02f, -2.40137547e-01f, -2.65168138e-02f, 5.21536112e-01f, -3.18082958e-01f, 2.97831982e-01f,
    -3.20042461e-01f, -8.55947807e-02f, 7.19988167e-01f, 3.24923933e-01f, 1.92410097e-01f, 1.99182197e-01f, 2.16125865e-02f, 8.80521461e-02f,
    4.90350202e-02f, -4.02411342e-01f, 8.71828273e-02f, -7.89450556e-02f, 2.27798462e-01f, 3.08632642e-01f, 8.89710367e-01f, -7.05029011e-01f,
    1.78566307e-01f, 1.97610617e-01f, -1.01495348e-01f, 5.62191904e-01f, -2.82435894e-01f, -8.37776214e-02f, -5.90804875e-01f, 1.63476802e-02f,
    -4.20345247e-01f, 2.58163720e-01f, -4.24550742e-01f, -6.29329681e-02f, -3.81432444e-01f, 1.74416259e-01f, 1.13754153e-01f, 1.32344142e-01f,
    -1.02246799e-01f, 7.17914999e-02f, 5.10517433e-02f, 6.88365042e-01f, -5.28809093e-02f, -3.18844430e-02f, 5.16659617e-02f, 1.21248491e-01f,
    -7.02980682e-02f, 4.86906357e-02f, 8.83058086e-02f, 5.28709404e-02f, 1.70769244e-01f, 2.89533526e-01f, 1.08516768e-01f, 3.16593883e-04f,
    1.19644152e-02f, -2.87192255e-01f, -4.98877108e-01f, 2.95844704e-01f, 2.38008592e-02f, 5.22714816e-02f, -3.33579212e-01f, 2.69286335e-01f,
    -2.29425699e-01f, -1.41426951e-01f, 4.93723713e-02f, 5.87001503e-01f, -3.01410139e-01f, -2.75818378e-01f, 1.42443523e-01f, -6.62885606e-01f,
    1.21614806e-01f, 1.20783202e-01f, -5.12201905e-01f, 4.75121513e-02f, -2.11319745e-01f, 4.13973242e-01f, -1.09138653e-01f, 6.82220161e-01f,
    -8.52914631e-01f, 1.87530279e-01f, -9.04785991e-02f, 1.43381700e-01f, -2.28473410e-01f, 1.95892137e-02f, 3.32518341e-03f, 1.37439981e-01f,
    2.66966611e-01f, 9.84135717e-02f, -2.87776113e-01f, -2.87057102e-01f, -7.30443150e-02f, -2.62502283e-01f, -2.53625214e-01f, -2.05203161e-01f,
    -4.14517492e-01f, -1.66002084e-02f, -3.10861580e-02f, 1.45774126e-01f, -2.00803965e-01f, -2.48049676e-01f, -6.83770655e-03f, 1.05377242e-01f,
    1.64087147e-01f, -5.88248409e-02f, -4.18590367e-01f, -2.30707526e-01f, 6.52225077e-01f, 2.86227018e-01f, -1.81038201e-01f, 8.12599063e-02f,
    1.64816931e-01f, 8.04241076e-02f, -4.52372044e-01f, -1.82888880e-01f, -2.97662079e-01f, -4.45556343e-01f, -6.96494460e-01f, -5.76903164e-01f,
    -6.35931864e-02f, -1.30975857e-01f, -7.25218594e-01f, -5.65308690e-01f, -2.71974474e-01f, -3.46226186e-01f, -4.62646298e-02f, -5.24190664e-01f,
    1.02045149e-01f, -8.39697719e-02f, -5.23461640e-01f, 1.59152187e-02f, 3.85685079e-02f, -2.41829097e-01f, -2.59549618e-01f, -2.57616825e-02f,
    2.07745194e-01f, 3.32341224e-01f, 1.86351076e-01f, 2.08555862e-01f, -2.56835878e-01f, 8.05532411e-02f, 3.19120675e-01f, 1.30805090e-01f,
    -5.90397835e-01f, 3.80476356e-01f, -8.84155110e-02f, 6.56942129e-02f, -2.82837003e-01f, 5.07299066e-01f, -2.28999421e-01f, 7.55356371e-01f,
    5.59951644e-03f, 3.19062084e-01f, -8.43606174e-01f, 2.83173352e-01f, 2.97066957e-01f, -9.05062407e-02f, 4.56304669e-01f, 3.93164217e-01f,
    4.38650817e-01f, 2.89521396e-01f, 6.59141183e-01f, 2.34117344e-01f, 6.42943149e-03f, 5.28922454e-02f, 2.69777328e-01f, -9.56798971e-01f,
    -3.35216433e-01f, -5.75501144e-01f, 2.01193571e-01f, 4.89361063e-02f, -8.39999616e-02f, -5.06986558e-01f, -9.33464095e-02f, -7.42735803e-01f,
    -3.19759339e-01f, 2.14959100e-01f, -8.28998014e-02f, 2.33117402e-01f, -1.70097589e-01f, -1.72417760e-02f, 7.39487633e-02f, 1.85260162e-01f,
    2.64207646e-02f, -1.83749720e-01f, 7.28140399e-02f, -1.16668046e-01f, 1.71808839e-01f, 7.99306780e-02f, -4.75959748e-01f, -1.06204495e-01f,
    -3.52132916e-01f, -2.14693293e-01f, 3.56082886e-01f, -2.77100559e-02f, -5.78913569e-01f, 5.90192759e-03f, 1.79753974e-01f, -6.40253052e-02f,
    -7.32460916e-02f, -2.09286153e-01f, -1.68362841e-01f, 1.02947569e-02f, 7.01073259e-02f, -1.62370563e-01f, 3.07656229e-01f, -5.18073976e-01f,
    -4.79315296e-02f, -2.33531043e-01f, -3.40759009e-01f, -3.80166978e-01f, -3.54170352e-01f, 3.45389426e-01f, -1.88063681e-02f, 9.50418293e-01f,
    -7.70100951e-01f, 4.42987472e-01f, -6.76230788e-01f, -2.52129316e-01f, -1.13683138e-02f, 1.08529478e-01f, 3.53773162e-02f, -5.83816409e-01f,
    1.20868587e+00f, -1.15466099e-02f, -3.14100444e-01f, 9.47388783e-02f, -2.56041348e-01f, 2.14072004e-01f, -5.58567345e-01f, -2.60263026e-01f,
    -1.09468035e-01f, -2.52260238e-01f, 1.11633115e-01f, 4.61716019e-02f, -2.55080163e-01f, -2.36218810e-01f, 2.79822558e-01f, 2.16113497e-02f,
    1.75739944e-01f, -3.18753898e-01f, 1.25484779e-01f, 2.67836154e-01f, 1.39962211e-01f, -3.85002166e-01f, -2.83721596e-01f, -2.81581342e-01f,
    -3.27360004e-01f, -3.33529711e-01f, -1.02483220e-02f, 7.02043697e-02f, 4.13964897e-01f, -1.48847923e-01f, -1.52503267e-01f, 2.36591429e-01f,
    1.10788301e-01f, -2.71059871e-01f, 5.07696986e-01f, 2.99139231e-01f, -1.66418269e-01f, 7.11752698e-02f, 1.98172897e-01f, 7.37859845e-01f,
    1.56172141e-01f, -3.31259221e-01f, 5.43183506e-01f, 2.18377784e-01f, -7.96594545e-02f, 7.76962638e-02f, 3.01719576e-01f, -4.44237202e-01f,
    3.97171527e-01f, 2.37184316e-01f, 1.42250955e-01f, -3.34332228e-01f, -6.94959641e-01f, -3.51301044e-01f, -3.51037741e-01f, -4.82558869e-02f,
    -3.16057622e-01f, -4.47846085e-01f, -1.13480315e-01f, -6.90006763e-02f, 2.69091308e-01f, 2.06956863e-01f, 3.15956444e-01f, 6.58892393e-02f,
    1.91483393e-01f, -4.30411220e-01f, 2.07092658e-01f, 1.98794380e-01f, 5.00503480e-01f, 6.54834881e-02f, 1.99865088e-01f, -5.16806662e-01f,
    -4.24932539e-01f, -5.59266880e-02f, -1.01389345e-02f, -1.13048047e-01f, 9.65686962e-02f, -1.18487489e+00f, -1.22926496e-01f, -1.84449494e-01f,
    -3.15012217e-01f, -5.47221482e-01f, -7.81727970e-01f, -1.82126090e-02f, -5.82870953e-02f, -4.45174426e-01f, -4.53504950e-01f, 6.48665965e-01f,
    2.56944954e-01f, 3.55871096e-02f, -1.79365292e-01f, 2.14937210e-01f, 3.51909369e-01f, 3.14962208e-01f, -1.48520395e-01f, 2.12522775e-01f,
    -5.33685982e-01f, -2.10752934e-01f, -1.89083800e-01f, -2.62077957e-01f, -1.73870444e-01f, -1.36695579e-01f, -4.27083939e-01f, -1.60794601e-01f,
    7.78302178e-02f, 1.10702962e-01f, 3.23365740e-02f, 1.24003321e-01f, 2.87089825e-01f, 9.04326290e-02f, 1.21836416e-01f, 5.36359429e-01f,
    3.57621521e-01f, -3.11630387e-02f, -2.95011133e-01f, -1.61240235e-01f, -1.18501469e-01f, 3.05823311e-02f, -7.16630518e-01f, 1.99003801e-01f,
    1.42464176e-01f, 1.76127609e-02f, -1.04376769e+00f, -8.50392878e-02f, -1.89765736e-01f, -8.01535249e-01f, 6.28605932e-02f, -7.41107911e-02f,
    -1.08143024e-01f, -1.60472557e-01f, 2.26839676e-01f, 4.97135252e-01f, 4.57651198e-01f, -9.31506678e-02f, 8.25757831e-02f, -1.28594446e+00f,
    6.17353678e-01f, -6.49515808e-01f, -3.67380202e-01f, -2.42876429e-02f, 4.40207757e-02f, -1.86350644e-01f, 9.38040689e-02f, 3.34428221e-01f,
    -1.32382646e-01f, -1.53088585e-01f, -4.84238058e-01f, -3.15451026e-01f, 3.07799913e-02f, 8.46427213e-03f, -1.89870670e-01f, 1.17060944e-01f,
    1.95961177e-01f, 3.63051772e-01f, -4.77787480e-02f, 1.47626445e-01f, -7.37860352e-02f, -4.98704519e-03f, 3.43926579e-01f, 1.85446218e-01f,
    7.96173692e-01f, 1.55450791e-01f, -2.63933893e-02f, -1.22600727e-01f, -4.65503126e-01f, 2.77249932e-01f, -5.51045239e-02f, -1.17810369e-01f,
    3.14583451e-01f, 3.74839932e-01f, 5.57609141e-01f, 3.37008052e-02f, 1.77473456e-01f, -3.83845121e-01f, 2.05675751e-01f, 1.24712266e-01f,
    -8.37235823e-02f, -2.51086086e-01f, -4.38225359e-01f, -2.62701511e-01f, 3.53355199e-01f, -3.01111668e-01f, -5.91424763e-01f, 4.39916968e-01f,
    -5.04882336e-01f, -6.05420358e-02f, 1.79918170e-01f, -5.02469420e-01f, -4.85522479e-01f, -2.05285460e-01f, 3.19590777e-01f, -4.63664889e-01f,
    -2.06925631e-01f, -9.04502198e-02f, 4.34121430e-01f, -2.97030240e-01f, -5.13742119e-02f, -2.73654461e-01f, -7.11528778e-01f, -2.43586656e-02f,
    -2.89404422e-01f, 2.21986532e-01f, -5.18501222e-01f, -2.81278074e-01f, 7.65469000e-02f, 4.23444510e-01f, 1.56376272e-01f, 5.81829138e-02f,
    6.41250098e-03f, 7.72641897e-02f, -2.33607218e-01f, -1.31081969e-01f, 4.56193388e-02f, 5.75150028e-02f, -3.19010988e-02f, -4.13717814e-02f,
    2.23981604e-01f, 4.33019042e-01f, -7.76313365e-01f, 3.16250138e-02f, -1.57206342e-01f, 9.02698040e-02f, -1.81737747e-02f, 1.48177385e-01f,
    -2.46160716e-01f, -1.03313010e-02f, -2.76586972e-02f, 6.19679689e-01f, 1.41497642e-01f, -2.70004869e-01f, 4.32879448e-01f, 2.04683049e-03f,
    3.58041823e-01f, -1.81582287e-01f, 2.41571311e-02f, 1.24375731e-01f, 3.37493032e-01f, -3.20876054e-02f, -1.94646224e-01f, 1.00372839e+00f,
    2.19949737e-01f, -1.83169723e-01f, 3.30454223e-02f, 1.72391772e-01f, -5.22315204e-02f, 2.88266987e-01f, -1.17701203e-01f, -5.28424904e-02f,
    -2.28075251e-01f, 2.54892021e-01f, -2.54082922e-02f, -6.58904850e-01f, -1.26025513e-01f, 1.54590845e-01f, -4.20931220e-01f, 2.80115958e-02f,
    4.83308375e-01f, -8.78915340e-02f, -2.08841458e-01f, -1.99856982e-01f, -1.38164192e-01f, -5.01698434e-01f, 1.94409788e-01f, -3.20944488e-01f,
    -4.68509525e-01f, 5.37333935e-02f, 1.17061019e+00f, 3.53746802e-01f, -5.03183063e-03f, -5.72549462e-01f, -8.96771476e-02f, -8.24510753e-02f,
    -5.00966273e-02f, 1.04752257e-01f, 1.51199713e-01f, -3.82336229e-01f, -3.62257302e-01f, -1.88571233e-02f, 6.09067976e-01f, -1.30130351e+00f,
    1.33130014e-01f, -2.45679602e-01f, 2.63947517e-01f, 4.61850733e-01f, 4.08246256e-02f, 1.47922397e-01f, -2.56722361e-01f, 1.99558716e-02f,
    8.96461964e-01f, 6.18572906e-02f, 7.58595718e-03f, 1.21888950e-01f, -2.87293503e-03f, -3.45116138e-01f, -2.52662599e-01f, -1.78369164e-01f,
    -3.70209605e-01f, 1.39234103e-02f, -2.08538190e-01f, -7.43772626e-01f, -3.39138582e-02f, 2.55556256e-01f, -3.88497412e-01f, -3.18579078e-01f,
    -4.47839797e-02f, -1.47396863e-01f, 7.94389248e-02f, 1.61890775e-01f, -3.95423084e-01f, -2.36910805e-01f, -1.85229778e-01f, -1.03295438e-01f,
    -3.12642813e-01f, -3.33061367e-01f, -8.99242043e-01f, -6.15158025e-03f, -1.99581593e-01f, -6.67278051e-01f, -2.30440229e-01f, 9.93012115e-02f,
    -2.25742031e-02f, -3.73713195e-01f, 7.46286958e-02f, 2.83833712e-01f, -4.85592149e-03f, -1.41840905e-01f, 1.60471484e-01f, 8.99033695e-02f,
    -5.85630313e-02f, 2.73535728e-01f, 6.49729848e-01f, -1.35193869e-01f, 2.03254953e-01f, 4.07803088e-01f, -8.66646878e-03f, 3.98760855e-01f,
    3.93949226e-02f, -2.69307554e-01f, 2.44779840e-01f, 1.50936902e-01f, 2.12687030e-01f, 3.05267006e-01f, 5.54814450e-02f, -2.25438073e-01f,
    6.92730173e-02f, -6.27193898e-02f, 7.22019523e-02f, -8.42624828e-02f, -9.67030302e-02f, -3.69383544e-01f, 4.67807144e-01f, -5.30079663e-01f,
    1.56785578e-01f, 7.40848258e-02f, -4.20975298e-01f, -3.33599925e-01f, 1.73033372e-01f, 3.59374166e-01f, 1.18105561e-01f, 4.04288501e-01f,
    7.09496289e-02f, -3.42457920e-01f, 8.90755594e-01f, -1.01141788e-01f, 2.29466055e-02f, -2.49204859e-01f, -3.18052888e-01f, -2.35329226e-01f,
    -4.22839493e-01f, -5.26752234e-01f, -4.07390743e-01f, -8.64206672e-01f, -3.92380506e-01f, -3.10412701e-03f, -4.93840240e-02f, 8.45986426e-01f,
    -2.74437100e-01f, 1.15033284e-01f, -7.76346743e-01f, -2.89225221e-01f, 3.66694927e-02f, -1.59462132e-02f, 7.28949904e-02f, 2.83231258e-01f,
    5.69497012e-02f, 4.53681126e-02f, 8.35861415e-02f, 3.86446536e-01f, 6.56527996e-01f, 5.40801227e-01f, 5.13281405e-01f, 3.10118735e-01f,
    3.55685800e-01f, 1.44761220e-01f, 5.19546628e-01f, 2.09167451e-01f, -1.94031402e-01f, -4.89018768e-01f, 4.14484888e-02f, 1.71421379e-01f,
    -2.40612045e-01f, 6.04400337e-02f, 2.84229070e-01f, 1.38482526e-01f, 7.92073309e-02f, -1.30470216e-01f, 1.17326617e-01f, 1.44935936e-01f,
    6.29973412e-01f, -1.93908408e-01f, -5.15519261e-01f, -5.21588810e-02f, 4.37450528e-01f, -5.07281184e-01f, 2.83429295e-01f, -1.35207757e-01f,
    4.56241131e-01f, 5.33957005e-01f, -1.13375641e-01f, 1.97386555e-02f, -3.81743789e-01f, 2.73358524e-01f, -6.44020140e-02f, -2.51038969e-01f,
    -3.91203821e-01f, 9.69547033e-02f, 1.10125765e-02f, -2.38102421e-01f, -1.62179962e-01f, -2.45904043e-01f, 3.58483523e-01f, -3.34971398e-01f,
    -1.07517111e+00f, -2.92912096e-01f, -1.28750011e-01f, 2.25168183e-01f, -1.16467439e-01f, 3.45924795e-01f, 1.76598892e-01f, 9.15823802e-02f,
    -1.00625508e-01f, -1.40442744e-01f, -3.18898678e-01f, -1.51204139e-01f, -7.22348457e-03f, 3.78332376e-01f, 1.11995570e-01f, -3.76001120e-01f,
    -4.15894389e-01f, -9.71909910e-02f, 1.99428111e-01f, 1.16582468e-01f, 2.74115298e-02f, 1.42928943e-01f, 1.14602581e-01f, 8.27034097e-03f,
    -2.43107870e-01f, -4.23423909e-02f, -8.84863555e-01f, -2.17050999e-01f, -4.06966388e-01f, -3.87484908e-01f, -1.83121711e-01f, -4.25922386e-02f,
    -2.13076249e-01f, -1.94079593e-01f, -4.87806499e-01f, -3.29492420e-01f, 3.18670422e-01f, -7.36802295e-02f, -1.97582141e-01f, -1.10776329e+00f,
    -3.11875552e-01f, -3.23063917e-02f, -5.27701676e-01f, -7.69586265e-01f, -1.06259689e-01f, -4.99148607e-01f, 1.06570609e-01f, -3.35511535e-01f,
    -1.13453925e+00f, -2.14103043e-01f, -4.43668738e-02f, 4.06895041e-01f, -1.27272280e-02f, 4.89477426e-01f, -1.58454224e-01f, -1.46856084e-02f,
    2.36082345e-01f, 9.25272927e-02f, -1.05910316e-01f, -1.70536309e-01f, 3.14583629e-01f, 3.75450283e-01f, -3.33879590e-01f, 3.07063870e-02f,
    -1.70574620e-01f, 3.00975472e-01f, -1.20865397e-01f, -1.23223782e-01f, 2.53361762e-02f, 2.16666549e-01f, -6.37318850e-01f, -2.82820255e-01f,
    4.67988178e-02f, -7.94941559e-03f, -2.69141883e-01f, -3.27948898e-01f, -1.74265534e-01f, 2.75545684e-03f, 3.75155956e-01f, -2.11803138e-01f,
    -2.36371651e-01f, -3.36689770e-01f, 6.90384984e-01f, -1.98352233e-01f, 1.40483677e-01f, -1.35381967e-01f, -1.20800741e-01f, 1.83079466e-01f,
    3.41973215e-01f, -1.83404967e-01f, 2.06732918e-02f, -5.03530800e-01f, 1.46215975e-01f, 2.50096712e-02f, 3.07410330e-01f, -2.36726195e-01f,
    8.65086675e-01f, -1.55930415e-01f, -1.60850242e-01f, 6.46547154e-02f, 2.87911370e-02f, 2.42407862e-02f, -3.56925935e-01f, 1.25470549e-01f,
    2.46250257e-01f, 3.52962285e-01f, 1.25644267e-01f, -1.88016042e-01f, 6.42676428e-02f, -1.71860442e-01f, -3.06899041e-01f, 5.00093997e-01f,
    6.79078460e-01f, -1.59433186e-01f, -2.03191727e-01f, 8.04721713e-02f, -2.52615809e-01f, -2.96664596e-01f, -7.02639446e-02f, 2.88043261e-01f,
    1.77942067e-01f, -4.24165934e-01f, 5.79095185e-01f, -1.90488353e-01f, 2.79917777e-01f, -2.57984161e-01f, -1.76688880e-01f, 1.17783360e-01f,
    -1.59318261e-02f, 2.58203566e-01f, 5.84771872e-01f, -5.92439584e-02f, -6.30739391e-01f, -1.51152769e-02f, 6.70878291e-01f, -2.63620764e-01f,
    -7.68339820e-03f, -3.37612480e-01f, 4.25688654e-01f, 3.87432337e-01f, 8.56776237e-02f, -5.33648014e-01f, 1.06038861e-01f, 2.75805771e-01f,
    1.57599151e-01f, -6.89867213e-02f, -5.58280885e-01f, 3.24499875e-01f, 5.38387179e-01f, 5.52245438e-01f, 2.90848613e-01f, 1.88094303e-01f,
    2.68182904e-01f, -1.51834846e-01f, 1.70307696e-01f, 7.10672736e-01f, 2.26004884e-01f, 2.08803907e-01f, 1.17222100e-01f, 2.18692780e-01f,
    3.78491312e-01f, -1.70187637e-01f, 3.59825268e-02f, -1.85181260e-01f, 4.91085291e-01f, 5.18528521e-01f, 1.30074914e-03f, 2.46665347e-02f,
    -3.66645753e-01f, 4.01098967e-01f, -5.51703334e-01f, -1.14657283e-02f, 1.41184926e-02f, 2.68464983e-02f, 3.48664790e-01f, -5.12354113e-02f,
    1.89068943e-01f, -9.42160338e-02f, 4.74519730e-01f, 8.65317702e-01f, -3.91670465e-01f, 2.60872275e-01f, 1.30754083e-01f, -4.67959270e-02f,
    8.45228255e-01f, -2.86137462e-01f, 5.55476919e-02f, -1.14754528e-01f, 3.02386880e-01f, -4.34121609e-01f, 5.07960856e-01f, 8.51570889e-02f,
    -9.76143897e-01f, 1.20987616e-01f, -5.10166883e-01f, -2.93559492e-01f, 3.28970522e-01f, 4.87634778e-01f, -2.91439712e-01f, 1.34257063e-01f,
    1.09658703e-01f, -2.56415814e-01f, -1.46138713e-01f, 1.26496255e-01f, 7.84420148e-02f, 1.63516730e-01f, 1.30930677e-01f, -3.09076637e-01f,
    1.24863960e-01f, -1.53899163e-01f, 1.56152993e-01f, 2.12034062e-01f, 2.56714910e-01f, -1.28552131e-02f, -3.23632896e-01f, -1.37223154e-01f,
    1.23336419e-01f, -7.23849004e-03f, -1.33859470e-01f, 1.50361240e-01f, -1.90046236e-01f, -5.52257538e-01f, 2.79581964e-01f, 1.28052428e-01f,
    1.00077428e-01f, -2.39219010e-01f, -5.02210021e-01f, -1.38677552e-01f, 1.79649964e-01f, -1.75923601e-01f, -2.82747626e-01f, -3.96830261e-01f,
    5.67174613e-01f, 1.20784394e-01f, -4.37098742e-01f, -3.26234072e-01f, 9.20124352e-02f, 1.26028672e-01f, -1.01713568e-01f, 6.24935865e-01f,
    1.27904654e+00f, -3.51893365e-01f, -6.68367565e-01f, -2.24742532e-01f, 4.84690458e-01f, -2.28396311e-01f, -1.84008047e-01f, -2.23191917e-01f,
    -4.64523844e-02f, -5.92262670e-02f, 1.63570553e-01f, -2.45381966e-02f, -1.99340001e-01f, 5.72925866e-01f, -3.58682066e-01f, -5.19573241e-02f,
    6.37074530e-01f, 4.29345556e-02f, -1.12663060e-01f, -1.57639995e-01f, -1.27163425e-01f, -2.81480402e-01f, -9.94405150e-02f, 2.79547751e-01f,
    -3.04770544e-02f, -8.28783773e-03f, 1.63959682e+00f, 2.21880808e-01f, -2.82116830e-01f, 3.76556307e-01f, 2.10984088e-02f, -2.01769337e-01f,
    1.42689580e-02f, -3.42706680e-01f, 9.63571250e-01f, 2.75960326e-01f, 1.43042291e-02f, -7.80097023e-02f, 8.17659497e-01f, 4.41555589e-01f,
    -1.03870258e-01f, -2.91969210e-01f, 1.08481324e+00f, 1.34037212e-01f, -1.31664723e-01f, -4.22480613e-01f, 2.17922568e-01f, 6.07565105e-01f,
    2.75515527e-01f, 2.13842973e-01f, 2.74029344e-01f, 1.71995461e-01f, 2.59371012e-01f, -3.80391061e-01f, -1.92598879e-01f, -2.20840693e-01f,
    -4.92021665e-02f, 2.34111205e-01f, 1.21202014e-01f, -5.47514975e-01f, 3.15637439e-01f, 1.73594773e-01f, -6.01640582e-01f, -6.56157017e-01f,
    -6.47804793e-03f, -2.22666517e-01f, -3.43529224e-01f, 1.12941347e-01f, -3.38025779e-01f, -8.55866373e-02f, 4.61539567e-01f, 2.83939958e-01f,
    2.23860264e-01f, -2.48253450e-01f, 6.72359824e-01f, 8.38924572e-02f, -1.01944745e-01f, 8.54570806e-01f, 2.04484060e-01f, -3.21910083e-01f,
    2.36572668e-01f, -3.90917808e-01f, -1.87438741e-01f, -2.54366070e-01f, -1.36503875e-01f, 4.52813417e-01f, 5.35998642e-01f, 5.35481572e-01f,
    3.54568154e-01f, -1.42415687e-01f, 5.30156970e-01f, -3.29385519e-01f, 3.84061515e-01f, -2.88828742e-02f, -9.66141652e-03f, 2.37231627e-02f,
    3.46156687e-01f, 2.84418333e-02f, -4.61447418e-01f, 1.27578661e-01f, -1.21443085e-02f, -2.59581506e-01f, 1.00309588e-01f, -1.50562435e-01f,
    1.94518805e-01f, -2.48524714e-02f, -1.17479973e-01f, 8.01343620e-02f, -2.08075657e-01f, -3.22713524e-01f, -3.77966285e-01f, -1.28726020e-01f,
    3.32969874e-01f, 1.21143661e-01f, 2.71037340e-01f, 2.45352492e-01f, -6.55808672e-02f, -1.89068556e-01f, -3.75225574e-01f, 1.11529864e-01f,
    -1.33699372e-01f, -1.33202732e-01f, -9.22757030e-01f, -6.13921508e-02f, -4.52377647e-03f, -2.45622396e-01f, -4.95110303e-02f, -2.87839249e-02f,
    3.76238972e-01f, 9.15064197e-03f, -7.40157843e-01f, -2.22008720e-01f, -7.05392985e-03f, 1.81113720e-01f, -6.84016407e-01f, 2.75477141e-01f,
    -3.03024769e-01f, -3.78322929e-01f, -9.31830630e-02f, -1.17709227e-01f, -6.62297457e-02f, -2.88527638e-01f, -2.87576526e-01f, 4.41311896e-01f,
    -1.07256047e-01f, 3.75805348e-01f, 6.61633462e-02f, -7.71248341e-02f, -7.64203787e-01f, 1.19600534e-01f, 4.81092334e-01f, 1.69783205e-01f,
    -4.88951772e-01f, -3.22816908e-01f, -2.31161173e-02f, 3.02106403e-02f, -1.96775585e-01f, -1.98199470e-02f, -4.84588295e-02f, -2.57471293e-01f,
    -4.06704307e-01f, -2.64607668e-01f, 1.61546409e-01f, -1.34983305e-02f, 1.07358135e-01f, -3.13512124e-02f, -9.17142481e-02f, -2.44288474e-01f,
    -2.96042472e-01f, -2.00624511e-01f, -5.04575431e-01f, -6.76558213e-03f, -3.33785683e-01f, 1.05439670e-01f, -1.17027283e-01f, -2.60302603e-01f,
    1.54660717e-01f, -3.78598392e-01f, -2.30795473e-01f, -1.88810647e-01f, -1.12665437e-01f, 2.16845155e-01f, -5.06180108e-01f, 1.64523706e-01f,
    -9.24785212e-02f, 1.09812431e-01f, 3.89278710e-01f, 2.17372954e-01f, -4.10920605e-02f, 2.58731693e-01f, -6.85062230e-01f, -5.82316279e-01f,
    -7.45040178e-02f, -2.94651724e-02f, 1.02988221e-01f, -2.27956623e-01f, -9.62370932e-02f, -5.91441810e-01f, -2.15353847e-01f, 1.01937294e-01f,
    -2.96494901e-01f, 3.96520980e-02f, -4.65759695e-01f, -9.08013582e-02f, -6.69283513e-03f, -3.77712667e-01f, 4.77870166e-01f, 4.44376171e-01f,
    -6.66121721e-01f, -4.18600664e-02f, -1.41928554e-01f, -1.91415384e-01f, -4.60870564e-02f, 5.79365551e-01f, -4.61071581e-01f, -8.44423994e-02f,
    6.77315667e-02f, -8.40226561e-02f, -3.52075696e-01f, 1.85791925e-01f, 2.06407696e-01f, -2.56019533e-01f, -2.74305195e-02f, 6.11648057e-03f,
    1.12694852e-01f, 2.94873808e-02f, -1.35421455e-01f, 5.71938813e-01f, 8.33109245e-02f, 1.10950083e-01f, -5.32796979e-01f, 2.97477514e-01f,
    4.44574319e-02f, -4.39781100e-01f, -3.26204658e-01f, 5.55626273e-01f, -1.26722693e-01f, 4.41104233e-01f, -2.10810080e-01f, 8.64726976e-02f,
    8.09096515e-01f, -1.32360622e-01f, 2.84153581e-01f, -3.36968482e-01f, -5.31091630e-01f, -3.48200172e-01f, -4.18948501e-01f, 1.61968142e-01f,
    -3.52784991e-01f, 3.39708850e-02f, -1.38447016e-01f, -2.93186545e-01f, -2.20508464e-02f, -3.62473488e-01f, 6.03231549e-01f, -2.01499984e-02f,
    -1.40777647e-01f, -1.86811015e-01f, -1.34230882e-01f, 7.05729797e-02f, -2.62850404e-01f, 4.72786099e-01f, -2.40364894e-01f, 1.38206244e-01f,
    1.63560763e-01f, -1.70581207e-01f, -2.77512193e-01f, 1.84605449e-01f, -4.77796853e-01f, 3.42630297e-01f, -9.40895528e-02f, -9.20573846e-02f,
